<?xml version="1.0"?>
<opencv_storage>
<my_nn type_id="opencv-ml-ann-mlp">
  <layer_sizes type_id="opencv-matrix">
    <rows>1</rows>
    <cols>4</cols>
    <dt>i</dt>
    <data>
      784 50 50 10</data></layer_sizes>
  <activation_function>SIGMOID_SYM</activation_function>
  <f_param1>6.6666666666666663e-001</f_param1>
  <f_param2>1.7159000000000000e+000</f_param2>
  <min_val>-9.4999999999999996e-001</min_val>
  <max_val>9.4999999999999996e-001</max_val>
  <min_val1>-9.7999999999999998e-001</min_val1>
  <max_val1>9.7999999999999998e-001</max_val1>
  <training_params>
    <train_method>BACKPROP</train_method>
    <dw_scale>1.0000000000000001e-001</dw_scale>
    <moment_scale>1.0000000000000000e-002</moment_scale>
    <term_criteria><epsilon>1.0000000474974513e-003</epsilon>
      <iterations>10</iterations></term_criteria></training_params>
  <input_scale>
    1. 0. 1. 0. 1. 0. 1. 0. 1. 0. 1. 0. 1. 0. 1. 0. 1. 0. 1. 0. 1. 0. 1.
    0. 5.3648089601031472e+002 -4.4180780035878615e-003
    1.8733774383330552e+002 -5.7548196110001025e-003
    2.8917827912884053e+002 -4.0825169257547667e-003
    6.9402784549102953e+003 -4.0825169257547667e-003 1. 0. 1. 0. 1. 0.
    1. 0. 1. 0. 1. 0. 1. 0. 1. 0. 1. 0. 1. 0. 1. 0. 1. 0. 1. 0. 1. 0. 1.
    0. 1. 0. 3.9039065793799291e+003 -4.0825169257547667e-003
    1.3101496181268840e+003 -4.7096882957418460e-003
    2.4170555661572348e+002 -8.7993464003812156e-003
    1.2171280219459351e+002 -1.1590559163787754e-002
    8.6089359193337074e+001 -1.4758979878597188e-002
    7.6718219273647634e+001 -1.9284854722948250e-002
    5.2369380879591176e+001 -2.4671797567120807e-002
    4.6120563044168556e+001 -2.9071027211066414e-002
    4.4786878460768051e+001 -3.0592658412926032e-002
    4.4787656333604353e+001 -3.1164012851993019e-002
    4.3052375530710435e+001 -3.1962872072097276e-002
    4.4224211811248360e+001 -3.0202535635168715e-002
    4.2710977315808599e+001 -3.1310217614785599e-002
    4.7105537951617727e+001 -2.8383396132158473e-002
    5.8885235955553128e+001 -2.3119190743491249e-002
    6.8612394577963698e+001 -1.9166626047137380e-002
    7.9472344018885167e+001 -1.6772300826249399e-002
    1.3123581002788268e+002 -1.0996360185098215e-002
    2.1052953089211195e+002 -8.3248607972167977e-003
    3.1615382190904126e+002 -4.3806935526371849e-003 1. 0. 1. 0. 1. 0.
    1. 0. 1. 0. 1. 0. 9.7597664484498227e+002 -4.0825169257547667e-003
    1.9654474500613208e+003 -5.3953459858502402e-003
    3.1269281164948018e+002 -8.5224122716123403e-003
    5.5735882228722335e+002 -1.1985036320239759e-002
    9.5576151789615537e+001 -1.7653477825358348e-002
    5.1056930164178773e+001 -2.7710899055215305e-002
    3.5733230559056175e+001 -3.7020094475901343e-002
    2.6249780508148806e+001 -5.2151280432312361e-002
    1.9721078691808820e+001 -6.7036200977379556e-002
    1.6409286549080885e+001 -8.3017048703456608e-002
    1.3549186342660247e+001 -9.9379298193932500e-002
    1.1609696744810909e+001 -1.1518412819176357e-001
    1.0285110111076740e+001 -1.2913325665555714e-001
    9.7338727394767943e+000 -1.3839467778572026e-001
    9.5151757314514303e+000 -1.3888363126273645e-001
    9.9099722698638910e+000 -1.3184343867851445e-001
    1.0956210590093917e+001 -1.2042952276999193e-001
    1.2709041411674468e+001 -1.0189079519288578e-001
    1.6674130696362294e+001 -7.8604904641684514e-002
    2.2944006927855842e+001 -5.6995613250721576e-002
    3.4145332390673552e+001 -3.9657684022977056e-002
    6.4380972289955125e+001 -2.3728386197652593e-002
    1.0201216064042070e+002 -1.4088346403922682e-002
    2.3129702595552419e+002 -7.8308406660807534e-003 1. 0. 1. 0. 1. 0.
    1. 0. 4.2338233222320622e+002 -5.3683775164463359e-003
    3.8666742348304632e+002 -8.8706059090845110e-003
    2.9859014774801244e+002 -1.4070817030805434e-002
    8.0947487658522121e+001 -2.2146809867850625e-002
    4.2299103006120951e+001 -3.5180136973244715e-002
    2.5693166624632646e+001 -5.5023680434794296e-002
    1.7471606281948510e+001 -7.9096132486633566e-002
    1.2387967826839686e+001 -1.0764901291939635e-001
    9.6104002962409627e+000 -1.3716993626751239e-001
    7.8359633636656172e+000 -1.6710576206380734e-001
    6.7479269336820620e+000 -1.9600875625047062e-001
    5.9035586020770170e+000 -2.2449111454187792e-001
    5.3359280153182747e+000 -2.4865599235127445e-001
    5.0493488363958932e+000 -2.6211797157803446e-001
    5.1020316277747826e+000 -2.6259690263220598e-001
    5.3500796218594200e+000 -2.4785590409543781e-001
    5.9302663542669949e+000 -2.2194700403229387e-001
    6.9559318179997014e+000 -1.8721140566259786e-001
    8.9774380797173094e+000 -1.4764013220829042e-001
    1.2125871950158762e+001 -1.0816436426260549e-001
    1.8460389166583141e+001 -7.6812111961473944e-002
    2.9061171573651848e+001 -4.7075299817748793e-002
    4.7515691261457995e+001 -3.0201967712070305e-002
    1.3997060017124366e+002 -1.5241243557476001e-002
    4.8119589386801294e+002 -5.2837196625275355e-003 1. 0. 1. 0.
    1.6437501695049459e+003 -4.0825169257547658e-003
    3.7948999124808012e+002 -7.7634229880172686e-003
    2.6465364956065173e+002 -1.4893254778498660e-002
    7.5547100132842345e+001 -2.3962750593807168e-002
    3.1293045517732885e+001 -5.0340898280189013e-002
    1.9253319487654689e+001 -7.8767470638240050e-002
    1.2245896133246163e+001 -1.1618154082631563e-001
    8.6097739388774102e+000 -1.6124756268211621e-001
    6.4388293629673141e+000 -2.1196163624500775e-001
    5.1132841711993935e+000 -2.6689873233519090e-001
    4.2638297890357677e+000 -3.2567801164512661e-001
    3.6806139544727343e+000 -3.9024154964529489e-001
    3.2738534965497990e+000 -4.5207637767453540e-001
    3.0435958433804271e+000 -4.9939798584797257e-001
    2.9495370808173877e+000 -5.2342832611087087e-001
    2.9769122738174585e+000 -5.1761889653133042e-001
    3.1329988028508930e+000 -4.8090242105578862e-001
    3.4437108985095328e+000 -4.2307969572253151e-001
    3.9682893262328145e+000 -3.5674039635689764e-001
    4.8775705226929116e+000 -2.8368364956985076e-001
    6.3838811405214022e+000 -2.1683666225361695e-001
    8.8883053626105912e+000 -1.5852438094871815e-001
    1.2980744765268748e+001 -1.0878458180989357e-001
    2.0958680168932609e+001 -7.0922531196939281e-002
    4.7812936951348171e+001 -3.8953481956109211e-002
    1.2257531590987458e+002 -1.4252385185312388e-002
    7.2367721439515208e+002 -5.7704980649312702e-003 1. 0. 1. 0.
    2.9417871540563647e+002 -1.1901740571867412e-002
    8.8757532139417663e+001 -2.2050156045995403e-002
    3.3425595655991053e+001 -5.1838075220759387e-002
    1.5797611144504913e+001 -9.0659703953055240e-002
    9.9267732325844857e+000 -1.3966710617956615e-001
    6.9531288054011107e+000 -1.9708212142090495e-001
    5.1791888093859644e+000 -2.6438472877765856e-001
    4.0949478367254004e+000 -3.4073044304775724e-001
    3.4204840343450540e+000 -4.2253575084186085e-001
    2.9730831654946930e+000 -5.1540865072114705e-001
    2.6668716473145091e+000 -6.1603532954457296e-001
    2.4737869050523331e+000 -7.1598329994436671e-001
    2.3794854760962667e+000 -7.9412046946133519e-001
    2.3503097988593207e+000 -8.3504925635580662e-001
    2.3634512455510617e+000 -8.2418581501601362e-001
    2.4260536770784915e+000 -7.6283928686585112e-001
    2.5775767509617884e+000 -6.6655950118818852e-001
    2.8486228331443502e+000 -5.5625040028500872e-001
    3.3231497757785200e+000 -4.4764565589238675e-001
    4.1210727967563585e+000 -3.4762461555368174e-001
    5.3682591316137893e+000 -2.6084090780568092e-001
    7.3094126115109832e+000 -1.9030605405482484e-001
    1.1168926550406491e+001 -1.3108013024346532e-001
    2.2622369636117178e+001 -7.4846037679501431e-002
    5.7487757691238450e+001 -3.1930129200937823e-002
    4.4537747239005859e+002 -8.2089183482417123e-003 1. 0.
    7.7475761849239916e+003 -5.5701529617163117e-003
    1.4522877585739832e+002 -1.5661927109954732e-002
    4.1878262883200854e+001 -3.6365660799255094e-002
    1.7999909142227235e+001 -7.9024308297724138e-002
    1.0331230932898812e+001 -1.3328908680027177e-001
    6.8290999672482995e+000 -1.9915441154090080e-001
    4.9272088983420650e+000 -2.7542969256552524e-001
    3.8384135058740849e+000 -3.6333594751041953e-001
    3.1668069885399324e+000 -4.6308053479389188e-001
    2.7597555957407991e+000 -5.7484519127083211e-001
    2.5128741893339548e+000 -6.9880387586332815e-001
    2.3671697816662784e+000 -8.2877368728986567e-001
    2.2969091330304900e+000 -9.5689205221335294e-001
    2.2733047872684260e+000 -1.0564726445619259e+000
    2.2700029602873086e+000 -1.1047183133689411e+000
    2.2700798035254794e+000 -1.0835076143940101e+000
    2.2737221268619314e+000 -9.9895165037964051e-001
    2.3209344948971462e+000 -8.7474762749777191e-001
    2.4580832860573358e+000 -7.2455973761129977e-001
    2.7398668240292201e+000 -5.8060590051791761e-001
    3.2651479905893215e+000 -4.5215876562125606e-001
    4.1219458100688380e+000 -3.3932343243838997e-001
    5.5475302010118375e+000 -2.4893037380193136e-001
    8.1851398042212065e+000 -1.7293970228860725e-001
    1.4306326443527240e+001 -1.0410424081705541e-001
    3.3058742626084744e+001 -4.8317622140315382e-002
    1.2378034910308999e+002 -1.4708018335971802e-002
    1.3289895241960487e+003 -4.0825169257547667e-003
    1.7097503105993474e+002 -1.3231009297387382e-002
    6.2156417289230625e+001 -2.6243821063207492e-002
    2.5326014435452908e+001 -5.9158591101620160e-002
    1.2461614420419414e+001 -1.1300485338296566e-001
    7.6748826564449653e+000 -1.7844152583258199e-001
    5.2903635826036215e+000 -2.5800481117426877e-001
    3.9855384106976888e+000 -3.5091181301576635e-001
    3.2255336891033113e+000 -4.5909822604992340e-001
    2.7636640436047499e+000 -5.8414555938894386e-001
    2.5061212210827257e+000 -7.2495421010686889e-001
    2.3728022936152451e+000 -8.7563927059873414e-001
    2.3191964338595943e+000 -1.0148029099084741e+000
    2.3096254095150335e+000 -1.1321685726224024e+000
    2.3091297569524634e+000 -1.2021883494219350e+000
    2.3156209254806486e+000 -1.2295375110901414e+000
    2.3134545967968343e+000 -1.2096977062098020e+000
    2.3040826394535481e+000 -1.1446098338285335e+000
    2.2977073667993531e+000 -1.0231255472837781e+000
    2.3473772945100539e+000 -8.6295358798529131e-001
    2.5233258071932654e+000 -6.9048024142832987e-001
    2.9015902103058213e+000 -5.3290132220149733e-001
    3.6020074141584897e+000 -3.9754744165744771e-001
    4.8258985705805326e+000 -2.8768128006504112e-001
    7.1423331935750323e+000 -1.9700702619488319e-001
    1.1967859180596893e+001 -1.2122894012373475e-001
    2.8232694452391648e+001 -5.6808611116772538e-002
    1.2309315998804624e+002 -1.5390667998292832e-002
    3.1512311940197498e+002 -5.0254929763461640e-003
    8.6915034227213312e+001 -1.7320519236473687e-002
    3.3353518918426836e+001 -4.3080539345626098e-002
    1.6501665069210755e+001 -8.5248897298831686e-002
    9.4878918596255062e+000 -1.3945836938888370e-001
    6.3388288157438160e+000 -2.1088330837912489e-001
    4.5489207782483518e+000 -3.0001797847660905e-001
    3.5089835075906186e+000 -4.0728152778461418e-001
    2.8955066536535083e+000 -5.3288848207907169e-001
    2.5483504278885358e+000 -6.8062942828912154e-001
    2.3779352949715311e+000 -8.4198850653767099e-001
    2.3094731416557623e+000 -9.8243825962476616e-001
    2.2950475427098693e+000 -1.0749410261392018e+000
    2.2897015071404887e+000 -1.1079807311493859e+000
    2.2934425646888057e+000 -1.1065909925445747e+000
    2.3014178424824854e+000 -1.1041449293100105e+000
    2.3021769544932984e+000 -1.1080246860400558e+000
    2.2968944306998953e+000 -1.1002043340650480e+000
    2.2893812422312445e+000 -1.0437866747052380e+000
    2.3139661012166353e+000 -9.1297850863583752e-001
    2.4379019491961684e+000 -7.3919131686119588e-001
    2.7526088689138888e+000 -5.7100550688195340e-001
    3.3962279264341801e+000 -4.2367100326525065e-001
    4.6485867214316325e+000 -2.9819620790274953e-001
    7.0153496296266971e+000 -1.9768613611613886e-001
    1.1806251728899330e+001 -1.2068381593648728e-001
    2.8559096790374753e+001 -5.3935628705774091e-002
    1.2669209539206287e+002 -1.3505543386742688e-002
    3.0944315317963407e+002 -5.9057126134358260e-003
    6.7738656622238466e+001 -2.1109667985968885e-002
    2.6390164853037579e+001 -5.2989037094956837e-002
    1.3804376771270224e+001 -9.3078492706036020e-002
    8.6264638559462412e+000 -1.5039873435817505e-001
    5.8816016172546597e+000 -2.2619102416253942e-001
    4.2265450319020417e+000 -3.2364534136116913e-001
    3.2674701841764309e+000 -4.4213121885917056e-001
    2.7235951492800199e+000 -5.8424747952851686e-001
    2.4429431754282676e+000 -7.4857559583901401e-001
    2.3184328847443116e+000 -9.0044933645904002e-001
    2.2880451790190088e+000 -9.9238771182055507e-001
    2.2903977291540158e+000 -9.9508845054647088e-001
    2.3159115826654175e+000 -9.4955660320436031e-001
    2.3400023309736979e+000 -9.0890463073946370e-001
    2.3448783848648453e+000 -9.1393597560628748e-001
    2.3324089905019623e+000 -9.5430484160568874e-001
    2.3068421463559310e+000 -1.0030879479951453e+000
    2.2944998827245033e+000 -9.9948655628514804e-001
    2.3186267704657251e+000 -9.0150861591533038e-001
    2.4383754485171605e+000 -7.3668151861396036e-001
    2.7460999213736166e+000 -5.6758942361502807e-001
    3.4069706817979601e+000 -4.2017190081767347e-001
    4.8071125317185377e+000 -2.9017459661998679e-001
    7.7632887031407938e+000 -1.8148235202313431e-001
    1.4099110746027900e+001 -1.0493977535211736e-001
    3.4218926242112786e+001 -4.7213173069471162e-002
    1.2770362755626950e+002 -1.4130865617149962e-002
    2.2080979481972778e+002 -5.7728051896635754e-003
    5.8551544860708745e+001 -2.2632277216942331e-002
    2.5743692712420348e+001 -5.2803174909811866e-002
    1.4040794545379780e+001 -9.2205807073873325e-002
    8.7664846399532319e+000 -1.4745170041602812e-001
    5.8682691958390016e+000 -2.2728458898662540e-001
    4.1271684665560304e+000 -3.3242831767066960e-001
    3.1726428200935208e+000 -4.6269615993779045e-001
    2.6434436699252171e+000 -6.1903352393203437e-001
    2.3980230386018517e+000 -7.8428268871882556e-001
    2.3107152781844200e+000 -9.0820988328758534e-001
    2.3020532537123550e+000 -9.3137298807958624e-001
    2.3616687536827730e+000 -8.6957693898804456e-001
    2.4501902006376532e+000 -7.9705953125158169e-001
    2.4767447444586304e+000 -7.7141210576080943e-001
    2.4242269432151642e+000 -8.0356009669907225e-001
    2.3741118908222560e+000 -8.7393930142504228e-001
    2.3236374730501517e+000 -9.5157541847179761e-001
    2.3084370459076480e+000 -9.6213107014847044e-001
    2.3368851413852503e+000 -8.6347326281157732e-001
    2.4890745322650929e+000 -7.0132424929878223e-001
    2.8361738959976552e+000 -5.3739656640440714e-001
    3.5527761731899536e+000 -3.9677102845564982e-001
    5.1237901210746575e+000 -2.7122264283119252e-001
    8.8311570423583614e+000 -1.5932446505431147e-001
    1.8016601970465089e+001 -8.1258409030663059e-002
    4.2475451263066198e+001 -3.6950867161005700e-002
    1.6162188860115646e+002 -1.1873399190853711e-002
    3.0321392328343035e+002 -7.0551739346642736e-003
    6.9327879968291768e+001 -2.0771176943315300e-002
    2.8599156427981907e+001 -4.7203562577549596e-002
    1.6332023143315467e+001 -8.2003836591592230e-002
    9.6134959453560249e+000 -1.3745728550563183e-001
    6.0102573986025112e+000 -2.2518195646666947e-001
    4.0843516560539026e+000 -3.3849238244600804e-001
    3.0899489891325302e+000 -4.8293499897158720e-001
    2.5794276110452685e+000 -6.4828822167773359e-001
    2.3678608283610170e+000 -8.0980531476936812e-001
    2.3141938318023891e+000 -8.9646046460446061e-001
    2.3433404321987799e+000 -8.7178559663557820e-001
    2.4505416852454323e+000 -7.8497609927864986e-001
    2.5469197646779538e+000 -7.3254174095443259e-001
    2.4813477754078130e+000 -7.4095056286507999e-001
    2.3946426915352417e+000 -8.0221047344472940e-001
    2.3621688028976315e+000 -9.0126281941490594e-001
    2.3196255433058850e+000 -9.7772293278124422e-001
    2.3094117449211740e+000 -9.5554794718715286e-001
    2.3627026813110632e+000 -8.2490290244962106e-001
    2.5756959169276556e+000 -6.5598783786068571e-001
    2.9964048381517889e+000 -4.9936418843997310e-001
    3.7189069616766792e+000 -3.6957331047588260e-001
    5.2390531077791911e+000 -2.5846440795255993e-001
    9.5672989990866988e+000 -1.4969571541660254e-001
    2.5777562248504001e+001 -6.1111356621783915e-002
    5.7373091915983444e+001 -2.8011568936962498e-002
    2.8492657215739843e+002 -9.1250996351920129e-003
    3.5594987641409557e+002 -5.3043513137468554e-003
    9.4791115927359712e+001 -1.6238399995902673e-002
    3.8327558212569656e+001 -3.6378614981226812e-002
    1.9899955434053297e+001 -6.8582010752963551e-002
    1.0583490008789630e+001 -1.2736849948820311e-001
    6.0022749242070725e+000 -2.2614336060038370e-001
    3.9429188777766218e+000 -3.5220290772844426e-001
    2.9703659427023865e+000 -5.0758351463884255e-001
    2.5120531810291049e+000 -6.7944964231380811e-001
    2.3400369882995657e+000 -8.2825105145513700e-001
    2.3152806380133186e+000 -8.8883003965305396e-001
    2.3570299628350395e+000 -8.4190091517470877e-001
    2.4523180750098583e+000 -7.6653453141818517e-001
    2.4745419852472459e+000 -7.7020475853643366e-001
    2.3415121077481293e+000 -8.2034372296827540e-001
    2.3006479016649179e+000 -9.1768349461627485e-001
    2.3215181931826061e+000 -1.0290959458622542e+000
    2.2951064685186098e+000 -1.0582790011233243e+000
    2.2922312798183810e+000 -9.6567404756517139e-001
    2.3969977575408943e+000 -7.9447676689302027e-001
    2.6843948212324853e+000 -6.1674936599250463e-001
    3.1327176368905603e+000 -4.7007288569919620e-001
    3.8146440475721257e+000 -3.5512441570711928e-001
    5.1233803565236054e+000 -2.5540754559716816e-001
    9.1333732885906187e+000 -1.5382451413879286e-001
    3.0176743919350308e+001 -5.2454282291703812e-002
    6.8736104119773330e+001 -2.1505865133579341e-002
    2.4886281089663652e+002 -9.9219815924551629e-003
    1.9519532896899645e+003 -4.0825169257547667e-003
    1.5278182212105168e+002 -1.0934385475086019e-002
    5.3124290381130734e+001 -2.5544797971133213e-002
    2.3963175940830791e+001 -5.7073081192190386e-002
    1.0894664373756868e+001 -1.2466202083886102e-001
    5.7190220435471195e+000 -2.3849817393128747e-001
    3.7247304971314525e+000 -3.7325889874453644e-001
    2.8570634271343360e+000 -5.3313607010242603e-001
    2.4649387283709516e+000 -7.0209414254697566e-001
    2.3294563044533056e+000 -8.3745005342666701e-001
    2.3162617421233631e+000 -8.8007425314282606e-001
    2.3541599869294054e+000 -8.4101427640859638e-001
    2.3976996357132512e+000 -8.1679096235082194e-001
    2.3455576036564376e+000 -8.9192404165129613e-001
    2.2405161665547344e+000 -9.7855056749435643e-001
    2.2848281990008465e+000 -1.1108034348264570e+000
    2.3193023652239093e+000 -1.1806299637403603e+000
    2.2737736985285615e+000 -1.1288577610345119e+000
    2.2859771540836697e+000 -9.7607041736638400e-001
    2.4356898638405293e+000 -7.7519539879466393e-001
    2.7447986339664068e+000 -5.9444660744996891e-001
    3.1590746832916117e+000 -4.6091023967254047e-001
    3.7814789520643957e+000 -3.5550054693543814e-001
    4.9257015514210067e+000 -2.6354918133304256e-001
    8.2208589242476027e+000 -1.6450368783159636e-001
    2.5954888077457770e+001 -5.9513032785963038e-002
    7.1809723124772660e+001 -2.3368667945240732e-002
    1.7375176839444867e+002 -7.4043238015330153e-003
    5.5276556182575848e+002 -4.0825169257547667e-003
    2.4691249127225689e+002 -7.9883454199429389e-003
    8.6134069842761278e+001 -1.8296453055643928e-002
    2.8082418945003692e+001 -5.1339434738376370e-002
    1.0759234825880586e+001 -1.2934639780528998e-001
    5.3166979990211676e+000 -2.5752139449892208e-001
    3.5308347249498726e+000 -3.9501133107809910e-001
    2.7788958855542472e+000 -5.5042172497057373e-001
    2.4456390322327417e+000 -7.0732309101379065e-001
    2.3309129818889831e+000 -8.2604982050292919e-001
    2.3276143696997282e+000 -8.6785315456393874e-001
    2.3528041492090299e+000 -8.6074372611799910e-001
    2.3564506975469435e+000 -9.0403568425773240e-001
    2.2859676784389427e+000 -1.0347035346571298e+000
    2.2422076618255358e+000 -1.1454361875382564e+000
    2.3283026161621181e+000 -1.2742078993414363e+000
    2.3215746332786940e+000 -1.2481935484502884e+000
    2.2691255498527179e+000 -1.1397750976187400e+000
    2.2957931461751087e+000 -9.6328345085513789e-001
    2.4457350592781810e+000 -7.6301131924236842e-001
    2.7139253507707810e+000 -5.9702704247599581e-001
    3.0907965633105148e+000 -4.7201999119145954e-001
    3.6782996426446153e+000 -3.6837041336524734e-001
    4.7685251138076854e+000 -2.7332531730663617e-001
    7.7275097775245278e+000 -1.7338663436106347e-001
    2.1431663193156854e+001 -6.8942720164739402e-002
    6.7976068223364109e+001 -2.4644657380557041e-002
    8.0352630096764460e+002 -6.9849019269755293e-003
    1.6587564066621760e+003 -4.7702800414168032e-003
    2.7628555281923161e+002 -4.1894280237942541e-003
    1.0543914156042786e+002 -1.8648256426065438e-002
    2.6868748417048771e+001 -5.3272123932593785e-002
    1.0056610295259727e+001 -1.4042051740819139e-001
    4.9056303882587207e+000 -2.7718062477915140e-001
    3.3920298880197790e+000 -4.1220900906901681e-001
    2.7586775502695384e+000 -5.5400340017988914e-001
    2.4700492270462737e+000 -6.9200544534485309e-001
    2.3574416684740833e+000 -7.9258314302255395e-001
    2.3494471930472263e+000 -8.4194083935003439e-001
    2.3534046381274121e+000 -8.6976698674166020e-001
    2.3271405763526309e+000 -9.5866435178155440e-001
    2.2645021592926078e+000 -1.0941026623517327e+000
    2.2643481010533932e+000 -1.2048945593454270e+000
    2.3324589356324146e+000 -1.2724254177800682e+000
    2.2899573648145002e+000 -1.1836340690530318e+000
    2.2643911272807853e+000 -1.0783524942057492e+000
    2.3214758116188281e+000 -9.2258453771877857e-001
    2.4481311437088400e+000 -7.5248127639028639e-001
    2.6679477326838810e+000 -6.0978718581715263e-001
    3.0089562499497662e+000 -4.8675394046402110e-001
    3.6000095403133292e+000 -3.8089677789549986e-001
    4.7658399627595980e+000 -2.7829889148674003e-001
    7.6781348424802269e+000 -1.7549155267349842e-001
    1.8194027952870897e+001 -7.7026142867230613e-002
    5.0970700973169819e+001 -2.9626304106761300e-002
    2.1444103433480433e+002 -9.1102402300022641e-003
    1.5615626688370928e+003 -4.0825169257547667e-003
    4.3118210866498373e+002 -6.7072773949266992e-003
    7.4103567040797373e+001 -2.1601432392398305e-002
    2.4849582084670089e+001 -6.0707692550739371e-002
    8.9577210510157030e+000 -1.5702241225085961e-001
    4.5844733595056848e+000 -2.9716316949982258e-001
    3.3078945953160570e+000 -4.2230679955157091e-001
    2.7862859655937635e+000 -5.4572670883740459e-001
    2.5345531891813025e+000 -6.5910029169170115e-001
    2.4268577521168866e+000 -7.4125055539316853e-001
    2.4016709244412526e+000 -7.8837956822291577e-001
    2.3774781804714529e+000 -8.3396729711932249e-001
    2.3181693652265993e+000 -9.1941340182165476e-001
    2.2581093867191364e+000 -1.0259556246832575e+000
    2.2637781374363977e+000 -1.1227755199202125e+000
    2.2914445737932567e+000 -1.1450631680222347e+000
    2.2738267121204796e+000 -1.0794597074728101e+000
    2.2925316038385004e+000 -9.9988631825843377e-001
    2.3499895118375496e+000 -8.7891758823830757e-001
    2.4512227250017862e+000 -7.4358354695923701e-001
    2.6336275973954510e+000 -6.1562164502372996e-001
    2.9908264110534786e+000 -4.9307976642021417e-001
    3.6241081455783544e+000 -3.7987428222747016e-001
    4.8968917167607033e+000 -2.7351765035083858e-001
    7.8803457154066576e+000 -1.7353912160656032e-001
    1.6651998712570645e+001 -8.4050148584957768e-002
    4.5490457495914207e+001 -3.4162442354077387e-002
    1.8533415106542139e+002 -8.9396475017993384e-003 1. 0.
    3.1272528069509980e+002 -8.9320884530738175e-003
    5.7722188781541384e+001 -2.5397763552538224e-002
    1.9766659214740706e+001 -7.3900175999987924e-002
    7.6197133271261928e+000 -1.7786004816348638e-001
    4.3139196946334328e+000 -3.1338343076992242e-001
    3.2703858159618995e+000 -4.2901306281978535e-001
    2.8322543736440142e+000 -5.3508893813496083e-001
    2.6182270867393669e+000 -6.2078198995980194e-001
    2.5150346894911983e+000 -6.8268924112787699e-001
    2.4702917048498105e+000 -7.2347014006379928e-001
    2.4179529110888551e+000 -7.6555898228681141e-001
    2.3484882223506967e+000 -8.2507042832445943e-001
    2.2995934391871122e+000 -9.1939023956809407e-001
    2.2784967857757339e+000 -1.0062601380037826e+000
    2.2814871178392950e+000 -1.0328150598231831e+000
    2.2960659036638327e+000 -1.0106726929154235e+000
    2.3213283244741656e+000 -9.5150930190270022e-001
    2.3550879384987486e+000 -8.5546569040277520e-001
    2.4434150552990870e+000 -7.4032107142160763e-001
    2.6358787565292001e+000 -6.1326579661208680e-001
    3.0316100828809454e+000 -4.8515629380565350e-001
    3.7626446035868213e+000 -3.6804197912277126e-001
    5.1811765341757416e+000 -2.6078182504371211e-001
    8.3242235766781221e+000 -1.6833375752181137e-001
    1.5937674453010477e+001 -8.8542637406523836e-002
    4.3629929251431058e+001 -3.5936234007029881e-002
    3.0745859936160235e+002 -1.0710812869814668e-002
    7.9264290382954835e+002 -5.9059667884066198e-003
    3.0466252237848397e+002 -6.3521141607904329e-003
    4.7072878041138345e+001 -3.3320214244283233e-002
    1.5316080507390778e+001 -9.1304863358325772e-002
    6.6617962943833726e+000 -1.9910803143977690e-001
    4.0960052775195699e+000 -3.2796741365280158e-001
    3.2065643376810495e+000 -4.3899542814059200e-001
    2.8285290962207679e+000 -5.3445409007988098e-001
    2.6514252731867503e+000 -6.0594789918596770e-001
    2.5479151004395426e+000 -6.5940509656342305e-001
    2.4802743245613934e+000 -6.9784836882395940e-001
    2.4320952188286302e+000 -7.3042289711392439e-001
    2.3963158369953845e+000 -7.8112567027452406e-001
    2.3365997654832360e+000 -8.7168855588320016e-001
    2.2936590400163581e+000 -9.5845445859848255e-001
    2.2982594127292231e+000 -1.0112466172079284e+000
    2.3140479275716292e+000 -1.0104488490174122e+000
    2.3138922655004164e+000 -9.5294508048441673e-001
    2.3390097793279789e+000 -8.5872464213485333e-001
    2.4369784609184322e+000 -7.3231139653859911e-001
    2.6754727095326194e+000 -5.9491059769969501e-001
    3.1294067910226357e+000 -4.6342915177180038e-001
    3.9445495520310541e+000 -3.4877114545342847e-001
    5.5085902005863181e+000 -2.4588474760444853e-001
    8.8099579978306579e+000 -1.5820093635281790e-001
    1.6777698363713807e+001 -8.5437963031161371e-002
    5.2277696344241953e+001 -3.1557961707876239e-002
    2.0428772867343619e+002 -9.7604141172027512e-003
    4.1641672487571304e+003 -4.0825169257547667e-003
    2.3612781711075036e+002 -1.1281662638917349e-002
    3.5408559718698022e+001 -3.9757101771674130e-002
    1.2957299696939886e+001 -1.0385233520642091e-001
    6.1964858147993693e+000 -2.1198097225213341e-001
    3.9594650444964721e+000 -3.3747788973590559e-001
    3.1271813601099603e+000 -4.5170193431740946e-001
    2.7617916321302518e+000 -5.5213161161170021e-001
    2.5842929066675864e+000 -6.3188647746150528e-001
    2.4802645880248617e+000 -6.9322439374912392e-001
    2.4176608056922126e+000 -7.3838490342499952e-001
    2.3783764450554807e+000 -7.7073076966790333e-001
    2.3490303082911219e+000 -8.2876952688509886e-001
    2.3116364742205167e+000 -9.1927271444367897e-001
    2.2877357705369965e+000 -1.0088061036688303e+000
    2.2962927703534590e+000 -1.0608282848796260e+000
    2.3055633661100563e+000 -1.0481237315772911e+000
    2.2953862067285660e+000 -9.6705521798398641e-001
    2.3392306315132405e+000 -8.4650228801890137e-001
    2.4875291139961457e+000 -7.0122275732413397e-001
    2.7878473255332268e+000 -5.5538565651689953e-001
    3.3310128770022769e+000 -4.2707460799875402e-001
    4.3033513665355905e+000 -3.1681048101811732e-001
    6.1459947839004654e+000 -2.2068580424468653e-001
    9.8816230148713426e+000 -1.4105726429159887e-001
    1.8655700071922737e+001 -7.8171042636145410e-002
    5.0726362610482980e+001 -2.9182578619715460e-002
    2.9949883377146671e+002 -8.0257859512416103e-003 1. 0.
    1.7274475915998426e+002 -1.0342104927080499e-002
    3.3237269496476486e+001 -4.3273622199041920e-002
    1.2341179937887706e+001 -1.0916701419569666e-001
    6.2613640936690826e+000 -2.0903257346693113e-001
    4.0691477585926403e+000 -3.3022464188369649e-001
    3.1277474562017642e+000 -4.5487526727414634e-001
    2.6981651335036378e+000 -5.6919680920874238e-001
    2.4916779890819090e+000 -6.7294360257836749e-001
    2.3897765853198467e+000 -7.6060122869494906e-001
    2.3376032043649415e+000 -8.2875749867192705e-001
    2.3094098733546939e+000 -8.8650819387043789e-001
    2.2931587187037685e+000 -9.5984040790998726e-001
    2.2848475852125874e+000 -1.0513839738978326e+000
    2.2875166188451828e+000 -1.1209048305462916e+000
    2.2928505979586640e+000 -1.1289434454891294e+000
    2.2923966853097815e+000 -1.0627393793992568e+000
    2.3074800485734488e+000 -9.3933290698519423e-001
    2.3936848519631009e+000 -7.8734756835251007e-001
    2.6109413868413118e+000 -6.2699095829156970e-001
    3.0390331936072981e+000 -4.8806277673095233e-001
    3.7717453270064931e+000 -3.6895114573691079e-001
    5.0386270820564043e+000 -2.6929222684699877e-001
    7.3023661237951742e+000 -1.8721262426800395e-001
    1.1428271378915754e+001 -1.2162743416079987e-001
    2.2633046192565740e+001 -6.6493819918405500e-002
    5.9439626894799801e+001 -2.6033003150953943e-002
    8.7457160875791180e+002 -5.7733159389513162e-003
    1.9519532896899645e+003 -4.0825169257547667e-003
    2.0097821386457520e+002 -1.0009503564535732e-002
    3.6333445668023472e+001 -4.0498731626959106e-002
    1.3862603433763448e+001 -9.9984708351078630e-002
    7.2357084414232782e+000 -1.8820172495416496e-001
    4.5209348496663777e+000 -2.9963131354587930e-001
    3.3206379128157311e+000 -4.2724847049622211e-001
    2.7455239673924332e+000 -5.5525136241948458e-001
    2.4686739450668247e+000 -6.8177739987301045e-001
    2.3426949046735590e+000 -8.0158751915885995e-001
    2.2944713474999623e+000 -9.0865684987425754e-001
    2.2878424154374488e+000 -1.0089452420447471e+000
    2.2955759265085596e+000 -1.1036228913658575e+000
    2.3106113088741012e+000 -1.1813322080156927e+000
    2.3057952754025552e+000 -1.1921856853912771e+000
    2.2980484211071177e+000 -1.1253050551749648e+000
    2.3053731812177567e+000 -9.9470796319709454e-001
    2.3720670298054869e+000 -8.3223274795177449e-001
    2.5546462043288165e+000 -6.6712599279544393e-001
    2.9231303420497383e+000 -5.2269449435178028e-001
    3.5635000634852583e+000 -3.9906542962413394e-001
    4.6428273522096921e+000 -2.9670064408779434e-001
    6.3701806670761432e+000 -2.1262622456584229e-001
    9.2275954809983389e+000 -1.4869395821728790e-001
    1.4508897402895309e+001 -9.6895728841391707e-002
    2.9263045878004082e+001 -5.0931089071961047e-002
    8.7293469201337828e+001 -2.0214429425303843e-002
    1.6016027333676827e+003 -4.0825169257547667e-003
    2.0149196406116675e+003 -4.0825169257547676e-003
    1.5572043077856297e+003 -6.0049057227948019e-003
    4.5942726236699890e+001 -3.3706347242927433e-002
    1.8509734930018020e+001 -7.8972450858446508e-002
    9.5511946810091679e+000 -1.4774137747773536e-001
    5.7193836820922845e+000 -2.4325025088460003e-001
    3.9284231374253080e+000 -3.6034629905507259e-001
    3.0523495303717452e+000 -4.8644317391314928e-001
    2.6031928890019969e+000 -6.2240998390928659e-001
    2.3820580368802329e+000 -7.5670417890365116e-001
    2.2865960298787700e+000 -8.8873651629216632e-001
    2.2595258215903029e+000 -1.0021705961184684e+000
    2.2676813246114129e+000 -1.0895925753510698e+000
    2.2740748483281883e+000 -1.1174380283506609e+000
    2.2724156883699842e+000 -1.0748398554738789e+000
    2.2911931165328139e+000 -9.6307263463876414e-001
    2.3773104761289381e+000 -8.1766817636238709e-001
    2.5690377547178307e+000 -6.6465591304478566e-001
    2.9451974012654514e+000 -5.2359508190457682e-001
    3.5692064629435833e+000 -4.0214203004097754e-001
    4.5720036484622586e+000 -3.0306916085785518e-001
    6.1702694261497379e+000 -2.2168084535953111e-001
    8.6299852982483980e+000 -1.5936593598315191e-001
    1.2613603522996451e+001 -1.1006069997814258e-001
    2.1385974089017630e+001 -7.0039765310377741e-002
    5.0072707896652531e+001 -3.7135622969980124e-002
    1.7446875323390933e+002 -1.2201409925660911e-002
    8.6753480686378691e+002 -4.0825169257547667e-003 1. 0. 1. 0.
    9.0364287961602884e+001 -2.2738726688603637e-002
    3.1606804277646912e+001 -5.1905397466875648e-002
    1.4715153146870287e+001 -9.9988024641741419e-002
    8.5647751210323548e+000 -1.6843162344781057e-001
    5.5173878059039252e+000 -2.6031072100529362e-001
    3.9393454269138735e+000 -3.6983708225796319e-001
    3.1044608743878799e+000 -4.9009799719239100e-001
    2.6645084982783320e+000 -6.1537068177771459e-001
    2.4387492096415366e+000 -7.3897799674054676e-001
    2.3362459534878677e+000 -8.4317590832245992e-001
    2.3067953676491069e+000 -9.0195141763074727e-001
    2.3138337282029231e+000 -8.9980608740497892e-001
    2.3637368685532509e+000 -8.3974858303552558e-001
    2.4785457180132680e+000 -7.3465553747717993e-001
    2.7125767315666223e+000 -6.1257571358669050e-001
    3.1218285421560279e+000 -4.9207119008839512e-001
    3.7996938912317675e+000 -3.7992816821790787e-001
    4.8326273042782271e+000 -2.8881739452323613e-001
    6.3854364769598693e+000 -2.1344093799804417e-001
    8.8669869107133010e+000 -1.5366778297330164e-001
    1.2619632853276977e+001 -1.0912600850246741e-001
    1.9248390570241277e+001 -7.4098756511331132e-002
    3.5589782125376395e+001 -4.3317185320121798e-002
    8.5094885527377215e+001 -1.9343792080923451e-002
    2.7583703406443715e+002 -1.0402481984734060e-002 1. 0. 1. 0. 1. 0.
    1.6655764615757803e+002 -1.0352700890498751e-002
    5.9994074933847870e+001 -2.8750102524065856e-002
    2.7003375540170516e+001 -5.7568373863846986e-002
    1.5182051158942553e+001 -9.5310537265846387e-002
    9.3189478652061020e+000 -1.5360976276349314e-001
    6.2309547067523656e+000 -2.2342452706933258e-001
    4.6003146079896382e+000 -3.0357777160973176e-001
    3.6585686458791615e+000 -3.8847997503342746e-001
    3.1467005272938047e+000 -4.7019583424592126e-001
    2.8897868890364111e+000 -5.3312356752001944e-001
    2.7991188735900057e+000 -5.6650599100434185e-001
    2.8160026559533500e+000 -5.6278365839423838e-001
    2.9584979336834598e+000 -5.2716469784496944e-001
    3.2482283585972671e+000 -4.6805739853350276e-001
    3.6779783775324946e+000 -3.9580504695925761e-001
    4.3342463742431860e+000 -3.2478944735782650e-001
    5.3825305523192180e+000 -2.5570503272368655e-001
    6.8782638998898085e+000 -1.9461171306904182e-001
    9.3112700649656173e+000 -1.4457420568795201e-001
    1.3020504802411075e+001 -1.0177354320002412e-001
    1.9147175508781199e+001 -7.1425222991494272e-002
    3.0486265340168710e+001 -4.7777757086526054e-002
    6.4497015077753005e+001 -2.5752435999282175e-002
    1.3080779972900260e+002 -1.1379423793926306e-002
    6.2688780062263675e+002 -4.7528749341798140e-003 1. 0. 1. 0. 1. 0.
    1.0847213087133043e+003 -6.6643011271786835e-003
    1.5721880005558535e+002 -1.0964213236813024e-002
    5.5086488023576301e+001 -2.7604451685625048e-002
    2.7705306946450186e+001 -5.1553601425717507e-002
    1.5743024153023145e+001 -8.6771846188993015e-002
    1.0293051935241124e+001 -1.2839203323658069e-001
    7.2960988449751776e+000 -1.7577589865098220e-001
    5.7870197642168240e+000 -2.2305443842966177e-001
    4.9024182121991906e+000 -2.6664028652916133e-001
    4.4971767442703481e+000 -2.9484431645459142e-001
    4.3322548406607746e+000 -3.0750543396580460e-001
    4.3780128970537122e+000 -3.0518012275382900e-001
    4.6657172510630858e+000 -2.8923178018649093e-001
    5.1147729585684223e+000 -2.6323129207069107e-001
    5.6771986005857658e+000 -2.3372359022899974e-001
    6.5795145791347958e+000 -2.0102782478387640e-001
    7.9934413549729015e+000 -1.6369105249752314e-001
    1.0295210628504439e+001 -1.2766599656024497e-001
    1.4166994665298915e+001 -9.3965139687798876e-002
    2.0292669136165173e+001 -6.5683259341041161e-002
    3.1602244940278954e+001 -4.5926531259964626e-002
    5.2377849853898759e+001 -2.8718809806365080e-002
    1.2798691546448659e+002 -1.5693036558388229e-002
    4.0575786632970085e+002 -5.6753061690289659e-003
    6.0060103964212067e+002 -4.0825169257547658e-003 1. 0. 1. 0. 1. 0.
    1. 0. 1.6437501695049459e+003 -4.0825169257547658e-003
    1.0877166104137086e+002 -1.5121393949717036e-002
    4.9049992613745033e+001 -3.1369554677313588e-002
    2.5264036432077848e+001 -5.3330235093993712e-002
    1.6845130997129960e+001 -7.9228267194858468e-002
    1.1932232824927320e+001 -1.0837665070136905e-001
    9.7295488013126779e+000 -1.3397906834398657e-001
    8.2812508102890874e+000 -1.5751318119558358e-001
    7.4665824969193100e+000 -1.7510551410246683e-001
    7.2259399750698483e+000 -1.8262689797873416e-001
    7.3549760793065140e+000 -1.8053534138236474e-001
    7.7763890446668418e+000 -1.6987649156736156e-001
    8.7749184574538699e+000 -1.5315731416993231e-001
    9.7697588468058694e+000 -1.3543312418421866e-001
    1.1460099152015596e+001 -1.1648029967275737e-001
    1.4083023156070727e+001 -9.3951254495821812e-002
    1.8349302005841515e+001 -7.2576887352189492e-002
    2.4714646487709242e+001 -5.2364359860292822e-002
    3.8916379061000157e+001 -3.6382999665505157e-002
    7.2851388649906184e+001 -2.1503063848340172e-002
    2.0535563144582238e+002 -1.3019279071624543e-002
    2.2181126274400849e+003 -4.4942151694836409e-003
    1.0586865875306848e+003 -4.0825169257547676e-003 1. 0. 1. 0. 1. 0.
    1. 0. 1. 0. 1. 0. 5.8282566922955721e+002 -5.7901636185117896e-003
    1.4815384042268099e+002 -9.0538459630506996e-003
    9.8031734479042356e+001 -1.6005443039450590e-002
    6.3234739408312400e+001 -2.2119760192230036e-002
    5.3391879867369703e+001 -2.6845995937598614e-002
    4.1276640363348562e+001 -3.1845063383270797e-002
    3.3200270050886715e+001 -4.3748408875714795e-002
    2.8042060901266538e+001 -4.7282947566080466e-002
    2.5762023480025256e+001 -5.3138804776655016e-002
    2.4444263035638215e+001 -5.6622819640951172e-002
    2.2362696334659461e+001 -6.0338355805842875e-002
    2.4245960803600116e+001 -5.6295001632962055e-002
    2.7133959988062209e+001 -5.1366537962549211e-002
    3.1646881451155753e+001 -4.2632279919398892e-002
    4.2201622222289785e+001 -3.3171027205153004e-002
    6.4456509031414527e+001 -2.2462883077193959e-002
    8.9794385126056980e+001 -1.6069087038247151e-002
    1.5117778664796199e+002 -1.1432202884208037e-002
    1.5194223226179110e+002 -9.0072945458071294e-003
    7.3572522314844582e+002 -5.7703939285430259e-003 1. 0. 1. 0. 1. 0.
    1. 0.</input_scale>
  <output_scale>
    2.2715898947368425e+008 -2.1580103999999997e+008
    2.2715898947368425e+008 -2.1580103999999997e+008
    8.8732631578947371e+005 -430759120. 1. -431602080. 1. -431602080. 1.
    -431602080. 1. -431602080. 1. -431602080. 1. -431602080. 1.
    -431602080.</output_scale>
  <inv_output_scale>
    4.4022030663058893e-009 9.4999999999999973e-001
    4.4022030663058893e-009 9.4999999999999973e-001
    1.1269811141691182e-006 4.8545739299610892e+002 1. 431602080. 1.
    431602080. 1. 431602080. 1. 431602080. 1. 431602080. 1. 431602080.
    1. 431602080.</inv_output_scale>
  <weights>
    <_>
      -2.3939812486818974e-003 8.4936007508614429e-004
      9.6585435686827163e-004 -2.4647605855414741e-003
      1.3195145769160962e-003 2.4623047461713294e-003
      -1.1527886789964208e-003 -7.1983589707890036e-004
      -2.8637706880977134e-004 8.0550090219362526e-004
      -3.6580978255983988e-004 1.2967108669864477e-003
      -5.7424664986832413e-004 -5.0203014148849810e-004
      2.6014635959103936e-005 2.5323896949311507e-003
      6.2307852738059389e-005 2.2280472884078071e-003
      7.9601099751042820e-004 6.2944232666872497e-004
      -2.5231864210873968e-004 -9.4077382366237238e-005
      -1.4544693841673263e-003 1.6417912781309773e-003
      1.5323983352070200e-003 2.0096787154666946e-003
      -1.6019864768175949e-003 8.1058572754296810e-004
      8.0383562382529679e-004 3.8808973026766930e-004
      -2.2009344469494747e-003 -1.4819182688773826e-003
      -1.7058066065766115e-003 8.8908592798798991e-004
      2.1889520328186528e-003 -1.6660311230144659e-003
      -9.5636422710203967e-004 -6.8788910361594841e-004
      1.2716520732805943e-003 9.7675865695252872e-004
      -1.0541438711097848e-003 -1.3587174721748601e-003
      -1.9737075431637140e-003 -1.4277879706665248e-003
      -6.8337982466592151e-004 -2.4190105743580430e-003
      1.8192046792184372e-003 -2.5238960079239344e-003
      -8.0355268000999755e-004 -2.3826885750624139e-004
      2.0440570886294117e-003 -1.2310171640883684e-003
      1.2343677264945523e-003 -6.1804884966640760e-004
      -1.4549882515290206e-003 1.4253269117816942e-004
      1.7821241496321864e-003 -1.8287070494086590e-004
      -1.9155151864738570e-003 -2.3689156675591344e-003
      -5.8447003378880717e-004 -6.9126715158206046e-004
      -1.1010024937640765e-003 1.6544476810894349e-003
      2.3939269109873895e-004 8.3786623865808412e-004
      -1.2157347476263816e-003 -1.1605313618661573e-003
      -5.4002608346846986e-004 -1.5110490149991913e-003
      1.1226542382043218e-003 1.6301187256544994e-003
      -1.4056682480954215e-004 1.8209584506137821e-003
      -1.3934339914668159e-003 1.8503065212182846e-003
      2.0887321920228831e-003 1.8181196042644458e-003
      1.0399443872830029e-003 7.0791691159464304e-004
      6.4163100114144960e-004 2.1788155112765326e-003
      -2.4823896975433826e-003 -1.2324548951818349e-003
      2.3938053581249990e-003 3.0163383647226476e-004
      -1.1957725507631977e-003 2.1395874658194148e-003
      1.4077525482594131e-003 -1.5794743073545368e-003
      -2.1844974100863486e-003 -1.5280879864470601e-003
      -9.5007094964772256e-004 -1.1571880029403914e-003
      -2.2813597214911613e-003 3.3135539275214285e-004
      2.3416685998202853e-003 -1.1219228831180538e-003
      -3.3342114437122790e-004 5.7836597742009859e-004
      2.2279110503575571e-003 2.5402012975600532e-003
      2.1853465457793869e-003 -2.4135038841213764e-003
      2.0650200838872282e-003 -1.1405015523387968e-003
      -1.9950081115206460e-003 -1.9740227074472026e-003
      1.4074703738230349e-003 1.1775424616181618e-003
      5.6214688258838792e-004 -4.8225006653366870e-004
      -2.4973307373513643e-003 -7.7279824785335654e-005
      -9.7221523368987844e-004 -2.4126025514868538e-003
      -2.1624634503636395e-003 1.7533038294780122e-003
      -6.0564496502744523e-004 -1.8731394917088316e-003
      -8.7513551954296819e-004 -2.4786675802071631e-004
      1.0692600223330408e-003 2.3354738243794777e-003
      -1.5305256261955962e-004 -4.7272180896286534e-004
      -1.9049765030416905e-004 -1.1648268117088593e-003
      1.5168403526353089e-004 4.7455322115614592e-004
      2.5424495683900247e-003 -1.7786535278744107e-003
      -2.5249397633785122e-003 -1.7140071474302831e-003
      -1.8206473547089071e-003 2.1197983707029297e-003
      1.6924436032044812e-003 1.5560797109037783e-003
      -1.7275947027929721e-003 -1.3077597954387836e-003
      1.8835292946227224e-003 2.4622218763847002e-003
      1.0481088235123855e-003 1.8018809324609395e-003
      -1.7628354073518854e-003 -8.6387624468712383e-004
      8.8722907967797137e-004 6.6087685514803574e-004
      2.7592995211917198e-004 -1.6558619157585567e-003
      -1.1564026870763044e-003 1.3289419955234798e-003
      -1.1119094626632953e-004 3.3182091883472595e-004
      -5.3885584467294010e-006 2.0682456716878020e-003
      -1.8037833860842826e-003 2.6914677818572463e-004
      2.2078161816006798e-003 -2.1658414545546516e-004
      8.2478670392002284e-004 5.0502262576391543e-005
      -1.1059541552507028e-003 -1.1462790539958705e-003
      1.6838522820160709e-003 1.4928813937643301e-003
      2.4066501492943457e-003 -1.3805676833976005e-003
      -1.1432004356527448e-003 1.5739247952894478e-004
      -1.6247225073566878e-003 8.9267071628749799e-004
      -1.0373489512656912e-003 -1.7848490019788750e-003
      -1.9040176865058104e-003 2.4749948006021058e-003
      2.3265695096527476e-003 -1.5717976614908176e-003
      3.0976285780915015e-004 1.9474800223644646e-003
      -3.6900472270802871e-004 -3.7894855960809710e-004
      -2.0090632446042216e-003 1.1660270336780636e-003
      -9.3595947859581824e-004 6.0214323108464000e-004
      6.3809133936260066e-004 1.4866771216766996e-003
      -1.7048634300641948e-003 -7.4154120934926825e-004
      -2.4956189892877886e-003 4.7485718177137836e-004
      -6.3247002210840180e-004 -1.1188457969734922e-003
      -1.0375046229133080e-003 1.5924130827790440e-003
      -1.5862397832829404e-003 -9.1455348406784367e-004
      -7.3551034751847546e-005 -9.1441678726549881e-004
      1.5687188046610799e-003 1.9710678023607616e-003
      -2.6271519525812390e-003 7.0628970800172878e-004
      -2.2613805103023424e-003 -2.2492453046296331e-003
      -7.7591035675663193e-004 -1.4141484873715245e-003
      1.0217720036861386e-003 -6.5866018284825719e-004
      6.8713841541900500e-005 2.1593736101307428e-003
      2.0481151737595854e-003 -1.1709347690116419e-003
      -1.4722701741640997e-003 1.9868746373063778e-003
      2.4390822840323696e-003 1.8692083079090176e-004
      2.4672771504237545e-003 1.7415167197079758e-004
      1.4483754583832829e-003 2.5405964013250951e-003
      -1.6921045664069635e-003 -6.2271075580655510e-004
      -2.0004117184311936e-004 -5.0483862349790150e-004
      4.9627053721566176e-004 -1.2012114137535145e-003
      1.8437905716016994e-003 -1.9802720597232623e-003
      1.0798619921493034e-003 -1.7031009541742790e-003
      1.1490017786832843e-003 1.5718799795335190e-003
      2.0221427221047035e-003 5.1234799469218899e-005
      -6.6433219207717470e-004 -1.3954451447262151e-003
      -2.2025103844499016e-003 -6.8991068121927160e-004
      -1.7209176472687071e-003 7.7065274231198546e-004
      1.0655977224599924e-003 1.1078956301779018e-003
      -9.8510559152364019e-004 8.4253768493219904e-004
      1.9749273768628023e-003 2.1450236598084390e-003
      -1.2087963509420745e-003 8.2584149795676730e-004
      2.4384749453281447e-003 -1.7161463333902867e-003
      2.6059160613438365e-003 -8.8687862866976979e-004
      -5.6483769748883416e-004 -2.3118418358634013e-003
      -6.8629192464709620e-004 7.8209277214531076e-004
      2.6912930647970533e-004 -1.4936435078858603e-003
      -1.6497104491172473e-003 1.6033722408983180e-003
      -4.0906000403777390e-004 2.4268791288125573e-003
      9.1706583663770248e-004 -6.9467677212588968e-004
      -2.4575237808038566e-003 4.1172502187026601e-004
      2.3070848296515216e-003 -1.5653347059928792e-003
      -1.0137041277779616e-003 -2.0380837878462743e-003
      -1.4065441426356878e-003 -2.0758828405476591e-003
      -1.0928340148085934e-003 -2.5220418779602453e-003
      2.2929812642097360e-003 -7.1842749559237649e-004
      2.1191566020158873e-003 -5.7847391002054311e-004
      1.4120886350075736e-003 -2.0632614867039925e-003
      -5.2987582509044027e-004 -2.0303711908818524e-003
      1.0928122559680036e-003 9.9236004375504987e-005
      2.2078793438726121e-003 -4.2067916050054008e-004
      1.6030632855083215e-003 -1.7542170817609044e-003
      1.2608751169692980e-003 -2.1689399833251916e-003
      -7.9949541717990662e-004 2.4137330303492938e-003
      2.4355656306315498e-003 -1.5446850936749422e-003
      1.0225102053846611e-005 -5.3452471530641239e-004
      -1.5192482494300226e-003 -2.9838280436777876e-005
      4.3751175821924397e-004 1.1676377239260146e-003
      2.2238680966890933e-003 4.5620419151829947e-004
      1.5004634113546052e-003 -7.7760377606646844e-004
      1.5636579908030041e-003 3.8609082710068190e-004
      8.5233739630226162e-004 -7.0119542111019429e-004
      -1.6199184262887893e-003 -5.8480904716358649e-005
      1.0138603792754091e-003 2.8445463331344223e-004
      1.6606052759093077e-003 -8.0647646975605858e-004
      2.4371134014854906e-003 -4.2849950700782265e-004
      1.8714954614844764e-003 -1.8632010724561898e-003
      -1.0567602162346597e-004 1.2551393682127012e-003
      -2.2817486999970314e-003 -2.2419071014834410e-003
      -1.1187526676072260e-003 -2.5520523132974964e-003
      2.3227008827893946e-003 1.9030113161185578e-003
      9.3462450655330636e-004 1.8707375372027542e-003
      -2.3562582525757836e-003 -5.4426746125753257e-004
      1.3667206639360115e-003 -7.5538322910324960e-004
      2.2861480313225878e-004 -5.0808823290523610e-005
      1.3744716643558836e-003 1.2758004360956933e-003
      -4.6578123423624359e-004 -2.4432840633007688e-004
      6.4022902843424972e-004 -2.1426259481627939e-003
      -7.0889342689473759e-004 3.8645651467736017e-004
      -1.6259425248025088e-003 1.8563643475227303e-003
      -9.0247032301453162e-004 2.0933856632703736e-003
      4.2525940027842118e-004 -1.2771489676201727e-003
      8.3291080788223015e-004 -1.1716399949876311e-003
      -6.0965748048628368e-004 -9.3142742142041286e-004
      4.0252565718665838e-004 -2.3746247684589671e-003
      -1.5256181103365043e-003 -1.6676436443583448e-003
      -1.0706807510358219e-003 -7.0666726487262797e-004
      6.7292204617520619e-004 5.1926577815007734e-004
      -2.4218835951772058e-003 1.3220913426832215e-003
      3.3278640120905389e-004 3.4508606223211072e-004
      -9.7118128856154835e-004 -9.1385147754222032e-004
      -6.1458832289818042e-004 1.1081756020900617e-003
      5.1332127146600361e-004 1.2609175642013910e-003
      4.0341068207453166e-004 -1.7131622799629223e-003
      8.7200075611434220e-004 5.2160249737905767e-004
      2.2025972949184596e-003 -4.9134670250646135e-004
      -4.5421238567223720e-005 -1.5099114759294845e-003
      -2.2149299922121146e-003 -2.1526064882267989e-003
      9.9611191882788643e-004 -7.2305957555115303e-004
      2.3871559255312694e-003 -2.2020152880557948e-003
      1.9434917063498780e-003 1.9222758380709416e-003
      -2.4093901322465418e-003 2.5315521823089672e-003
      -2.0070857404871031e-003 -4.8811030437093453e-004
      -1.1229727990528572e-003 -1.9944468608936983e-003
      -2.4153990029307519e-003 -5.9968661953078658e-004
      1.4229410375318824e-003 1.3747844237296343e-003
      -6.8848540724491050e-004 -1.7692603049884749e-003
      -4.8084835749351773e-004 1.4434242152904270e-003
      -1.2200305731428268e-003 -2.3896661974146861e-003
      -1.6550354548547934e-003 -2.1787250743650999e-003
      -2.0414600774858746e-003 1.9892561339461936e-004
      1.1996981765393039e-003 -1.1387002588296472e-004
      -1.6394002072646365e-003 -1.8751125576793315e-003
      -2.0289244696807809e-004 -7.1628325727340187e-004
      7.5719594219004138e-004 -1.0149540796044025e-004
      -1.6306108338733475e-003 6.0384537602037260e-004
      -2.0859038900317927e-003 -1.1741327220688813e-003
      -1.0414302105927259e-003 1.5998470164571171e-003
      2.3469360247765528e-003 -1.0331234453419577e-003
      1.7366463215930093e-003 1.4061015239691657e-003
      1.0299350353668900e-003 1.4829518440384142e-003
      -1.6126417954985352e-004 2.8712782139407817e-004
      -1.7349154607034681e-003 -1.8466470272224702e-003
      -2.3137064513806364e-003 1.7103710911510694e-003
      1.0730661199500030e-003 -1.0064208426101360e-003
      -2.0917534133187379e-004 8.0892062396466279e-004
      -1.9469633068870727e-003 1.2660981179843381e-004
      -2.3018704679399452e-003 2.3893365188754697e-003
      -1.7242374405381719e-003 7.1189465595204824e-004
      1.2484974390915592e-003 -1.0494284454336340e-004
      -2.5398214765932660e-003 2.1012772387604328e-003
      -2.2135476305490127e-004 -1.6081753264043566e-003
      7.6303124575824845e-004 1.7658412559758061e-003
      1.8407784697574453e-003 -1.5554975032811326e-003
      -1.8229522783723188e-003 -9.7535023173840802e-004
      2.4544560689926448e-003 9.9581085740027726e-004
      -1.9434427546321869e-003 -1.6970480958243704e-003
      2.1071906740250533e-003 -1.3082774571176130e-004
      -1.8581454788165160e-003 -9.3726558408674865e-004
      3.8278193959775855e-005 -9.3052359811559280e-004
      9.6638621033791697e-004 1.7434762317094894e-003
      -1.5159455755827005e-003 1.8395960584088407e-003
      2.2686553459150128e-003 4.0176418909614660e-004
      1.0091672470999278e-003 1.2923548729329372e-003
      1.2973638145579482e-003 1.3708427684689709e-003
      -1.9407885951191139e-003 -1.4949793236025604e-004
      -1.7113419217398094e-003 9.6601591206166228e-004
      2.5034684083231145e-003 -8.4695169147446718e-004
      2.1624121671331964e-003 2.3531318965328446e-003
      -1.8678991399269525e-003 -9.1074290370237338e-005
      1.5654091921640001e-004 1.8583218614609380e-003
      2.3819541173301429e-003 2.0248084840654521e-003
      -1.8135069813722880e-003 2.4757466412143181e-004
      -7.7706383554398040e-004 1.6646405119117766e-003
      1.4871914942490402e-004 -2.0124601222003282e-003
      -1.7065382923073969e-003 -2.3316295996133819e-003
      1.2500132578807110e-003 1.3718620754490132e-004
      6.3341808361687391e-004 1.8297159920521631e-003
      -4.1881400766986598e-004 9.8855530364856843e-004
      -3.5970178809834497e-004 -1.4782941196455230e-004
      -1.5620517306036625e-003 -8.2205061291142003e-004
      1.6939581987880559e-003 1.7989346164163978e-003
      2.4790674575165595e-003 -1.8166157480815218e-003
      5.1775310260625945e-004 -1.8730415882430944e-003
      1.0942704021323544e-003 1.5218307587529362e-003
      -7.2929734252552851e-004 1.4180446946674375e-003
      2.0198224780031940e-003 7.2237495908250213e-004
      -1.8390716485538420e-003 8.6712012081508936e-004
      -2.7551685190469079e-004 1.6671334046737751e-003
      -5.5388202799376302e-004 -2.2211925831212495e-003
      -3.1314458940538285e-004 2.5232628306238016e-003
      -2.2118372330591114e-003 1.6505772170607434e-003
      6.5860547833690572e-005 -2.6898751848984415e-004
      1.8155773819905942e-003 -1.6696683747385985e-003
      -2.5517100201107889e-003 1.8400097668356662e-004
      1.4777227997603262e-003 1.0135809857720231e-003
      1.1441065160440311e-003 -9.8539209129170366e-004
      1.3540417949750995e-003 -9.1306331193057987e-004
      1.7907499117371583e-003 1.9749015070914303e-003
      -2.4303581869004501e-003 -1.4643586808053609e-003
      -2.2179657940841844e-003 -1.1153499377673001e-003
      1.5649744275959335e-003 9.3023664916268669e-004
      -2.2857754524738317e-003 -1.4023582711326092e-003
      2.6226922776886479e-003 -6.1704232991250632e-004
      1.3746661711368361e-003 2.1894539610025606e-003
      -1.9326696657178419e-003 3.2353124859687871e-004
      1.9819782756559808e-003 -5.6531602920385348e-004
      -2.4508495177563670e-003 -7.4041254219187535e-004
      -2.1508997667453850e-003 1.6055594624601593e-003
      6.1225942643527715e-004 -9.9439284129076294e-004
      -1.6938194920316728e-003 -1.4455106048872511e-003
      2.6555567584147068e-004 2.3330544733863056e-003
      -2.3312022237901068e-003 -4.8007365502885155e-004
      8.7149330048669779e-005 -1.7047090488146034e-003
      1.0342501782854713e-003 -5.2367953655847700e-004
      -1.7027761957468486e-004 -1.9511628051929310e-003
      -1.5855541841814469e-003 -4.2818187093851670e-004
      1.6473158274423071e-003 -1.0666884826643877e-003
      -6.2351295746799161e-004 2.6301038680452697e-003
      -1.3188753768819431e-003 -1.1082120690259619e-003
      1.5213343545867487e-003 -1.4506536694264872e-003
      1.1235552112753887e-003 -1.7609931912453023e-003
      -3.8977100973806232e-004 -5.0389484108597795e-004
      1.9040262013849687e-003 -2.2293793858874241e-003
      -1.9537913473955341e-003 1.2654735700372579e-003
      2.2796362872305824e-003 -3.2077763339686079e-004
      -2.3195926563691154e-003 -8.0742751313860679e-004
      -5.6116872234352501e+004 -2.0712997484676740e-001
      -1.9636337259664816e-001 -1.2069464854226650e+000
      -9.0491835033583401e-001 2.0025507640517284e+000
      2.1310620962775877e+000 3.7866960862713225e-002
      2.2251090578653096e-001 1.2679404839611591e-001
      -6.5762854937276127e-001 5.5147373756232099e-001
      5.8130943836143190e-001 2.5362215836103980e-001
      -5.7522667162553920e-001 -3.2260594980907298e+000
      5.4920057603502637e-001 -6.6826273033946038e-001
      -7.5835700492845479e-002 -1.5306540305784926e+000
      -6.3731961441436280e-002 -1.4459360440389575e+000
      -4.1335016405564307e-002 -4.1041398420013597e-001
      3.7864829013798612e-001 -4.0369901156188936e-001
      -1.1064809344222115e+000 -1.8272012363451745e-002
      -7.3115511683558221e-001 1.9373424355550453e+000
      -6.8556342352526820e-002 6.2437451621274342e-001
      -5.0367218603709429e-001 2.0718622717986110e+000
      -8.8269690818953184e-001 2.1811730226076001e-001
      1.0284330444485104e+000 -3.7537552217071329e-001
      3.7401468069615647e-002 -1.3092428375495973e-002
      1.9877809156380697e+000 5.8967654308336193e-001
      -9.8124996808438059e-001 -1.1769606956604255e+000
      -1.2009227971095153e+000 -9.6892875170560971e-002
      -2.4051994292029907e-001 -9.8052920047908232e-001
      -5.7061465046890980e-001 1.8025950024459090e+000
      -2.5633019681254340e+004 -2.6570238087861259e-001
      -2.5289715108573735e-001 -1.5736353641718634e+000
      -1.1794741220695151e+000 2.6064167847521049e+000
      1.9036088400570314e+001 4.4918692805128127e-002
      2.9251634751392230e-001 1.6772464695958797e-001
      -8.5719344723474655e-001 7.1867603131471680e-001
      7.5851191305615473e-001 3.3128846744245766e-001
      -7.4910729699549727e-001 -2.6761683985217445e+001
      7.1074443370141316e-001 -8.6995551436302287e-001
      -9.8014594412795600e-002 -1.9904771710226328e+000
      -8.5544172820446185e-002 -1.8857985895476277e+000
      -5.5942563019919574e-002 -5.3721361389818834e-001
      4.9281406345124218e-001 -5.2631938387592803e-001
      -1.4394437722537317e+000 -2.6271145030117914e-002
      -9.5355215878876887e-001 2.5210341832191250e+000
      -8.8856678876583203e-002 8.1179996614296135e-001
      -6.5548424900942404e-001 2.7028563994783461e+000
      -1.1499427131523463e+000 2.8569004032490064e-001
      1.3355629658323938e+000 -4.9031315255310154e-001
      5.0416338455520467e-002 -1.3130580718356174e-002
      2.5901985980665736e+000 7.6463452370410212e-001
      -1.1252792351453262e+000 -1.5321647560968745e+000
      -1.5670656755640291e+000 -1.2826167955827802e-001
      -3.1124764494361085e-001 -1.2798654996322842e+000
      -7.3831207707875035e-001 2.3476810464473781e+000
      2.9674488994054696e+004 -1.8868285255971162e-001
      -1.8211463133400102e-001 -1.1164336134702875e+000
      -8.3349098503086549e-001 1.8499905546645976e+000
      2.9897778492732755e+001 3.5641139935379859e-002
      2.1002569686165803e-001 1.1712998927789622e-001
      -6.0973057444018819e-001 5.1092907520804831e-001
      5.4015574133005462e-001 2.3336138814314319e-001
      -5.3051976720967853e-001 -4.1736310362317056e+001
      5.0554068050550116e-001 -6.1602034733800071e-001
      -7.0793661959863335e-002 -1.4111338979204593e+000
      -6.0327250777247286e-002 -1.3388396110546796e+000
      -4.0199806746609987e-002 -3.7827078236632150e-001
      3.4870082153761450e-001 -3.7269476197354379e-001
      -1.0212326611074751e+000 -1.9130125047373631e-002
      -6.7915719768466865e-001 1.7896937310247518e+000
      -6.4449510242599609e-002 5.7505075463456434e-001
      -4.6275192637045370e-001 1.9152781897591142e+000
      -8.1051660508142409e-001 2.0012099193862540e-001
      9.4765942515402746e-001 -3.4873735988999488e-001
      3.7250195982536920e-002 -9.7710910844040957e-003
      1.8357436407251106e+000 5.4245576143173480e-001
      -6.4046528868697938e-001 -1.0863744574160592e+000
      -1.1103066393375580e+000 -8.9506972981286112e-002
      -2.2281942050667286e-001 -9.0821918275513491e-001
      -5.2781651348220826e-001 1.6671331871751001e+000
      2.9674491127432153e+004 -1.9082880679124348e-001
      -1.8272809130185241e-001 -1.1157019146531202e+000
      -8.3510757596682506e-001 1.8510202918308341e+000
      2.9897570399906378e+001 3.1805446268538290e-002
      2.0579413141760991e-001 1.2123041747799271e-001
      -6.0726212090087084e-001 5.1318023194294016e-001
      5.3746480916197936e-001 2.3462641656211894e-001
      -5.2960216326063281e-001 -4.1737266571865106e+001
      5.0649080754399134e-001 -6.1487623212509346e-001
      -7.0862823668240565e-002 -1.4141350396526922e+000
      -5.7125240909675988e-002 -1.3364028591833572e+000
      -3.7366506210661551e-002 -3.8103422106333495e-001
      3.4836842648561850e-001 -3.7108637069884204e-001
      -1.0225619033625826e+000 -1.9336364532690692e-002
      -6.7770244743821340e-001 1.7878355803271841e+000
      -6.5184576550427434e-002 5.7473692341317362e-001
      -4.6254761443192882e-001 1.9166963613116910e+000
      -8.1121859911995098e-001 2.0400911018404230e-001
      9.4900335581635720e-001 -3.4745186845863629e-001
      3.7449586667113781e-002 -9.7359825095394339e-003
      1.8363955322230505e+000 5.4535790647601201e-001
      -6.4284243733733104e-001 -1.0877420816523771e+000
      -1.1112902497610295e+000 -9.0338009617978485e-002
      -2.2179045618528487e-001 -9.0950161457444256e-001
      -5.2640527896075795e-001 1.6685057448500400e+000
      -2.4124252313146427e-004 2.4877363615886292e-003
      -7.5216360247844097e-004 -2.1526782116795657e-003
      9.2808946054698531e-004 -1.6185969314668064e-003
      -5.9121378937925081e-004 4.5369101491116772e-005
      -7.4719041593419356e-004 -1.0338683330915921e-003
      -4.8032411376723626e-004 1.5732209413582921e-003
      2.6521706382663359e-004 2.3304900799673129e-003
      -1.5017649121349748e-003 -2.0692888652865758e-003
      -2.2824263887496607e-003 -3.5377832149031393e-004
      -1.8801698908161048e-003 1.1525902316391174e-003
      1.2236692620700034e-003 1.4338266425475117e-003
      -4.7049475523885958e-004 2.2277600447990157e-003
      9.8198123444294318e-004 -1.3237209388156012e-003
      -2.2010831651668680e-003 3.2240554506732087e-004
      2.5320372421166348e-004 -2.0759781027591150e-003
      1.9257350431631012e-003 7.9188877824023962e-005
      2.1241570639420862e-003 -1.0948274406454058e-003
      1.8421707892304275e-003 2.2540077821276345e-003
      1.8536039819465448e-003 -1.1978037874932714e-003
      -3.9054586397333863e-004 8.8848423155176608e-004
      -1.0520535116718009e-004 -1.1072533575416522e-003
      1.8898007058377893e-003 -1.6201973895866866e-003
      2.4129540943394218e-003 1.3200240058859512e-003
      1.0187692326651687e-003 2.0563055100552940e-003
      4.7231369739789326e-004 3.9731410237942396e-004
      -9.6725959234682224e-004 2.1820100636970063e-003
      -1.5767754148170892e-004 2.4189522674551937e-003
      -1.0783281659980460e-003 1.0209789235078241e-003
      -2.3001097548634936e-003 -2.1274692464248899e-003
      8.9456161304354962e-004 -2.1687639280258534e-003
      2.8031947328921073e-004 2.3710371034066308e-003
      -6.0810698622981295e-004 -1.2618933260747367e-003
      3.7092201642891236e-004 1.0098088550546194e-003
      1.0641012153043518e-003 8.5668355020620754e-004
      -4.4179196621434342e-004 -4.6826745606362927e-004
      -6.0221712749483364e-004 1.0062184211210908e-003
      -6.3062127314485791e-004 1.3092593099032137e-003
      -7.3267354139735521e-004 -1.5807114967742214e-003
      7.1622589579707022e-004 1.9328152537041016e-003
      -6.8946443763092671e-004 6.9908631664643490e-004
      -7.6577731371982761e-004 -1.0028962493114596e-003
      -6.2041066124259416e-004 2.3530592602603513e-003
      -1.2643285110525127e-004 -2.2767401943762609e-003
      1.4444461102337538e-003 -1.6995082291560286e-004
      1.5978385547523969e-003 8.9990942343797561e-004
      -3.4921627497462831e-004 -1.1894514238673340e-003
      -6.5783341837715760e-004 2.2355095944948016e-003
      1.5811116369207233e-004 -2.0802192700787570e-003
      -1.6114473062054928e-003 1.1482476516411798e-003
      2.0358567702827342e-003 -9.2539416475471872e-004
      4.8140961262840365e-004 -1.0669161519742012e-003
      -1.1304707922473788e-003 -2.4196166855114916e-003
      -2.2477043500051630e-003 -1.3810526798334985e-003
      1.9670422828384584e-003 9.0944536716638859e-004
      1.4339022343146126e-003 1.6593068348584849e-004
      1.0249338087584315e-003 1.9945605005092936e-003
      -1.7933371503843407e-003 -1.0891101230487820e-003
      -1.1525161051330662e-003 1.4890600608248670e-004
      -1.9920193153009982e-003 -1.8286602502687796e-003
      6.1498326368081106e-004 1.8596118524843192e-003
      -1.9928464554679827e-003 -4.4439826108446057e-004
      -1.8651353083414986e-003 2.1962603457916200e-003
      -1.6564548839075304e-003 7.8408132723169698e-004
      1.5518718897698459e-003 8.1211366749008138e-004
      -6.1588422275436414e-004 2.3042947707485836e-004
      -4.8268116088889541e-004 -2.0280382793000321e-003
      2.3177388882878098e-003 8.7326128035041775e-004
      1.7162869660400700e-003 5.1224562024575779e-004
      -2.0715148341316396e-003 -1.8357097354093576e-003
      2.1224608034057135e-003 -4.8901470621002011e-004
      -7.7729840821646123e-004 -1.9664360479896021e-003
      1.3675076166522252e-003 -1.1257547941642028e-003
      -3.7705924169497611e-004 3.4997493828691666e-004
      -9.2835307017126152e-004 -2.0672963332461843e-003
      8.9726324713538294e-004 -1.4994950380282630e-004
      -2.4233640717585933e-003 -2.2553427602556757e-003
      1.9667224899576207e-003 1.3352376707672345e-003
      -2.1703256481772965e-004 4.1910831468335198e-004
      -9.4076448987193042e-004 4.5167164800782595e-004
      9.2020997337662286e-004 -1.9969738270121714e-003
      8.6464086435897335e-004 -9.8434944867371236e-004
      -5.4708412439943857e-005 4.8881129576822569e-004
      -2.2084257697222967e-003 -2.2406433690984342e-003
      -2.2320255959188120e-003 2.0798935782063272e-003
      2.1832815646224044e-003 -1.8097874120363928e-003
      -1.9855392984434546e-003 -1.7589893912706989e-003
      -1.2424950828900743e-003 2.2281832393642267e-003
      -3.9066587189629773e-004 -3.3292327314871651e-005
      1.9011792303392781e-003 -3.7475145106394264e-004
      -7.2637791363924916e-004 -9.1437238397838109e-004
      2.4054159315140258e-003 1.3092508602140680e-003
      8.3339318267595236e-004 4.7729749441064692e-004
      -1.2021666654013395e-003 1.3985970073500823e-003
      2.7577884294358544e-004 -2.0833444282620439e-003
      2.3475137697388185e-003 -5.6110991043318572e-004
      -1.8141652818153122e-003 -1.9773672336414203e-003
      2.0465240638454299e-003 7.5377454918781287e-004
      -5.4958948513487335e-005 -2.4724285670263369e-003
      1.6176302799255555e-003 1.4312436488620637e-003
      -1.7910395337930490e-003 -8.0861289246350219e-004
      2.0997905027406736e-003 1.3098905691871158e-003
      -5.1524074190390466e-004 1.2901975324807748e-003
      -1.4448185853182727e-004 1.7211672708544292e-003
      1.6810559842796459e-003 1.5003125468079940e-003
      -8.6657682583298899e-004 -2.4774554591240213e-003
      -1.1368213253304660e-003 -1.6460584301126631e-003
      -2.6096196010606988e-004 -1.3442444983128221e-003
      -1.4103614653953296e-003 -4.0949982398802730e-004
      -2.3620621880544588e-004 1.0703788538920325e-003
      -7.0314861255109840e-004 2.9273807869133016e-004
      1.6662060899171793e-003 -1.5746012891282649e-003
      1.5733597118136014e-003 -2.4799761022149358e-003
      -2.4048774382144544e-003 2.0752239812732265e-003
      -1.0905205432026482e-003 -6.8491826054448797e-004
      -2.3773422239698204e-004 1.7429489738814185e-003
      8.5566423945525577e-004 -6.2890929748229919e-004
      -7.2123144493198787e-004 -2.1521632699395589e-003
      2.0688791152002977e-003 -2.2795101809484049e-003
      -3.0028076841189709e-004 -4.4432986710001536e-004
      -2.3623292425477950e-003 -1.1443940836265286e-003
      -2.0075849879648061e-003 2.4843522555311344e-003
      2.0730053225927352e-003 -1.5639057369201832e-006
      1.6120623247423166e-003 -9.1351489271584063e-004
      8.2200041903777565e-004 1.8945769142322151e-003
      -1.9534708816003638e-004 2.3220652186023067e-003
      -2.8084595323478624e-004 -1.1196277767102530e-003
      4.7256399079016975e-004 -3.5270604333533629e-004
      3.6098617618197704e-004 2.3552301417568500e-004
      -2.0932816837879427e-003 -4.7632994338508945e-004
      7.5373850515536806e-004 2.0986502424221766e-003
      2.3968570590791566e-003 8.9990812015209253e-004
      1.4601039201062661e-003 1.4161532285716545e-003
      1.7817663327264011e-003 -1.3745721276578734e-004
      -2.1741320650895211e-003 -2.3433984232766897e-003
      -1.5472315840337897e-003 1.9428742631522030e-003
      1.9807445406589508e-003 1.9524384827402429e-003
      1.0703754465043358e-003 -8.5881555420153522e-004
      1.5723300624311087e-003 -1.8246151629652367e-003
      -1.4849742339988359e-003 2.5045955467345980e-004
      1.0282031196306334e-003 -4.2007134182567058e-004
      -4.2005269834332297e-004 1.9006592845270676e-003
      -2.4097323978767363e-003 1.9005756758425009e-003
      6.8757229673886038e-004 3.0261846547298199e-004
      -1.5051623564290501e-003 -6.6756453157502439e-004
      1.2051581967088894e-003 -8.2332318336587909e-005
      -1.5387504582753796e-003 4.4088944833692095e-004
      6.3783830329406125e-005 -2.1274277846924949e-003
      9.0185892150910704e-004 -6.8170109924391739e-004
      -4.5882555541761170e-004 1.5818185258674672e-004
      1.3291409002399474e-003 2.1876603442098600e-003
      2.3337101643542864e-003 -2.0155912258874812e-003
      1.4465379875761319e-003 -1.1993295474694605e-003
      -1.5719393422835497e-003 -1.7453130077950514e-003
      -1.8709224091771014e-003 -8.1979465568722488e-004
      -3.8075239438359120e-004 1.3843740509362813e-003
      -2.6816804773284280e-004 4.7851084726987825e-004
      1.9719515501807755e-003 -6.3262007666292305e-004
      -1.2008382466389563e-003 2.5374935846884678e-003
      1.1840527604792359e-003 -1.8655726642683727e-003
      -1.9712608014803212e-003 -1.2964817318810698e-003
      -3.0252186610138347e-004 -1.6461807002414764e-004
      9.3465457828560130e-004 2.3271262023737724e-003
      1.3580823182305858e-003 1.6650332071801506e-003
      1.0815225105533059e-003 2.3204501936978979e-003
      1.0272486554042100e-003 -1.6775013660033416e-003
      -1.0835686357034962e-003 1.3444869651101530e-003
      1.8636836290035733e-003 1.6146937925963002e-003
      -1.1876761603763246e-003 4.6017036307083716e-004
      -2.1223206130926266e-003 8.5386787112061099e-004
      -1.0662221135591398e-004 1.7906364940439320e-003
      -1.0255558100220374e-004 1.3477051494749787e-003
      -5.7521589893424486e-005 1.1811728952204885e-003
      -1.2222566758533857e-003 1.0600403045539584e-003
      -1.0594837730141943e-003 1.3134149068641989e-003
      -1.0973960599976828e-004 -4.4182424540830322e-004
      1.4285898876184599e-003 -1.2709826314687334e-003
      3.6321847212802901e-004 -2.3140586835762923e-003
      -2.6534489129011760e-004 -1.5529102123525203e-003
      1.7166331936422502e-003 -1.3170981053539307e-003
      2.1940717347313115e-003 4.6685278128556535e-004
      -2.1605649523331327e-003 -2.2917516727349227e-003
      2.3114525832516651e-003 -1.6470445637892532e-003
      -1.0470739544451333e-003 1.3911878526150082e-003
      1.1604056352966200e-003 1.4961897772989765e-003
      -1.6384823104582313e-003 -5.6264312700506623e-004
      2.0781834246144408e-003 -1.9325014640947497e-003
      9.4443558755955915e-004 4.6577176832206284e-004
      1.5887718473828289e-003 4.2679037240702197e-004
      1.9340292665752322e-003 1.4160893899913965e-003
      -1.3442190062783865e-003 -4.4632679994049874e-005
      -5.0905263247227287e-004 1.4745923335136718e-003
      -1.4075554833905340e-003 -1.0190163269565347e-003
      -1.5499940429937646e-003 1.4544517733802609e-004
      2.0780074997284194e-003 7.3077235014911324e-004
      -2.5834885519683944e-004 1.8939596710471570e-003
      -2.7633281998794062e-004 -1.2110563792654234e-003
      1.2638102326515016e-003 -6.8161412507042026e-004
      2.6749323268342623e-004 2.2391618902334303e-003
      1.9214454910111704e-003 1.7932681232260249e-003
      3.5275080255551709e-004 1.5472900163018926e-003
      2.3031807370537784e-003 3.5074805103087669e-004
      -2.5853343016866985e-003 -7.5870122185927214e-004
      1.2533320898406261e-003 -1.1849988029198520e-003
      -2.4603971727717053e-004 6.8880553355771311e-004
      -2.5120188816595149e-003 1.8638589774399507e-003
      -9.6377437951289507e-005 1.8351852927335176e-003
      -2.4657383898410478e-003 -2.4550951893048570e-003
      -1.0252897745912865e-003 1.8538810721776367e-004
      -2.1219184203164340e-003 1.4133682431650191e-003
      -1.1751110179351336e-003 1.8702429134285566e-003
      2.2363341244610153e-003 -2.3887186509593604e-003
      2.1003575833019651e-003 1.2843983557426471e-003
      -1.8491771998407533e-003 3.2447886777752611e-004
      -1.2723060977040369e-003 3.5452473366592927e-004
      1.2256099753238665e-003 -1.3660993271384144e-003
      -2.3283230547317744e-003 2.1702468244903595e-003
      -2.0256552344009174e-003 -2.6842693913706558e-004
      -2.0845188767097513e-003 -1.7935828887969678e-003
      2.2176504741869721e-003 -1.3008107100553540e-003
      -2.3199282241434475e-003 1.8000558895484220e-003
      -1.2019711002901399e-003 3.7170922517919681e-004
      -1.8070569079166581e-003 -6.2225565998995217e-004
      -1.5247145330200926e-003 4.0712504971692778e-004
      1.1644397138919091e-003 -1.3175126311303824e-003
      -5.3217800990036320e-004 2.0498858927901326e-003
      8.1248178939244279e-004 -1.9096125258959566e-004
      1.3302138458366371e-003 -6.8241383874137593e-004
      2.3075912342952168e-003 -4.5316190257319315e-004
      9.4137949129264697e-004 -2.4669016598473392e-003
      -6.4152199328428462e-004 -2.3735563089868628e-003
      2.2880927205109311e-003 1.6226002810070062e-003
      1.0521486399044111e-003 -1.8258708696867094e-003
      1.5539244401802377e-003 2.2415003781321272e-003
      -1.6567908424680838e-003 -9.3604419186806259e-004
      2.3513183526574764e-003 2.0557754003202532e-003
      -5.2880596104082692e-004 1.1547950265377461e-003
      -3.7796475687285747e-005 5.4072030394702181e-004
      -2.4612538770384484e-003 -1.0559274273824785e-003
      -2.4956214977385938e-003 -8.0847636460003953e-004
      -2.0821506181922167e-003 2.4372214836121801e-003
      2.1862933155271738e-005 -4.6510384412762779e-004
      2.5294758547084171e-003 -2.5382418634107909e-003
      -3.4136473849163713e-004 2.1338443221201367e-003
      2.9890148401078801e-004 1.1648756566823152e-003
      1.9173826520592927e-003 2.1656993454716747e-004
      -3.1008672970074232e-004 3.0777398808183712e-004
      -7.7016055861163729e-004 -3.1622840330235489e-004
      1.6404874096687054e-003 -9.3163167001049797e-004
      3.2264015093672982e-004 -9.6057312012714051e-005
      -7.8991956749464431e-004 1.9414489584693232e-004
      2.1684022094808682e-003 -5.5921848176013092e-004
      -9.7132328412939250e-004 8.8331188042450743e-005
      -1.0797271486565299e-004 1.7105785457112532e-003
      -8.5308539354247839e-006 2.4681818588958141e-003
      9.1720713563351144e-004 2.3810634912121600e-003
      -2.0592462029126561e-003 -2.4687567449250773e-003
      -1.9307363550376733e-003 1.1452909513821055e-003
      2.5155026073556243e-003 -1.5644804827838837e-003
      -6.8103722757295268e-004 -1.1805522701206449e-003
      3.8208721445863892e-004 2.3134881231563287e-003
      4.4918024425192606e-004 8.8611370321854514e-004
      -4.8135418567556313e-005 2.5060778738379519e-003
      -7.4863780603943184e-005 1.5502923589251327e-003
      -3.8604763371010250e-004 2.0186676142415218e-003
      7.4932282845205389e-004 1.2673781410604628e-003
      8.6711770212683859e-004 -2.3437843079498837e-003
      1.9619001800498114e-004 2.8665420365651321e-004
      -1.8038943413641623e-004 2.6662139515786707e-004
      1.8561921028379135e-003 1.1961566275113182e-003
      1.9921382838356786e-003 -1.3610528207889654e-003
      -5.3189817143021719e-004 -1.7620851809026876e-003
      1.5691844044230289e-003 1.3541898137467868e-003
      -4.7129493667356352e-005 5.1221998358145983e-004
      -8.4172186942054177e-004 1.3618080353493367e-003
      5.0172818281583246e-004 -4.7056986938754378e-004
      1.7814269722886261e-003 5.6101717667126705e-004
      1.7497431170782165e-003 -9.5172002757438925e-004
      -9.5138318435326159e-004 -1.7580516361674291e-003
      2.4994710697193766e-003 5.8703661321766250e-004
      -2.0529154493978716e-003 -3.9027657999073968e-004
      2.1341174424445966e-003 -2.2935647247968767e-003
      4.9173864645263104e-004 1.8764941990646227e-004
      1.0849707004675314e-003 9.1577627660176198e-004
      -4.5915693777569456e-004 -1.3946612189815087e-003
      1.2315796039666248e-003 1.3579050987068708e-003
      1.7966423690281429e-003 9.8961874366642190e-004
      -1.6822288418988007e-003 -4.3667165413190090e-004
      2.2590119444999405e-003 -2.1720649009150834e-004
      5.6994863262767412e-004 -5.3730725934955832e-004
      -6.0410482581240148e-004 -2.1843408112401500e-003
      -1.3199033345112415e-003 -3.8898550337997556e-004
      -4.2683903748839762e-004 1.4033919435692366e-003
      1.8370540216318064e-003 -4.2712973292107181e-004
      -1.6044304227748633e-003 -2.0214025971624096e-003
      -8.0972988129817156e-005 2.0875427085229447e-003
      -6.5614626080636926e-004 6.5137262435394224e-004
      8.1592704829227712e-004 -1.1602242187745691e-003
      8.1802293695539116e-004 3.2028739252739497e-004
      4.9600308979346006e-004 -2.0496979562047756e-003
      1.8190779432831730e-003 -6.4694633749292642e-004
      1.4161773015338383e-003 1.2172705132618030e-003
      8.7053683140799290e-004 2.5237971433592610e-003
      -1.1059726113916988e-003 1.3365806929208697e-003
      -1.3398185780025963e-003 -1.0789205316813443e-003
      5.8092710845443745e-004 6.2927529513268922e-004
      -4.3439112642471039e-004 -2.1728783675086191e-003
      -1.2669587709777698e-003 2.4553344272440977e-003
      -2.1966951383605975e-003 -3.7418397312745681e-004
      -1.5347389709006590e-003 1.4032292219003319e-003
      -3.7520089929461020e-004 1.1628425161676558e-004
      1.0745252975251994e-003 -7.0916935339411090e-004
      -2.3168774392001634e-003 1.2102984217313654e-003
      2.4086141982333190e-003 1.6425897918625270e-003
      -1.6982148652006286e-003 -1.4946328833879998e-003
      2.3818182247157568e-003 -1.1383721705888494e-003
      -7.6598679267654969e-004 1.8802359925611347e-003
      -2.2587474619742984e-003 -3.7094774758587254e-004
      -1.6456346521982728e-003 -1.7293322626637487e-003
      -1.1105854351826745e-003 1.2517565665484762e-003
      -1.2048322977565229e-003 -1.8982389230888944e-003
      -1.7961397059707443e-003 1.4416862088830655e-003
      -2.1808265479550913e-003 8.4873628836353607e-004
      -1.1769286208148900e-004 -1.7264261768804409e-003
      1.2447552020523464e-003 -2.5496598698558306e-004
      1.3524799022413892e-003 -6.9576156489440353e-004
      2.2209066428279947e-003 -9.1923417761622577e-004
      4.1668225676677514e-004 2.1220101771658758e-003
      -2.0411870282356576e-003 1.4194077631153454e-003
      -4.9668027406114920e-004 -7.2819290416302918e-004
      -1.9737715586577924e-003 1.1593684562183687e-003
      2.2233036455494700e-003 3.4340799571512233e-004
      -2.2467681604229572e-003 -2.0597512842717926e-003
      -1.7555889473734876e-003 2.4275365824525720e-003
      1.5440758713389767e-004 -1.0573853478818944e-003
      1.2405896621307448e-003 -4.5091667747922007e-004
      3.0011664036914227e-004 1.6737629597912390e-003
      -3.9602904539854582e-004 2.2742875363148483e-003
      -1.5185528428475841e-003 -1.1727744329053183e-003
      -8.9312077316780600e-004 2.5242186846568702e-003
      -1.1600935257920098e-003 -8.5593977623663064e-004
      -1.8959637106287744e-003 -1.7956464495606349e-003
      -2.1461164861467088e-003 -2.3794300339299765e-003
      1.9109685246771039e-003 2.2502510686606019e-003
      -1.9174534819612786e-003 -1.0762464273669215e-003
      -1.2633754959480163e-003 3.1405775898973209e-004
      -1.6091896831412953e-004 -7.9868475821921585e-004
      -1.3606151314756395e-003 -1.5465815374824709e-003
      2.6416754169187608e-004 1.7797955401914417e-003
      -2.0166866878859411e-003 9.6394675322235323e-004
      4.2518298378670165e-004 -4.8464784897967551e-004
      1.5488577536193211e-003 1.9593541453795504e-003
      -8.2127941418157929e-004 1.3661849253048140e-003
      1.9414147939635241e-003 1.8760284513751019e-003
      -7.7854873258374215e-004 -1.9084647273593367e-003
      -1.3379311678947004e-003 -2.4555050083420997e-004
      -9.2323375222310333e-004 1.2058151807335736e-003
      4.7476306640594184e-004 1.9741749484039118e-003
      -1.8259305446407669e-003 7.4362024545173474e-004
      1.7239030552928562e-003 2.0544522226201259e-003
      -2.3371641575680511e-003 -1.9662388468395702e-003
      -2.0297133346518239e-003 2.5220011150693515e-003
      -1.8781259522458007e-003 5.6291384575569189e-004
      -2.1947040777767885e-003 -8.8044178313424824e-004
      -5.5022986981450531e-004 6.0183486377174433e-004
      8.4705851289244936e-004 2.4772866193510431e-003
      1.1660851653708005e-003 6.0669346815725477e-004
      1.7803540613561236e-003 -6.9710744050040620e-004
      2.3863405784861616e-003 -1.3237583916985425e-003
      -1.5103691997725688e-003 -2.0193485803654768e-003
      -1.4730056244271551e-003 1.6002026286348647e-003
      -1.5298436762974286e-003 6.6573315483304336e-004
      1.4580834642834593e-003 1.6639455858610314e-003
      2.2094906247826724e-003 -1.3507314294818327e-003
      1.4704629088994972e-003 5.3837896628945064e-004
      -6.9877006911873963e-004 1.7793950187552888e-003
      -1.8557086918260795e-003 2.3710778448023761e-003
      -4.7575113827717401e-004 -1.1018142296284794e-003
      2.2128192468988373e-003 1.4699401590521392e-003
      -8.5141202710720186e-004 2.0401838969458943e-004
      1.5705319296688992e-003 -4.5764852451189584e-004
      2.2916385218403070e-004 1.4316520603308723e-003
      -6.8792424976474157e-006 -1.4507140341544182e-004
      -1.8197737746473020e-003 -2.5218236502480905e-003
      -9.3665213887658965e-004 4.6434081470141006e-004
      4.1099109264303017e-004 1.5306046641586977e-003
      2.1969916484703405e-003 1.7789308473450901e-003
      -2.1632161212588900e-003 -6.8800531807306615e-004
      2.4444843947938623e-004 -1.3132932202636759e-003
      2.1246153106221051e-003 6.6078898788868128e-004
      6.5752390486702509e-004 -2.3131265149244746e-003
      -4.0482542311157555e-004 -6.9039895264194097e-004
      3.7974942692226403e-005 7.3623102799128481e-004
      -4.3151046207551698e-004 -2.6344975556615041e-004
      5.1326035655004196e-004 2.3369830615875458e-003
      2.5203372633207325e-003 -1.8969886016183693e-003
      2.3750486846174377e-003 1.4097783261762171e-003
      -1.9373827791180805e-003 1.3479939430257382e-003
      1.9671779094783907e-003 7.1245014485234062e-004
      -3.7768008063639950e-004 -4.0804769432890847e-004
      -4.1609585425476638e-004 -1.6054248804660371e-003
      8.4726904577907681e+003 -1.8836846563909238e-001
      -1.8137716631731293e-001 -1.1143168442722164e+000
      -8.3642775553716275e-001 1.8481664747932769e+000
      -4.3882438725972472e-001 3.4582519677597762e-002
      2.0974343474575893e-001 1.2135483679126349e-001
      -6.0951348737141076e-001 5.1363126940448522e-001
      5.3654427951234718e-001 2.3332850733555463e-001
      -5.2976682578433765e-001 3.6223354780416872e-001
      5.0781958052000009e-001 -6.1737663067617710e-001
      -6.9949040966246184e-002 -1.4115470217073676e+000
      -5.9925732247484785e-002 -1.3379829682359083e+000
      -3.6943674061541573e-002 -3.7989704289652326e-001
      3.5082865839742350e-001 -3.7398208191648952e-001
      -1.0241957291980284e+000 -1.8397174233760836e-002
      -6.7965377615371492e-001 1.7914420045587132e+000
      -6.4109502528220244e-002 5.7727532651930935e-001
      -4.6632910297170849e-001 1.9137146265446654e+000
      -8.1174991954511100e-001 2.0231535415639565e-001
      9.5067629301155077e-001 -3.4694809528301496e-001
      3.5661554584219539e-002 -1.2927352504825343e-002
      1.8354287969920804e+000 5.4249245222205034e-001
      -6.4324729314543772e-001 -1.0856977603628921e+000
      -1.1111780352897154e+000 -8.7442926713756600e-002
      -2.1920952832486756e-001 -9.0711751344344260e-001
      -5.2784128952555387e-001 1.6685308608349505e+000
      1.7980974541875665e+004 -2.1758200971961716e-001
      -2.0896674636765966e-001 -1.2870096277550414e+000
      -9.6629022060931358e-001 2.1302944942759252e+000
      -5.0700723858408092e-001 3.7465788128898052e-002
      2.4209884122031042e-001 1.3548861219623504e-001
      -7.0187565152222386e-001 5.8967397654847953e-001
      6.2096135923070461e-001 2.7008940430620432e-001
      -6.1448239144296124e-001 4.1861578226954088e-001
      5.8373939912528294e-001 -7.0856493513244256e-001
      -7.7324467006758754e-002 -1.6276498720320960e+000
      -7.0200482051277907e-002 -1.5442638402937805e+000
      -4.6125244760656846e-002 -4.3767465394122551e-001
      4.0146696714351821e-001 -4.2964467221699348e-001
      -1.1786142152876655e+000 -2.3176681970337506e-002
      -7.7988660815128663e-001 2.0663606025001227e+000
      -7.0106579157237808e-002 6.6356830592329963e-001
      -5.3748167251705004e-001 2.2091957475852761e+000
      -9.3411721199655773e-001 2.3347167850660042e-001
      1.0955738820387735e+000 -3.9967265027439108e-001
      3.9975999040329738e-002 -1.0347717611527680e-002
      2.1188652556186471e+000 6.2730438396404431e-001
      -7.4203101304724206e-001 -1.2513114340659153e+000
      -1.2797266884931007e+000 -1.0463779215108809e-001
      -2.5269662240305629e-001 -1.0495690931364534e+000
      -6.0863172656398878e-001 1.9204202902036200e+000
      -2.2535884374233079e+004 -4.0944545796508530e-001
      -3.8834055086018793e-001 -2.4050930658231509e+000
      -1.7991622153950231e+000 3.9833437345595377e+000
      -9.8666159131499764e+000 9.1451351460417052e-002
      4.4817582712737891e-001 2.5807318096693477e-001
      -1.3108344618929118e+000 1.1016248838410687e+000
      1.1622031014933429e+000 5.0439824138010969e-001
      -2.0185197454613202e+000 7.7959247041683521e-001
      1.0919233536196979e+000 -1.3284348620904616e+000
      -1.4896004338498400e-001 -3.0439245834155995e+000
      -1.2665130210083736e-001 -2.8862991643028075e+000
      -8.4323321684157029e-002 -8.1589677030179120e-001
      7.4902795753294726e-001 -8.0574614103845144e-001
      -2.2050089041321121e+000 -3.9965713872929805e-002
      -1.4632413886089530e+000 3.8594743864692229e+000
      -1.3363161507656221e-001 1.2390792465074767e+000
      -1.0001347543282120e+000 4.5460753802629599e+000
      -1.7465897671247577e+000 4.3798505291024370e-001
      2.0426736402186285e+000 -7.4851135382839840e-001
      7.7397521625706123e-002 -2.1328983241649082e-002
      3.9558750489653156e+000 1.1728011953861934e+000
      -1.3838729983128468e+000 -2.3417623590734427e+000
      -2.3938702652875019e+000 -1.9334537455255257e-001
      -4.7760366122523362e-001 -1.9593282349782861e+000
      -1.1348157416302056e+000 3.5915093775165867e+000
      -5.0259432910465854e+004 -5.2698508620509166e-001
      -5.1338102264143137e-001 9.2748926390387680e+001
      -2.3716013706501284e+000 5.2503931792863803e+000
      -1.9228060542550988e+001 2.5423793168425685e-001
      5.8976597147823184e-001 3.4946826120374745e+000
      -1.7253069348248358e+000 1.4510020586010530e+000
      1.5293705117680616e+000 6.6565517262966256e-001
      -2.1374926325450190e+000 -6.9017809062498003e-001
      1.4381540681182292e+000 -1.7777811463812370e+000
      8.4316834664148921e+000 -4.0101585109982736e+000
      -1.7073611628202015e-001 -1.3816307136851043e+001
      -1.7927623128664316e-001 -1.0762865622478135e+000
      9.8897949518622186e-001 -1.4677143565025457e+000
      -2.9045536690280964e+000 3.0877750923078831e-002
      -1.9235359341107470e+000 5.0846236529327076e+000
      -1.7936623114232508e-001 1.6299708128144912e+000
      -1.3216746576796234e+000 6.1102834436401583e+000
      -2.3054704725750770e+000 5.7533845025851160e-001
      2.6928953836529841e+000 -9.8358144878915543e-001
      1.0068687576016083e-001 -3.1913747858096267e-002
      -3.8505827634733469e+000 1.5437047163165232e+000
      -1.8180321900519787e+000 -3.1716813840049878e+000
      -3.1552863438075764e+000 -2.5242051118923015e-001
      -6.3189858480043937e-001 -2.5757811319753654e+000
      -1.4929922468250907e+000 4.7283137290207540e+000
      -1.0112464810530603e+005 -6.6162485227853718e-001
      -6.5681591337388545e-001 -4.0341102605094781e+000
      -3.0222129115706271e+000 6.6811491238365095e+000
      -9.0668648335974067e-001 5.2115504879593066e+000
      7.5278505418641084e-001 4.3222213139754634e-001
      -2.1953550177243120e+000 1.8510869866864046e+000
      1.9480380401530812e+000 8.4908896448371496e-001
      -1.9186810295081556e+000 1.3070951316208979e+000
      1.8277648515057818e+000 -2.3791190704075671e+000
      1.4944846065076570e+001 -5.1059458045061525e+000
      -2.1328240787574360e-001 -4.8368308849219570e+000
      -1.3894020967195975e-001 -1.3744745228382313e+000
      1.2455249967621855e+000 -1.2930967034628715e+001
      -3.6951451509980897e+000 -6.9430413417098352e-002
      -2.4530958204358604e+000 6.4732753422912825e+000
      -2.2543427321428286e-001 2.0782940235037954e+000
      -1.6797352876176614e+000 7.3225353880180108e+000
      -2.9346573673699057e+000 7.3321657347956160e-001
      3.4268697510966284e+000 -1.2526687127644880e+000
      1.2834144382886417e-001 -3.7838612167593953e-002
      -9.3311473441052062e+000 1.9652044183179105e+000
      -2.3167385220768795e+000 -2.6504356575682366e+000
      -4.0142578909289837e+000 -3.2102034203608665e-001
      -8.1620358467129972e-001 -3.2810664594491445e+000
      -1.9009516111502320e+000 6.0222347488888417e+000
      -1.5159691143921367e+005 -8.7841902967752994e-001
      -8.6739591148858886e-001 -5.2751290557909352e+000
      -3.9450048422272532e+000 8.7323263393034960e+000
      -4.1062609134781464e-001 3.6682239526346292e+000
      9.8564046558228968e-001 5.6439989290330206e-001
      -2.8948312688257842e+000 9.9138089970382293e+000
      2.5438698781438127e+000 1.1117014728981858e+000
      -4.5145238795802189e+000 1.7090553635007624e+000
      2.3417973051715433e+000 1.3546760807401093e+000
      -6.1570219322146773e+000 -6.6713636297781704e+000
      -2.7981541475741623e-001 -6.3218612525614697e+000
      -1.8681134128158533e-001 -1.7939416404608188e+000
      1.6328627967951532e+000 -9.9563604978578706e+000
      -1.5284123530095554e+001 -9.1177884076815235e-002
      -2.9392166115471023e+000 8.4582540821200656e+000
      -2.9781155933897474e-001 2.7156556350623409e+000
      -2.1957186279314320e+000 9.0914579522056957e+000
      -3.8313584243578025e+000 9.5384234806884638e-001
      3.7252166771522418e+001 -1.6361574990611076e+000
      1.6943468171759074e-001 -4.9137709312178174e-002
      -5.5005765569898823e+000 2.5667314416914531e+000
      -9.6393109544377737e+001 -3.9964356559617578e+000
      -5.2469522191542515e+000 -4.1992200948817660e-001
      -1.6654249357088482e+000 -4.1641248235014654e+000
      -1.8927230037679081e+001 -3.5265406313961364e+001
      -2.1263998449544358e+005 -7.9742028316361890e-001
      -1.1520265956866937e+000 -3.6898045017015740e+001
      -5.0515270563203689e+000 1.0622122531631572e+001
      -7.1954293917147250e-002 1.3654038991057631e+000
      1.2384024828837592e+000 7.1980234124436382e-001
      -3.6903716007799821e+000 9.0608991145512210e+000
      3.1061511714286048e+001 1.4193919146221792e+000
      -7.5396178907051201e+000 2.1836105444694724e+000
      2.8382563204458013e+000 -2.0776979549146649e-001
      -6.5514471383021984e+001 -8.5364655876203095e+000
      3.1896573008078914e+001 -7.7352013216402664e+000
      2.3020491887766070e+000 -1.8045425873257230e+001
      2.0959722083647017e+000 -4.5400644858151074e+000
      -7.8339630108983371e+001 -4.8507284142979294e+001
      -3.7589047846228096e+000 1.0524448052310436e+001
      -3.5437001074110008e-001 1.5451145933746921e+000
      -2.4915594518335520e+000 1.1576217763272009e+001
      -9.0252004559855958e+000 1.1974726211674285e+000
      2.5047633598428254e+002 -2.4969967137834832e+000
      5.8943174495315123e-003 -1.8086881042176500e-001
      7.8470077441360973e+000 3.3527780605572808e+000
      -3.2502518958254353e+002 -5.7743806829441180e+000
      -6.7116246484864099e+000 -3.2305600630940523e-001
      -2.9845551532677925e+000 -4.9981249403049315e+000
      -5.7863672003310654e+001 -3.4242765663940133e+001
      -2.2909382193375632e+005 5.4835222616876567e-001
      -8.3086152120170209e-001 -1.7260525156092777e+002
      1.1579196826775896e+002 1.8388718902837475e+001
      1.2925634926134765e+002 2.3657257849822502e-001
      1.1056269723389271e+000 1.7652683808835772e+002
      -4.2165420284413164e+000 3.3914965076569290e+000
      6.4966777308833334e+000 -2.6473123601372417e+000
      -1.7893617716813284e+000 -1.2868735813663582e+002
      2.2906010129262420e+000 -4.3878645564614178e+000
      -1.4697896339196696e+001 -8.6764757411189777e+000
      1.2043414928678362e+002 -8.1800118750100594e+000
      -4.9805808202590690e+001 -6.2180211360373939e+001
      2.4722882013738521e+000 -2.6982459896618733e+000
      6.1377131946109271e+000 -5.4840976278228553e+001
      -4.3076224426220318e+000 1.3135370361751834e+001
      -2.5049412411359245e-001 3.1378748723021044e+000
      3.0144255522155996e+000 1.3639318519894402e+001
      -2.4906225539953358e+001 1.2819126008340840e+000
      3.2747045262549911e+001 -2.9381345060114995e+002
      1.3696371165107490e+000 -1.8033809885558338e+000
      1.2451789735727784e+001 -3.0535632959125163e+001
      -2.8448395337674384e+002 -7.4775954390043742e+000
      -7.9030132140462159e+000 6.6888938380117702e-001
      -2.0677248792022378e+000 -2.4415773277596553e+001
      -4.8009059894895380e+001 1.0276368533087430e+000
      -2.3763509835802927e+005 1.1887623592101189e+000
      3.8797983724571967e+000 -8.4612315003243825e+000
      1.3949467296484767e+002 3.1599102116305879e+001
      1.5028482780964364e+002 -1.1545160050287666e+000
      1.6580287368470958e+000 5.4251291997104067e+002
      -4.5606018260566925e+000 4.1408575209432721e+000
      3.6701435144369197e+000 -1.0647547583326645e+001
      -1.6436173209436653e+000 -4.5813318132731882e+002
      3.7060797250187263e+000 -1.8335167521251289e+001
      -5.1259850994779710e-001 -7.5932863856416049e+000
      1.2225075003449057e+002 -1.1149399389192292e+001
      -9.2765890009644437e+001 -4.9066527833498171e+001
      2.6098586765259473e+000 -3.7953185776689939e+000
      2.4697258753489081e+001 -2.8856800027812501e+000
      -4.4507838369919384e+000 -3.1760201492658229e+002
      -7.5419888661533185e-001 1.8806959621777445e+001
      1.0800378667273044e+001 1.4454373592407149e+001
      -7.9542955149840836e+001 1.4795757527051450e+000
      1.6365624545677782e+001 -3.2013633406337368e+002
      -8.0528255828330604e+000 -2.7402429492566949e+001
      1.3731671204173487e+001 -3.8180179352057138e+001
      -7.5995483504837750e+001 -8.1235637035045105e+000
      -8.2003999526221794e+000 -4.1445266598721836e-001
      -3.2472287415203516e+000 -2.7672899501288143e+001
      5.4244956134121047e-001 1.2653387377948658e+001
      -2.9025015119181381e+005 1.2681499136626378e+001
      1.1008168742970543e+001 1.2993520457140767e+002
      3.7718404629843816e+000 9.6263822681180535e+000
      -3.4487589646979582e+000 1.1661571923613995e+002
      2.2313640285278757e+000 9.8161530692593658e+001
      -4.4946981365073757e+000 5.7493581485324539e+000
      3.5763702151473264e+000 -3.7018842122453921e-001
      1.5864852530094090e+001 -5.2907430098793121e+001
      -2.4048399729994184e+001 -1.4115894724476496e+001
      -4.1055317052726309e-001 -1.0303861449237258e+001
      1.0561208274293929e+003 -1.0031094303090139e+001
      -6.8320586363125935e-002 -1.8652001343515219e+000
      -1.6123572184644118e+001 -2.5977620098499332e+000
      -6.4530483201020221e+000 2.4756986949863602e+002
      -4.7270315332013988e+000 -2.3320912125903354e+002
      -1.1724498160524510e+001 2.0765810378366896e+002
      9.8939812981394604e-001 1.5386553164346900e+001
      -3.3486518875530322e+002 1.6110238488964295e+000
      2.9478189765509502e+001 -4.0746643557881326e+000
      1.4194007718558539e+003 -1.5689425600168917e+002
      1.4100815450716587e+001 5.9007033013926744e+000
      -2.1881829839954694e+001 -7.3462927680963645e+001
      -8.6741415209612640e+000 -5.7341843025461270e-001
      -2.7606834363475201e+000 6.0880664504316897e+001
      4.1455576400397383e+001 1.7223941640467562e+001
      -2.9985564118848788e+005 5.5735089918380378e+000
      8.9974899941462823e+001 5.3493019258608797e+002
      -1.1411360097556178e+001 1.4272445844177101e+001
      -1.4755972019170388e+001 1.0271070790512927e+003
      5.6534535756016115e+000 -2.4937511739433123e+001
      -3.1460187275285612e+000 3.5639428631394980e+000
      6.5299539480100394e-002 8.1910406187521090e-001
      5.2476844781235087e+001 -4.4857540346371101e+000
      -2.4960996380111328e+002 -2.1599507008453425e+000
      4.5907654205312703e-002 -1.0874037933112072e+001
      7.9778484419498989e+002 -9.5514690818638996e+000
      -3.5487972930371890e-002 -8.5432653643378529e+001
      -7.7158592903611503e+000 -2.9326256844649263e+000
      -9.3635709851018039e+000 8.3541520411606609e+002
      -5.1338083562854635e+000 1.3208860563193726e+001
      -1.0240616870802501e+001 2.3764502360967808e+002
      -2.5359410618407172e+000 2.3937964165698556e+001
      -9.6681352019926877e+001 1.5695017859142455e+000
      4.8570096619672341e+001 -3.7493535858020199e+000
      7.9212733302020956e+002 -1.1546091641886215e+002
      1.6341663887388123e+001 -1.2923590066748665e+000
      -2.0169204884665731e+002 -1.5902837247687276e+002
      -8.8062987662468597e+000 -1.2065200397416924e+000
      3.6662197337438485e+001 2.7352047236312717e+002
      1.3368771707108158e+001 2.6916680803423624e+001
      -1.9454617367628089e+005 -1.0525924106387272e-001
      2.0648535483092510e+002 2.0119926511583793e+002
      -1.6758892854780635e+002 1.3358308261250261e+001
      3.1085925688698848e+000 1.8312038708878117e+002
      4.2107762525930266e+000 -1.4755082062210968e+002
      -1.7530445805263926e+000 4.8728667006348850e+001
      -1.6266971188621523e-001 4.8452389445076207e+001
      1.3692758227355167e+001 -5.8319621880052797e-002
      -9.2026175633000605e+001 -4.6420512357824029e+000
      -1.8591932461795757e-001 -1.0422209134389309e+001
      1.2475436534731053e+001 -8.6526958481132876e+000
      -6.1427985499333322e-002 -7.1836059026490958e+001
      -1.9317672131502619e+001 -8.3201074196841631e+000
      -1.2716988968640953e+001 3.4464078189299437e+002
      -4.9154741356663267e+000 6.8199268830226094e+000
