<?xml version="1.0"?>
<opencv_storage>
<my_nn type_id="opencv-ml-ann-mlp">
  <layer_sizes type_id="opencv-matrix">
    <rows>1</rows>
    <cols>3</cols>
    <dt>i</dt>
    <data>
      784 100 10</data></layer_sizes>
  <activation_function>SIGMOID_SYM</activation_function>
  <f_param1>6.6666666666666663e-001</f_param1>
  <f_param2>1.7159000000000000e+000</f_param2>
  <min_val>-9.4999999999999996e-001</min_val>
  <max_val>9.4999999999999996e-001</max_val>
  <min_val1>-9.7999999999999998e-001</min_val1>
  <max_val1>9.7999999999999998e-001</max_val1>
  <training_params>
    <train_method>BACKPROP</train_method>
    <dw_scale>1.0000000000000001e-001</dw_scale>
    <moment_scale>1.0000000000000000e-002</moment_scale>
    <term_criteria><epsilon>1.0000000474974513e-003</epsilon>
      <iterations>10</iterations></term_criteria></training_params>
  <input_scale>
    1. 0. 1. 0. 1. 0. 1. 0. 1. 0. 1. 0. 1. 0. 1. 0. 1. 0. 1. 0. 1. 0. 1.
    0. 5.3648089601031472e+002 -4.4180780035878615e-003
    1.8733774383330552e+002 -5.7548196110001025e-003
    2.8917827912884053e+002 -4.0825169257547667e-003
    6.9402784549102953e+003 -4.0825169257547667e-003 1. 0. 1. 0. 1. 0.
    1. 0. 1. 0. 1. 0. 1. 0. 1. 0. 1. 0. 1. 0. 1. 0. 1. 0. 1. 0. 1. 0. 1.
    0. 1. 0. 3.9039065793799291e+003 -4.0825169257547667e-003
    1.3101496181268840e+003 -4.7096882957418460e-003
    2.4170555661572348e+002 -8.7993464003812156e-003
    1.2171280219459351e+002 -1.1590559163787754e-002
    8.6089359193337074e+001 -1.4758979878597188e-002
    7.6718219273647634e+001 -1.9284854722948250e-002
    5.2369380879591176e+001 -2.4671797567120807e-002
    4.6120563044168556e+001 -2.9071027211066414e-002
    4.4786878460768051e+001 -3.0592658412926032e-002
    4.4787656333604353e+001 -3.1164012851993019e-002
    4.3052375530710435e+001 -3.1962872072097276e-002
    4.4224211811248360e+001 -3.0202535635168715e-002
    4.2710977315808599e+001 -3.1310217614785599e-002
    4.7105537951617727e+001 -2.8383396132158473e-002
    5.8885235955553128e+001 -2.3119190743491249e-002
    6.8612394577963698e+001 -1.9166626047137380e-002
    7.9472344018885167e+001 -1.6772300826249399e-002
    1.3123581002788268e+002 -1.0996360185098215e-002
    2.1052953089211195e+002 -8.3248607972167977e-003
    3.1615382190904126e+002 -4.3806935526371849e-003 1. 0. 1. 0. 1. 0.
    1. 0. 1. 0. 1. 0. 9.7597664484498227e+002 -4.0825169257547667e-003
    1.9654474500613208e+003 -5.3953459858502402e-003
    3.1269281164948018e+002 -8.5224122716123403e-003
    5.5735882228722335e+002 -1.1985036320239759e-002
    9.5576151789615537e+001 -1.7653477825358348e-002
    5.1056930164178773e+001 -2.7710899055215305e-002
    3.5733230559056175e+001 -3.7020094475901343e-002
    2.6249780508148806e+001 -5.2151280432312361e-002
    1.9721078691808820e+001 -6.7036200977379556e-002
    1.6409286549080885e+001 -8.3017048703456608e-002
    1.3549186342660247e+001 -9.9379298193932500e-002
    1.1609696744810909e+001 -1.1518412819176357e-001
    1.0285110111076740e+001 -1.2913325665555714e-001
    9.7338727394767943e+000 -1.3839467778572026e-001
    9.5151757314514303e+000 -1.3888363126273645e-001
    9.9099722698638910e+000 -1.3184343867851445e-001
    1.0956210590093917e+001 -1.2042952276999193e-001
    1.2709041411674468e+001 -1.0189079519288578e-001
    1.6674130696362294e+001 -7.8604904641684514e-002
    2.2944006927855842e+001 -5.6995613250721576e-002
    3.4145332390673552e+001 -3.9657684022977056e-002
    6.4380972289955125e+001 -2.3728386197652593e-002
    1.0201216064042070e+002 -1.4088346403922682e-002
    2.3129702595552419e+002 -7.8308406660807534e-003 1. 0. 1. 0. 1. 0.
    1. 0. 4.2338233222320622e+002 -5.3683775164463359e-003
    3.8666742348304632e+002 -8.8706059090845110e-003
    2.9859014774801244e+002 -1.4070817030805434e-002
    8.0947487658522121e+001 -2.2146809867850625e-002
    4.2299103006120951e+001 -3.5180136973244715e-002
    2.5693166624632646e+001 -5.5023680434794296e-002
    1.7471606281948510e+001 -7.9096132486633566e-002
    1.2387967826839686e+001 -1.0764901291939635e-001
    9.6104002962409627e+000 -1.3716993626751239e-001
    7.8359633636656172e+000 -1.6710576206380734e-001
    6.7479269336820620e+000 -1.9600875625047062e-001
    5.9035586020770170e+000 -2.2449111454187792e-001
    5.3359280153182747e+000 -2.4865599235127445e-001
    5.0493488363958932e+000 -2.6211797157803446e-001
    5.1020316277747826e+000 -2.6259690263220598e-001
    5.3500796218594200e+000 -2.4785590409543781e-001
    5.9302663542669949e+000 -2.2194700403229387e-001
    6.9559318179997014e+000 -1.8721140566259786e-001
    8.9774380797173094e+000 -1.4764013220829042e-001
    1.2125871950158762e+001 -1.0816436426260549e-001
    1.8460389166583141e+001 -7.6812111961473944e-002
    2.9061171573651848e+001 -4.7075299817748793e-002
    4.7515691261457995e+001 -3.0201967712070305e-002
    1.3997060017124366e+002 -1.5241243557476001e-002
    4.8119589386801294e+002 -5.2837196625275355e-003 1. 0. 1. 0.
    1.6437501695049459e+003 -4.0825169257547658e-003
    3.7948999124808012e+002 -7.7634229880172686e-003
    2.6465364956065173e+002 -1.4893254778498660e-002
    7.5547100132842345e+001 -2.3962750593807168e-002
    3.1293045517732885e+001 -5.0340898280189013e-002
    1.9253319487654689e+001 -7.8767470638240050e-002
    1.2245896133246163e+001 -1.1618154082631563e-001
    8.6097739388774102e+000 -1.6124756268211621e-001
    6.4388293629673141e+000 -2.1196163624500775e-001
    5.1132841711993935e+000 -2.6689873233519090e-001
    4.2638297890357677e+000 -3.2567801164512661e-001
    3.6806139544727343e+000 -3.9024154964529489e-001
    3.2738534965497990e+000 -4.5207637767453540e-001
    3.0435958433804271e+000 -4.9939798584797257e-001
    2.9495370808173877e+000 -5.2342832611087087e-001
    2.9769122738174585e+000 -5.1761889653133042e-001
    3.1329988028508930e+000 -4.8090242105578862e-001
    3.4437108985095328e+000 -4.2307969572253151e-001
    3.9682893262328145e+000 -3.5674039635689764e-001
    4.8775705226929116e+000 -2.8368364956985076e-001
    6.3838811405214022e+000 -2.1683666225361695e-001
    8.8883053626105912e+000 -1.5852438094871815e-001
    1.2980744765268748e+001 -1.0878458180989357e-001
    2.0958680168932609e+001 -7.0922531196939281e-002
    4.7812936951348171e+001 -3.8953481956109211e-002
    1.2257531590987458e+002 -1.4252385185312388e-002
    7.2367721439515208e+002 -5.7704980649312702e-003 1. 0. 1. 0.
    2.9417871540563647e+002 -1.1901740571867412e-002
    8.8757532139417663e+001 -2.2050156045995403e-002
    3.3425595655991053e+001 -5.1838075220759387e-002
    1.5797611144504913e+001 -9.0659703953055240e-002
    9.9267732325844857e+000 -1.3966710617956615e-001
    6.9531288054011107e+000 -1.9708212142090495e-001
    5.1791888093859644e+000 -2.6438472877765856e-001
    4.0949478367254004e+000 -3.4073044304775724e-001
    3.4204840343450540e+000 -4.2253575084186085e-001
    2.9730831654946930e+000 -5.1540865072114705e-001
    2.6668716473145091e+000 -6.1603532954457296e-001
    2.4737869050523331e+000 -7.1598329994436671e-001
    2.3794854760962667e+000 -7.9412046946133519e-001
    2.3503097988593207e+000 -8.3504925635580662e-001
    2.3634512455510617e+000 -8.2418581501601362e-001
    2.4260536770784915e+000 -7.6283928686585112e-001
    2.5775767509617884e+000 -6.6655950118818852e-001
    2.8486228331443502e+000 -5.5625040028500872e-001
    3.3231497757785200e+000 -4.4764565589238675e-001
    4.1210727967563585e+000 -3.4762461555368174e-001
    5.3682591316137893e+000 -2.6084090780568092e-001
    7.3094126115109832e+000 -1.9030605405482484e-001
    1.1168926550406491e+001 -1.3108013024346532e-001
    2.2622369636117178e+001 -7.4846037679501431e-002
    5.7487757691238450e+001 -3.1930129200937823e-002
    4.4537747239005859e+002 -8.2089183482417123e-003 1. 0.
    7.7475761849239916e+003 -5.5701529617163117e-003
    1.4522877585739832e+002 -1.5661927109954732e-002
    4.1878262883200854e+001 -3.6365660799255094e-002
    1.7999909142227235e+001 -7.9024308297724138e-002
    1.0331230932898812e+001 -1.3328908680027177e-001
    6.8290999672482995e+000 -1.9915441154090080e-001
    4.9272088983420650e+000 -2.7542969256552524e-001
    3.8384135058740849e+000 -3.6333594751041953e-001
    3.1668069885399324e+000 -4.6308053479389188e-001
    2.7597555957407991e+000 -5.7484519127083211e-001
    2.5128741893339548e+000 -6.9880387586332815e-001
    2.3671697816662784e+000 -8.2877368728986567e-001
    2.2969091330304900e+000 -9.5689205221335294e-001
    2.2733047872684260e+000 -1.0564726445619259e+000
    2.2700029602873086e+000 -1.1047183133689411e+000
    2.2700798035254794e+000 -1.0835076143940101e+000
    2.2737221268619314e+000 -9.9895165037964051e-001
    2.3209344948971462e+000 -8.7474762749777191e-001
    2.4580832860573358e+000 -7.2455973761129977e-001
    2.7398668240292201e+000 -5.8060590051791761e-001
    3.2651479905893215e+000 -4.5215876562125606e-001
    4.1219458100688380e+000 -3.3932343243838997e-001
    5.5475302010118375e+000 -2.4893037380193136e-001
    8.1851398042212065e+000 -1.7293970228860725e-001
    1.4306326443527240e+001 -1.0410424081705541e-001
    3.3058742626084744e+001 -4.8317622140315382e-002
    1.2378034910308999e+002 -1.4708018335971802e-002
    1.3289895241960487e+003 -4.0825169257547667e-003
    1.7097503105993474e+002 -1.3231009297387382e-002
    6.2156417289230625e+001 -2.6243821063207492e-002
    2.5326014435452908e+001 -5.9158591101620160e-002
    1.2461614420419414e+001 -1.1300485338296566e-001
    7.6748826564449653e+000 -1.7844152583258199e-001
    5.2903635826036215e+000 -2.5800481117426877e-001
    3.9855384106976888e+000 -3.5091181301576635e-001
    3.2255336891033113e+000 -4.5909822604992340e-001
    2.7636640436047499e+000 -5.8414555938894386e-001
    2.5061212210827257e+000 -7.2495421010686889e-001
    2.3728022936152451e+000 -8.7563927059873414e-001
    2.3191964338595943e+000 -1.0148029099084741e+000
    2.3096254095150335e+000 -1.1321685726224024e+000
    2.3091297569524634e+000 -1.2021883494219350e+000
    2.3156209254806486e+000 -1.2295375110901414e+000
    2.3134545967968343e+000 -1.2096977062098020e+000
    2.3040826394535481e+000 -1.1446098338285335e+000
    2.2977073667993531e+000 -1.0231255472837781e+000
    2.3473772945100539e+000 -8.6295358798529131e-001
    2.5233258071932654e+000 -6.9048024142832987e-001
    2.9015902103058213e+000 -5.3290132220149733e-001
    3.6020074141584897e+000 -3.9754744165744771e-001
    4.8258985705805326e+000 -2.8768128006504112e-001
    7.1423331935750323e+000 -1.9700702619488319e-001
    1.1967859180596893e+001 -1.2122894012373475e-001
    2.8232694452391648e+001 -5.6808611116772538e-002
    1.2309315998804624e+002 -1.5390667998292832e-002
    3.1512311940197498e+002 -5.0254929763461640e-003
    8.6915034227213312e+001 -1.7320519236473687e-002
    3.3353518918426836e+001 -4.3080539345626098e-002
    1.6501665069210755e+001 -8.5248897298831686e-002
    9.4878918596255062e+000 -1.3945836938888370e-001
    6.3388288157438160e+000 -2.1088330837912489e-001
    4.5489207782483518e+000 -3.0001797847660905e-001
    3.5089835075906186e+000 -4.0728152778461418e-001
    2.8955066536535083e+000 -5.3288848207907169e-001
    2.5483504278885358e+000 -6.8062942828912154e-001
    2.3779352949715311e+000 -8.4198850653767099e-001
    2.3094731416557623e+000 -9.8243825962476616e-001
    2.2950475427098693e+000 -1.0749410261392018e+000
    2.2897015071404887e+000 -1.1079807311493859e+000
    2.2934425646888057e+000 -1.1065909925445747e+000
    2.3014178424824854e+000 -1.1041449293100105e+000
    2.3021769544932984e+000 -1.1080246860400558e+000
    2.2968944306998953e+000 -1.1002043340650480e+000
    2.2893812422312445e+000 -1.0437866747052380e+000
    2.3139661012166353e+000 -9.1297850863583752e-001
    2.4379019491961684e+000 -7.3919131686119588e-001
    2.7526088689138888e+000 -5.7100550688195340e-001
    3.3962279264341801e+000 -4.2367100326525065e-001
    4.6485867214316325e+000 -2.9819620790274953e-001
    7.0153496296266971e+000 -1.9768613611613886e-001
    1.1806251728899330e+001 -1.2068381593648728e-001
    2.8559096790374753e+001 -5.3935628705774091e-002
    1.2669209539206287e+002 -1.3505543386742688e-002
    3.0944315317963407e+002 -5.9057126134358260e-003
    6.7738656622238466e+001 -2.1109667985968885e-002
    2.6390164853037579e+001 -5.2989037094956837e-002
    1.3804376771270224e+001 -9.3078492706036020e-002
    8.6264638559462412e+000 -1.5039873435817505e-001
    5.8816016172546597e+000 -2.2619102416253942e-001
    4.2265450319020417e+000 -3.2364534136116913e-001
    3.2674701841764309e+000 -4.4213121885917056e-001
    2.7235951492800199e+000 -5.8424747952851686e-001
    2.4429431754282676e+000 -7.4857559583901401e-001
    2.3184328847443116e+000 -9.0044933645904002e-001
    2.2880451790190088e+000 -9.9238771182055507e-001
    2.2903977291540158e+000 -9.9508845054647088e-001
    2.3159115826654175e+000 -9.4955660320436031e-001
    2.3400023309736979e+000 -9.0890463073946370e-001
    2.3448783848648453e+000 -9.1393597560628748e-001
    2.3324089905019623e+000 -9.5430484160568874e-001
    2.3068421463559310e+000 -1.0030879479951453e+000
    2.2944998827245033e+000 -9.9948655628514804e-001
    2.3186267704657251e+000 -9.0150861591533038e-001
    2.4383754485171605e+000 -7.3668151861396036e-001
    2.7460999213736166e+000 -5.6758942361502807e-001
    3.4069706817979601e+000 -4.2017190081767347e-001
    4.8071125317185377e+000 -2.9017459661998679e-001
    7.7632887031407938e+000 -1.8148235202313431e-001
    1.4099110746027900e+001 -1.0493977535211736e-001
    3.4218926242112786e+001 -4.7213173069471162e-002
    1.2770362755626950e+002 -1.4130865617149962e-002
    2.2080979481972778e+002 -5.7728051896635754e-003
    5.8551544860708745e+001 -2.2632277216942331e-002
    2.5743692712420348e+001 -5.2803174909811866e-002
    1.4040794545379780e+001 -9.2205807073873325e-002
    8.7664846399532319e+000 -1.4745170041602812e-001
    5.8682691958390016e+000 -2.2728458898662540e-001
    4.1271684665560304e+000 -3.3242831767066960e-001
    3.1726428200935208e+000 -4.6269615993779045e-001
    2.6434436699252171e+000 -6.1903352393203437e-001
    2.3980230386018517e+000 -7.8428268871882556e-001
    2.3107152781844200e+000 -9.0820988328758534e-001
    2.3020532537123550e+000 -9.3137298807958624e-001
    2.3616687536827730e+000 -8.6957693898804456e-001
    2.4501902006376532e+000 -7.9705953125158169e-001
    2.4767447444586304e+000 -7.7141210576080943e-001
    2.4242269432151642e+000 -8.0356009669907225e-001
    2.3741118908222560e+000 -8.7393930142504228e-001
    2.3236374730501517e+000 -9.5157541847179761e-001
    2.3084370459076480e+000 -9.6213107014847044e-001
    2.3368851413852503e+000 -8.6347326281157732e-001
    2.4890745322650929e+000 -7.0132424929878223e-001
    2.8361738959976552e+000 -5.3739656640440714e-001
    3.5527761731899536e+000 -3.9677102845564982e-001
    5.1237901210746575e+000 -2.7122264283119252e-001
    8.8311570423583614e+000 -1.5932446505431147e-001
    1.8016601970465089e+001 -8.1258409030663059e-002
    4.2475451263066198e+001 -3.6950867161005700e-002
    1.6162188860115646e+002 -1.1873399190853711e-002
    3.0321392328343035e+002 -7.0551739346642736e-003
    6.9327879968291768e+001 -2.0771176943315300e-002
    2.8599156427981907e+001 -4.7203562577549596e-002
    1.6332023143315467e+001 -8.2003836591592230e-002
    9.6134959453560249e+000 -1.3745728550563183e-001
    6.0102573986025112e+000 -2.2518195646666947e-001
    4.0843516560539026e+000 -3.3849238244600804e-001
    3.0899489891325302e+000 -4.8293499897158720e-001
    2.5794276110452685e+000 -6.4828822167773359e-001
    2.3678608283610170e+000 -8.0980531476936812e-001
    2.3141938318023891e+000 -8.9646046460446061e-001
    2.3433404321987799e+000 -8.7178559663557820e-001
    2.4505416852454323e+000 -7.8497609927864986e-001
    2.5469197646779538e+000 -7.3254174095443259e-001
    2.4813477754078130e+000 -7.4095056286507999e-001
    2.3946426915352417e+000 -8.0221047344472940e-001
    2.3621688028976315e+000 -9.0126281941490594e-001
    2.3196255433058850e+000 -9.7772293278124422e-001
    2.3094117449211740e+000 -9.5554794718715286e-001
    2.3627026813110632e+000 -8.2490290244962106e-001
    2.5756959169276556e+000 -6.5598783786068571e-001
    2.9964048381517889e+000 -4.9936418843997310e-001
    3.7189069616766792e+000 -3.6957331047588260e-001
    5.2390531077791911e+000 -2.5846440795255993e-001
    9.5672989990866988e+000 -1.4969571541660254e-001
    2.5777562248504001e+001 -6.1111356621783915e-002
    5.7373091915983444e+001 -2.8011568936962498e-002
    2.8492657215739843e+002 -9.1250996351920129e-003
    3.5594987641409557e+002 -5.3043513137468554e-003
    9.4791115927359712e+001 -1.6238399995902673e-002
    3.8327558212569656e+001 -3.6378614981226812e-002
    1.9899955434053297e+001 -6.8582010752963551e-002
    1.0583490008789630e+001 -1.2736849948820311e-001
    6.0022749242070725e+000 -2.2614336060038370e-001
    3.9429188777766218e+000 -3.5220290772844426e-001
    2.9703659427023865e+000 -5.0758351463884255e-001
    2.5120531810291049e+000 -6.7944964231380811e-001
    2.3400369882995657e+000 -8.2825105145513700e-001
    2.3152806380133186e+000 -8.8883003965305396e-001
    2.3570299628350395e+000 -8.4190091517470877e-001
    2.4523180750098583e+000 -7.6653453141818517e-001
    2.4745419852472459e+000 -7.7020475853643366e-001
    2.3415121077481293e+000 -8.2034372296827540e-001
    2.3006479016649179e+000 -9.1768349461627485e-001
    2.3215181931826061e+000 -1.0290959458622542e+000
    2.2951064685186098e+000 -1.0582790011233243e+000
    2.2922312798183810e+000 -9.6567404756517139e-001
    2.3969977575408943e+000 -7.9447676689302027e-001
    2.6843948212324853e+000 -6.1674936599250463e-001
    3.1327176368905603e+000 -4.7007288569919620e-001
    3.8146440475721257e+000 -3.5512441570711928e-001
    5.1233803565236054e+000 -2.5540754559716816e-001
    9.1333732885906187e+000 -1.5382451413879286e-001
    3.0176743919350308e+001 -5.2454282291703812e-002
    6.8736104119773330e+001 -2.1505865133579341e-002
    2.4886281089663652e+002 -9.9219815924551629e-003
    1.9519532896899645e+003 -4.0825169257547667e-003
    1.5278182212105168e+002 -1.0934385475086019e-002
    5.3124290381130734e+001 -2.5544797971133213e-002
    2.3963175940830791e+001 -5.7073081192190386e-002
    1.0894664373756868e+001 -1.2466202083886102e-001
    5.7190220435471195e+000 -2.3849817393128747e-001
    3.7247304971314525e+000 -3.7325889874453644e-001
    2.8570634271343360e+000 -5.3313607010242603e-001
    2.4649387283709516e+000 -7.0209414254697566e-001
    2.3294563044533056e+000 -8.3745005342666701e-001
    2.3162617421233631e+000 -8.8007425314282606e-001
    2.3541599869294054e+000 -8.4101427640859638e-001
    2.3976996357132512e+000 -8.1679096235082194e-001
    2.3455576036564376e+000 -8.9192404165129613e-001
    2.2405161665547344e+000 -9.7855056749435643e-001
    2.2848281990008465e+000 -1.1108034348264570e+000
    2.3193023652239093e+000 -1.1806299637403603e+000
    2.2737736985285615e+000 -1.1288577610345119e+000
    2.2859771540836697e+000 -9.7607041736638400e-001
    2.4356898638405293e+000 -7.7519539879466393e-001
    2.7447986339664068e+000 -5.9444660744996891e-001
    3.1590746832916117e+000 -4.6091023967254047e-001
    3.7814789520643957e+000 -3.5550054693543814e-001
    4.9257015514210067e+000 -2.6354918133304256e-001
    8.2208589242476027e+000 -1.6450368783159636e-001
    2.5954888077457770e+001 -5.9513032785963038e-002
    7.1809723124772660e+001 -2.3368667945240732e-002
    1.7375176839444867e+002 -7.4043238015330153e-003
    5.5276556182575848e+002 -4.0825169257547667e-003
    2.4691249127225689e+002 -7.9883454199429389e-003
    8.6134069842761278e+001 -1.8296453055643928e-002
    2.8082418945003692e+001 -5.1339434738376370e-002
    1.0759234825880586e+001 -1.2934639780528998e-001
    5.3166979990211676e+000 -2.5752139449892208e-001
    3.5308347249498726e+000 -3.9501133107809910e-001
    2.7788958855542472e+000 -5.5042172497057373e-001
    2.4456390322327417e+000 -7.0732309101379065e-001
    2.3309129818889831e+000 -8.2604982050292919e-001
    2.3276143696997282e+000 -8.6785315456393874e-001
    2.3528041492090299e+000 -8.6074372611799910e-001
    2.3564506975469435e+000 -9.0403568425773240e-001
    2.2859676784389427e+000 -1.0347035346571298e+000
    2.2422076618255358e+000 -1.1454361875382564e+000
    2.3283026161621181e+000 -1.2742078993414363e+000
    2.3215746332786940e+000 -1.2481935484502884e+000
    2.2691255498527179e+000 -1.1397750976187400e+000
    2.2957931461751087e+000 -9.6328345085513789e-001
    2.4457350592781810e+000 -7.6301131924236842e-001
    2.7139253507707810e+000 -5.9702704247599581e-001
    3.0907965633105148e+000 -4.7201999119145954e-001
    3.6782996426446153e+000 -3.6837041336524734e-001
    4.7685251138076854e+000 -2.7332531730663617e-001
    7.7275097775245278e+000 -1.7338663436106347e-001
    2.1431663193156854e+001 -6.8942720164739402e-002
    6.7976068223364109e+001 -2.4644657380557041e-002
    8.0352630096764460e+002 -6.9849019269755293e-003
    1.6587564066621760e+003 -4.7702800414168032e-003
    2.7628555281923161e+002 -4.1894280237942541e-003
    1.0543914156042786e+002 -1.8648256426065438e-002
    2.6868748417048771e+001 -5.3272123932593785e-002
    1.0056610295259727e+001 -1.4042051740819139e-001
    4.9056303882587207e+000 -2.7718062477915140e-001
    3.3920298880197790e+000 -4.1220900906901681e-001
    2.7586775502695384e+000 -5.5400340017988914e-001
    2.4700492270462737e+000 -6.9200544534485309e-001
    2.3574416684740833e+000 -7.9258314302255395e-001
    2.3494471930472263e+000 -8.4194083935003439e-001
    2.3534046381274121e+000 -8.6976698674166020e-001
    2.3271405763526309e+000 -9.5866435178155440e-001
    2.2645021592926078e+000 -1.0941026623517327e+000
    2.2643481010533932e+000 -1.2048945593454270e+000
    2.3324589356324146e+000 -1.2724254177800682e+000
    2.2899573648145002e+000 -1.1836340690530318e+000
    2.2643911272807853e+000 -1.0783524942057492e+000
    2.3214758116188281e+000 -9.2258453771877857e-001
    2.4481311437088400e+000 -7.5248127639028639e-001
    2.6679477326838810e+000 -6.0978718581715263e-001
    3.0089562499497662e+000 -4.8675394046402110e-001
    3.6000095403133292e+000 -3.8089677789549986e-001
    4.7658399627595980e+000 -2.7829889148674003e-001
    7.6781348424802269e+000 -1.7549155267349842e-001
    1.8194027952870897e+001 -7.7026142867230613e-002
    5.0970700973169819e+001 -2.9626304106761300e-002
    2.1444103433480433e+002 -9.1102402300022641e-003
    1.5615626688370928e+003 -4.0825169257547667e-003
    4.3118210866498373e+002 -6.7072773949266992e-003
    7.4103567040797373e+001 -2.1601432392398305e-002
    2.4849582084670089e+001 -6.0707692550739371e-002
    8.9577210510157030e+000 -1.5702241225085961e-001
    4.5844733595056848e+000 -2.9716316949982258e-001
    3.3078945953160570e+000 -4.2230679955157091e-001
    2.7862859655937635e+000 -5.4572670883740459e-001
    2.5345531891813025e+000 -6.5910029169170115e-001
    2.4268577521168866e+000 -7.4125055539316853e-001
    2.4016709244412526e+000 -7.8837956822291577e-001
    2.3774781804714529e+000 -8.3396729711932249e-001
    2.3181693652265993e+000 -9.1941340182165476e-001
    2.2581093867191364e+000 -1.0259556246832575e+000
    2.2637781374363977e+000 -1.1227755199202125e+000
    2.2914445737932567e+000 -1.1450631680222347e+000
    2.2738267121204796e+000 -1.0794597074728101e+000
    2.2925316038385004e+000 -9.9988631825843377e-001
    2.3499895118375496e+000 -8.7891758823830757e-001
    2.4512227250017862e+000 -7.4358354695923701e-001
    2.6336275973954510e+000 -6.1562164502372996e-001
    2.9908264110534786e+000 -4.9307976642021417e-001
    3.6241081455783544e+000 -3.7987428222747016e-001
    4.8968917167607033e+000 -2.7351765035083858e-001
    7.8803457154066576e+000 -1.7353912160656032e-001
    1.6651998712570645e+001 -8.4050148584957768e-002
    4.5490457495914207e+001 -3.4162442354077387e-002
    1.8533415106542139e+002 -8.9396475017993384e-003 1. 0.
    3.1272528069509980e+002 -8.9320884530738175e-003
    5.7722188781541384e+001 -2.5397763552538224e-002
    1.9766659214740706e+001 -7.3900175999987924e-002
    7.6197133271261928e+000 -1.7786004816348638e-001
    4.3139196946334328e+000 -3.1338343076992242e-001
    3.2703858159618995e+000 -4.2901306281978535e-001
    2.8322543736440142e+000 -5.3508893813496083e-001
    2.6182270867393669e+000 -6.2078198995980194e-001
    2.5150346894911983e+000 -6.8268924112787699e-001
    2.4702917048498105e+000 -7.2347014006379928e-001
    2.4179529110888551e+000 -7.6555898228681141e-001
    2.3484882223506967e+000 -8.2507042832445943e-001
    2.2995934391871122e+000 -9.1939023956809407e-001
    2.2784967857757339e+000 -1.0062601380037826e+000
    2.2814871178392950e+000 -1.0328150598231831e+000
    2.2960659036638327e+000 -1.0106726929154235e+000
    2.3213283244741656e+000 -9.5150930190270022e-001
    2.3550879384987486e+000 -8.5546569040277520e-001
    2.4434150552990870e+000 -7.4032107142160763e-001
    2.6358787565292001e+000 -6.1326579661208680e-001
    3.0316100828809454e+000 -4.8515629380565350e-001
    3.7626446035868213e+000 -3.6804197912277126e-001
    5.1811765341757416e+000 -2.6078182504371211e-001
    8.3242235766781221e+000 -1.6833375752181137e-001
    1.5937674453010477e+001 -8.8542637406523836e-002
    4.3629929251431058e+001 -3.5936234007029881e-002
    3.0745859936160235e+002 -1.0710812869814668e-002
    7.9264290382954835e+002 -5.9059667884066198e-003
    3.0466252237848397e+002 -6.3521141607904329e-003
    4.7072878041138345e+001 -3.3320214244283233e-002
    1.5316080507390778e+001 -9.1304863358325772e-002
    6.6617962943833726e+000 -1.9910803143977690e-001
    4.0960052775195699e+000 -3.2796741365280158e-001
    3.2065643376810495e+000 -4.3899542814059200e-001
    2.8285290962207679e+000 -5.3445409007988098e-001
    2.6514252731867503e+000 -6.0594789918596770e-001
    2.5479151004395426e+000 -6.5940509656342305e-001
    2.4802743245613934e+000 -6.9784836882395940e-001
    2.4320952188286302e+000 -7.3042289711392439e-001
    2.3963158369953845e+000 -7.8112567027452406e-001
    2.3365997654832360e+000 -8.7168855588320016e-001
    2.2936590400163581e+000 -9.5845445859848255e-001
    2.2982594127292231e+000 -1.0112466172079284e+000
    2.3140479275716292e+000 -1.0104488490174122e+000
    2.3138922655004164e+000 -9.5294508048441673e-001
    2.3390097793279789e+000 -8.5872464213485333e-001
    2.4369784609184322e+000 -7.3231139653859911e-001
    2.6754727095326194e+000 -5.9491059769969501e-001
    3.1294067910226357e+000 -4.6342915177180038e-001
    3.9445495520310541e+000 -3.4877114545342847e-001
    5.5085902005863181e+000 -2.4588474760444853e-001
    8.8099579978306579e+000 -1.5820093635281790e-001
    1.6777698363713807e+001 -8.5437963031161371e-002
    5.2277696344241953e+001 -3.1557961707876239e-002
    2.0428772867343619e+002 -9.7604141172027512e-003
    4.1641672487571304e+003 -4.0825169257547667e-003
    2.3612781711075036e+002 -1.1281662638917349e-002
    3.5408559718698022e+001 -3.9757101771674130e-002
    1.2957299696939886e+001 -1.0385233520642091e-001
    6.1964858147993693e+000 -2.1198097225213341e-001
    3.9594650444964721e+000 -3.3747788973590559e-001
    3.1271813601099603e+000 -4.5170193431740946e-001
    2.7617916321302518e+000 -5.5213161161170021e-001
    2.5842929066675864e+000 -6.3188647746150528e-001
    2.4802645880248617e+000 -6.9322439374912392e-001
    2.4176608056922126e+000 -7.3838490342499952e-001
    2.3783764450554807e+000 -7.7073076966790333e-001
    2.3490303082911219e+000 -8.2876952688509886e-001
    2.3116364742205167e+000 -9.1927271444367897e-001
    2.2877357705369965e+000 -1.0088061036688303e+000
    2.2962927703534590e+000 -1.0608282848796260e+000
    2.3055633661100563e+000 -1.0481237315772911e+000
    2.2953862067285660e+000 -9.6705521798398641e-001
    2.3392306315132405e+000 -8.4650228801890137e-001
    2.4875291139961457e+000 -7.0122275732413397e-001
    2.7878473255332268e+000 -5.5538565651689953e-001
    3.3310128770022769e+000 -4.2707460799875402e-001
    4.3033513665355905e+000 -3.1681048101811732e-001
    6.1459947839004654e+000 -2.2068580424468653e-001
    9.8816230148713426e+000 -1.4105726429159887e-001
    1.8655700071922737e+001 -7.8171042636145410e-002
    5.0726362610482980e+001 -2.9182578619715460e-002
    2.9949883377146671e+002 -8.0257859512416103e-003 1. 0.
    1.7274475915998426e+002 -1.0342104927080499e-002
    3.3237269496476486e+001 -4.3273622199041920e-002
    1.2341179937887706e+001 -1.0916701419569666e-001
    6.2613640936690826e+000 -2.0903257346693113e-001
    4.0691477585926403e+000 -3.3022464188369649e-001
    3.1277474562017642e+000 -4.5487526727414634e-001
    2.6981651335036378e+000 -5.6919680920874238e-001
    2.4916779890819090e+000 -6.7294360257836749e-001
    2.3897765853198467e+000 -7.6060122869494906e-001
    2.3376032043649415e+000 -8.2875749867192705e-001
    2.3094098733546939e+000 -8.8650819387043789e-001
    2.2931587187037685e+000 -9.5984040790998726e-001
    2.2848475852125874e+000 -1.0513839738978326e+000
    2.2875166188451828e+000 -1.1209048305462916e+000
    2.2928505979586640e+000 -1.1289434454891294e+000
    2.2923966853097815e+000 -1.0627393793992568e+000
    2.3074800485734488e+000 -9.3933290698519423e-001
    2.3936848519631009e+000 -7.8734756835251007e-001
    2.6109413868413118e+000 -6.2699095829156970e-001
    3.0390331936072981e+000 -4.8806277673095233e-001
    3.7717453270064931e+000 -3.6895114573691079e-001
    5.0386270820564043e+000 -2.6929222684699877e-001
    7.3023661237951742e+000 -1.8721262426800395e-001
    1.1428271378915754e+001 -1.2162743416079987e-001
    2.2633046192565740e+001 -6.6493819918405500e-002
    5.9439626894799801e+001 -2.6033003150953943e-002
    8.7457160875791180e+002 -5.7733159389513162e-003
    1.9519532896899645e+003 -4.0825169257547667e-003
    2.0097821386457520e+002 -1.0009503564535732e-002
    3.6333445668023472e+001 -4.0498731626959106e-002
    1.3862603433763448e+001 -9.9984708351078630e-002
    7.2357084414232782e+000 -1.8820172495416496e-001
    4.5209348496663777e+000 -2.9963131354587930e-001
    3.3206379128157311e+000 -4.2724847049622211e-001
    2.7455239673924332e+000 -5.5525136241948458e-001
    2.4686739450668247e+000 -6.8177739987301045e-001
    2.3426949046735590e+000 -8.0158751915885995e-001
    2.2944713474999623e+000 -9.0865684987425754e-001
    2.2878424154374488e+000 -1.0089452420447471e+000
    2.2955759265085596e+000 -1.1036228913658575e+000
    2.3106113088741012e+000 -1.1813322080156927e+000
    2.3057952754025552e+000 -1.1921856853912771e+000
    2.2980484211071177e+000 -1.1253050551749648e+000
    2.3053731812177567e+000 -9.9470796319709454e-001
    2.3720670298054869e+000 -8.3223274795177449e-001
    2.5546462043288165e+000 -6.6712599279544393e-001
    2.9231303420497383e+000 -5.2269449435178028e-001
    3.5635000634852583e+000 -3.9906542962413394e-001
    4.6428273522096921e+000 -2.9670064408779434e-001
    6.3701806670761432e+000 -2.1262622456584229e-001
    9.2275954809983389e+000 -1.4869395821728790e-001
    1.4508897402895309e+001 -9.6895728841391707e-002
    2.9263045878004082e+001 -5.0931089071961047e-002
    8.7293469201337828e+001 -2.0214429425303843e-002
    1.6016027333676827e+003 -4.0825169257547667e-003
    2.0149196406116675e+003 -4.0825169257547676e-003
    1.5572043077856297e+003 -6.0049057227948019e-003
    4.5942726236699890e+001 -3.3706347242927433e-002
    1.8509734930018020e+001 -7.8972450858446508e-002
    9.5511946810091679e+000 -1.4774137747773536e-001
    5.7193836820922845e+000 -2.4325025088460003e-001
    3.9284231374253080e+000 -3.6034629905507259e-001
    3.0523495303717452e+000 -4.8644317391314928e-001
    2.6031928890019969e+000 -6.2240998390928659e-001
    2.3820580368802329e+000 -7.5670417890365116e-001
    2.2865960298787700e+000 -8.8873651629216632e-001
    2.2595258215903029e+000 -1.0021705961184684e+000
    2.2676813246114129e+000 -1.0895925753510698e+000
    2.2740748483281883e+000 -1.1174380283506609e+000
    2.2724156883699842e+000 -1.0748398554738789e+000
    2.2911931165328139e+000 -9.6307263463876414e-001
    2.3773104761289381e+000 -8.1766817636238709e-001
    2.5690377547178307e+000 -6.6465591304478566e-001
    2.9451974012654514e+000 -5.2359508190457682e-001
    3.5692064629435833e+000 -4.0214203004097754e-001
    4.5720036484622586e+000 -3.0306916085785518e-001
    6.1702694261497379e+000 -2.2168084535953111e-001
    8.6299852982483980e+000 -1.5936593598315191e-001
    1.2613603522996451e+001 -1.1006069997814258e-001
    2.1385974089017630e+001 -7.0039765310377741e-002
    5.0072707896652531e+001 -3.7135622969980124e-002
    1.7446875323390933e+002 -1.2201409925660911e-002
    8.6753480686378691e+002 -4.0825169257547667e-003 1. 0. 1. 0.
    9.0364287961602884e+001 -2.2738726688603637e-002
    3.1606804277646912e+001 -5.1905397466875648e-002
    1.4715153146870287e+001 -9.9988024641741419e-002
    8.5647751210323548e+000 -1.6843162344781057e-001
    5.5173878059039252e+000 -2.6031072100529362e-001
    3.9393454269138735e+000 -3.6983708225796319e-001
    3.1044608743878799e+000 -4.9009799719239100e-001
    2.6645084982783320e+000 -6.1537068177771459e-001
    2.4387492096415366e+000 -7.3897799674054676e-001
    2.3362459534878677e+000 -8.4317590832245992e-001
    2.3067953676491069e+000 -9.0195141763074727e-001
    2.3138337282029231e+000 -8.9980608740497892e-001
    2.3637368685532509e+000 -8.3974858303552558e-001
    2.4785457180132680e+000 -7.3465553747717993e-001
    2.7125767315666223e+000 -6.1257571358669050e-001
    3.1218285421560279e+000 -4.9207119008839512e-001
    3.7996938912317675e+000 -3.7992816821790787e-001
    4.8326273042782271e+000 -2.8881739452323613e-001
    6.3854364769598693e+000 -2.1344093799804417e-001
    8.8669869107133010e+000 -1.5366778297330164e-001
    1.2619632853276977e+001 -1.0912600850246741e-001
    1.9248390570241277e+001 -7.4098756511331132e-002
    3.5589782125376395e+001 -4.3317185320121798e-002
    8.5094885527377215e+001 -1.9343792080923451e-002
    2.7583703406443715e+002 -1.0402481984734060e-002 1. 0. 1. 0. 1. 0.
    1.6655764615757803e+002 -1.0352700890498751e-002
    5.9994074933847870e+001 -2.8750102524065856e-002
    2.7003375540170516e+001 -5.7568373863846986e-002
    1.5182051158942553e+001 -9.5310537265846387e-002
    9.3189478652061020e+000 -1.5360976276349314e-001
    6.2309547067523656e+000 -2.2342452706933258e-001
    4.6003146079896382e+000 -3.0357777160973176e-001
    3.6585686458791615e+000 -3.8847997503342746e-001
    3.1467005272938047e+000 -4.7019583424592126e-001
    2.8897868890364111e+000 -5.3312356752001944e-001
    2.7991188735900057e+000 -5.6650599100434185e-001
    2.8160026559533500e+000 -5.6278365839423838e-001
    2.9584979336834598e+000 -5.2716469784496944e-001
    3.2482283585972671e+000 -4.6805739853350276e-001
    3.6779783775324946e+000 -3.9580504695925761e-001
    4.3342463742431860e+000 -3.2478944735782650e-001
    5.3825305523192180e+000 -2.5570503272368655e-001
    6.8782638998898085e+000 -1.9461171306904182e-001
    9.3112700649656173e+000 -1.4457420568795201e-001
    1.3020504802411075e+001 -1.0177354320002412e-001
    1.9147175508781199e+001 -7.1425222991494272e-002
    3.0486265340168710e+001 -4.7777757086526054e-002
    6.4497015077753005e+001 -2.5752435999282175e-002
    1.3080779972900260e+002 -1.1379423793926306e-002
    6.2688780062263675e+002 -4.7528749341798140e-003 1. 0. 1. 0. 1. 0.
    1.0847213087133043e+003 -6.6643011271786835e-003
    1.5721880005558535e+002 -1.0964213236813024e-002
    5.5086488023576301e+001 -2.7604451685625048e-002
    2.7705306946450186e+001 -5.1553601425717507e-002
    1.5743024153023145e+001 -8.6771846188993015e-002
    1.0293051935241124e+001 -1.2839203323658069e-001
    7.2960988449751776e+000 -1.7577589865098220e-001
    5.7870197642168240e+000 -2.2305443842966177e-001
    4.9024182121991906e+000 -2.6664028652916133e-001
    4.4971767442703481e+000 -2.9484431645459142e-001
    4.3322548406607746e+000 -3.0750543396580460e-001
    4.3780128970537122e+000 -3.0518012275382900e-001
    4.6657172510630858e+000 -2.8923178018649093e-001
    5.1147729585684223e+000 -2.6323129207069107e-001
    5.6771986005857658e+000 -2.3372359022899974e-001
    6.5795145791347958e+000 -2.0102782478387640e-001
    7.9934413549729015e+000 -1.6369105249752314e-001
    1.0295210628504439e+001 -1.2766599656024497e-001
    1.4166994665298915e+001 -9.3965139687798876e-002
    2.0292669136165173e+001 -6.5683259341041161e-002
    3.1602244940278954e+001 -4.5926531259964626e-002
    5.2377849853898759e+001 -2.8718809806365080e-002
    1.2798691546448659e+002 -1.5693036558388229e-002
    4.0575786632970085e+002 -5.6753061690289659e-003
    6.0060103964212067e+002 -4.0825169257547658e-003 1. 0. 1. 0. 1. 0.
    1. 0. 1.6437501695049459e+003 -4.0825169257547658e-003
    1.0877166104137086e+002 -1.5121393949717036e-002
    4.9049992613745033e+001 -3.1369554677313588e-002
    2.5264036432077848e+001 -5.3330235093993712e-002
    1.6845130997129960e+001 -7.9228267194858468e-002
    1.1932232824927320e+001 -1.0837665070136905e-001
    9.7295488013126779e+000 -1.3397906834398657e-001
    8.2812508102890874e+000 -1.5751318119558358e-001
    7.4665824969193100e+000 -1.7510551410246683e-001
    7.2259399750698483e+000 -1.8262689797873416e-001
    7.3549760793065140e+000 -1.8053534138236474e-001
    7.7763890446668418e+000 -1.6987649156736156e-001
    8.7749184574538699e+000 -1.5315731416993231e-001
    9.7697588468058694e+000 -1.3543312418421866e-001
    1.1460099152015596e+001 -1.1648029967275737e-001
    1.4083023156070727e+001 -9.3951254495821812e-002
    1.8349302005841515e+001 -7.2576887352189492e-002
    2.4714646487709242e+001 -5.2364359860292822e-002
    3.8916379061000157e+001 -3.6382999665505157e-002
    7.2851388649906184e+001 -2.1503063848340172e-002
    2.0535563144582238e+002 -1.3019279071624543e-002
    2.2181126274400849e+003 -4.4942151694836409e-003
    1.0586865875306848e+003 -4.0825169257547676e-003 1. 0. 1. 0. 1. 0.
    1. 0. 1. 0. 1. 0. 5.8282566922955721e+002 -5.7901636185117896e-003
    1.4815384042268099e+002 -9.0538459630506996e-003
    9.8031734479042356e+001 -1.6005443039450590e-002
    6.3234739408312400e+001 -2.2119760192230036e-002
    5.3391879867369703e+001 -2.6845995937598614e-002
    4.1276640363348562e+001 -3.1845063383270797e-002
    3.3200270050886715e+001 -4.3748408875714795e-002
    2.8042060901266538e+001 -4.7282947566080466e-002
    2.5762023480025256e+001 -5.3138804776655016e-002
    2.4444263035638215e+001 -5.6622819640951172e-002
    2.2362696334659461e+001 -6.0338355805842875e-002
    2.4245960803600116e+001 -5.6295001632962055e-002
    2.7133959988062209e+001 -5.1366537962549211e-002
    3.1646881451155753e+001 -4.2632279919398892e-002
    4.2201622222289785e+001 -3.3171027205153004e-002
    6.4456509031414527e+001 -2.2462883077193959e-002
    8.9794385126056980e+001 -1.6069087038247151e-002
    1.5117778664796199e+002 -1.1432202884208037e-002
    1.5194223226179110e+002 -9.0072945458071294e-003
    7.3572522314844582e+002 -5.7703939285430259e-003 1. 0. 1. 0. 1. 0.
    1. 0.</input_scale>
  <output_scale>
    2.2715898947368425e+008 -2.1580103999999997e+008
    2.2715898947368425e+008 -2.1580103999999997e+008
    8.8732631578947371e+005 -430759120. 1. -431602080. 1. -431602080. 1.
    -431602080. 1. -431602080. 1. -431602080. 1. -431602080. 1.
    -431602080.</output_scale>
  <inv_output_scale>
    4.4022030663058893e-009 9.4999999999999973e-001
    4.4022030663058893e-009 9.4999999999999973e-001
    1.1269811141691182e-006 4.8545739299610892e+002 1. 431602080. 1.
    431602080. 1. 431602080. 1. 431602080. 1. 431602080. 1. 431602080.
    1. 431602080.</inv_output_scale>
  <weights>
    <_>
      -2.3939812486818974e-003 8.4936007508614429e-004
      9.6585435686827163e-004 -2.4647605855414741e-003
      1.3195145769160962e-003 2.4623047461713294e-003
      -1.1527886789964208e-003 -7.1983589707890036e-004
      -2.8637706880977134e-004 8.0550090219362526e-004
      -3.6580978255983988e-004 1.2967108669864477e-003
      -5.7424664986832413e-004 -5.0203014148849810e-004
      2.6014635959103936e-005 2.5323896949311507e-003
      6.2307852738059389e-005 2.2280472884078071e-003
      7.9601099751042820e-004 6.2944232666872497e-004
      -2.5231864210873968e-004 -9.4077382366237238e-005
      -1.4544693841673263e-003 1.6417912781309773e-003
      1.5323983352070200e-003 2.0096787154666946e-003
      -1.6019864768175949e-003 8.1058572754296810e-004
      8.0383562382529679e-004 3.8808973026766930e-004
      -2.2009344469494747e-003 -1.4819182688773826e-003
      -1.7058066065766115e-003 8.8908592798798991e-004
      2.1889520328186528e-003 -1.6660311230144659e-003
      -9.5636422710203967e-004 -6.8788910361594841e-004
      1.2716520732805943e-003 9.7675865695252872e-004
      -1.0541438711097848e-003 -1.3587174721748601e-003
      -1.9737075431637140e-003 -1.4277879706665248e-003
      -6.8337982466592151e-004 -2.4190105743580430e-003
      1.8192046792184372e-003 -2.5238960079239344e-003
      -8.0355268000999755e-004 -2.3826885750624139e-004
      1.1245241362607911e-003 1.5527671474016109e-003
      2.2394573430281591e-003 -1.5217869250136664e-003
      -8.2695383514484538e-004 2.5128798169925608e-003
      7.8327549022957438e-005 1.8335266111337558e-003
      1.5653859143094444e-003 2.1498116502448976e-003
      2.4093490415266865e-003 -2.8849207959214988e-004
      6.0571481833848718e-004 2.0432698058808437e-004
      -2.0035132264698773e-003 -1.9015901024558722e-003
      4.1412653654218770e-004 -1.8763361771422405e-003
      -6.8399393181475679e-004 -2.0361345633064455e-003
      -4.9536264301675741e-004 -1.2351755978006268e-004
      2.3752397210066913e-003 -2.3426358834310211e-003
      -4.6007867962591641e-004 -2.5741258199091072e-003
      -1.0748803737795490e-003 -1.3337505470160267e-003
      9.6627982033838328e-004 4.2010892022382879e-005
      1.2100502448339691e-003 -1.5394531144680473e-003
      -7.8961069951215886e-004 8.4378996035183783e-004
      1.9244620772711407e-003 1.3410003939369865e-003
      5.7864014872228498e-004 1.2808934271922316e-003
      -1.4731318871724886e-003 3.8465818454227904e-004
      4.3817234815205441e-004 1.9919263013244556e-003
      2.0721303966438233e-004 1.9586916456676849e-003
      -1.6623812903846747e-004 9.3008156847796322e-005
      1.3650595265614026e-003 -2.4811218908527602e-003
      -2.5219232215772723e-003 -2.2518135134687277e-003
      2.0440570886294117e-003 -1.2310171640883684e-003
      1.2343677264945523e-003 -6.1804884966640760e-004
      -1.4549882515290206e-003 1.4253269117816942e-004
      1.7821241496321864e-003 -1.8287070494086590e-004
      -1.9155151864738570e-003 -2.3689156675591344e-003
      -5.8447003378880717e-004 -6.9126715158206046e-004
      -1.1010024937640765e-003 1.6544476810894349e-003
      2.3939269109873895e-004 8.3786623865808412e-004
      -1.2157347476263816e-003 -1.1605313618661573e-003
      -5.4002608346846986e-004 -1.5110490149991913e-003
      1.1226542382043218e-003 1.6301187256544994e-003
      -1.4056682480954215e-004 1.8209584506137821e-003
      -1.3934339914668159e-003 1.8503065212182846e-003
      2.0887321920228831e-003 1.8181196042644458e-003
      1.0399443872830029e-003 7.0791691159464304e-004
      6.4163100114144960e-004 2.1788155112765326e-003
      -2.4823896975433826e-003 -1.2324548951818349e-003
      2.3938053581249990e-003 3.0163383647226476e-004
      -1.1957725507631977e-003 2.1395874658194148e-003
      1.4077525482594131e-003 -1.5794743073545368e-003
      -2.1844974100863486e-003 -1.5280879864470601e-003
      -9.5007094964772256e-004 -1.1571880029403914e-003
      -2.2813597214911613e-003 3.3135539275214285e-004
      2.3416685998202853e-003 -1.1219228831180538e-003
      -3.3342114437122790e-004 5.7836597742009859e-004
      -1.7385033842198529e-003 1.8198478505247672e-003
      -6.4941532403133147e-004 -1.8791815973340825e-003
      -1.5054420026330171e-003 2.3683632775019343e-003
      -2.0170371313212245e-003 1.2035620065239251e-003
      2.3141418688637071e-003 2.3275720644494288e-003
      -2.2882410607226291e-003 -7.4843648817916138e-004
      -1.7181810393950775e-003 -2.4230760851986465e-003
      -1.7536134499045741e-003 1.5488567133593713e-003
      2.0897926628899483e-003 2.6524735319592447e-004
      -2.3923624955989324e-003 1.2899366298142886e-003
      -8.6652975171029926e-004 -1.9032328716478686e-003
      -1.7553870604660122e-003 1.8261455022848113e-003
      -2.3267781388710538e-003 7.7959382087798600e-004
      2.0182200011799462e-003 -1.1691788867270261e-003
      -1.7479309208081963e-004 -1.3364266485208496e-003
      1.0773105877309444e-003 2.2883532593558735e-003
      2.4152559779400977e-003 2.0793061730950547e-003
      -2.4092301435364909e-003 -1.3152502694088095e-003
      3.9042363369328988e-004 -5.9444452995838844e-004
      1.9295992388929739e-003 -2.1684808477934340e-003
      1.7438179990471382e-004 -7.5395364384658656e-005
      7.5537790163639012e-004 -9.0687871689376935e-004
      -1.0426785888131577e-003 8.5885938139121745e-004
      2.0179755865054817e-003 -9.0723712208597357e-004
      -5.9843442197078016e-004 3.5659337414705312e-005
      2.2279110503575571e-003 2.5402012975600532e-003
      2.1853465457793869e-003 -2.4135038841213764e-003
      2.0650200838872282e-003 -1.1405015523387968e-003
      -1.9950081115206460e-003 -1.9740227074472026e-003
      1.4074703738230349e-003 1.1775424616181618e-003
      5.6214688258838792e-004 -4.8225006653366870e-004
      -2.4973307373513643e-003 -7.7279824785335654e-005
      -9.7221523368987844e-004 -2.4126025514868538e-003
      -2.1624634503636395e-003 1.7533038294780122e-003
      -6.0564496502744523e-004 -1.8731394917088316e-003
      -8.7513551954296819e-004 -2.4786675802071631e-004
      1.0692600223330408e-003 2.3354738243794777e-003
      -1.5305256261955962e-004 -4.7272180896286534e-004
      -1.9049765030416905e-004 -1.1648268117088593e-003
      1.5168403526353089e-004 4.7455322115614592e-004
      2.5424495683900247e-003 -1.7786535278744107e-003
      -2.5249397633785122e-003 -1.7140071474302831e-003
      -1.8206473547089071e-003 2.1197983707029297e-003
      1.6924436032044812e-003 1.5560797109037783e-003
      -1.7275947027929721e-003 -1.3077597954387836e-003
      1.8835292946227224e-003 2.4622218763847002e-003
      1.0481088235123855e-003 1.8018809324609395e-003
      -1.7628354073518854e-003 -8.6387624468712383e-004
      8.8722907967797137e-004 6.6087685514803574e-004
      2.7592995211917198e-004 -1.6558619157585567e-003
      1.4146183853457747e-003 3.0553896254513066e-005
      -2.3206720639484422e-003 -1.3807840398758319e-003
      7.9918192490176882e-004 1.8058592517246298e-003
      -3.3259288909666260e-004 2.2730485358508521e-004
      1.7581717612456659e-003 2.4774421416802255e-003
      7.2626234981273171e-004 2.5725217359149374e-003
      4.4239122764087472e-004 -5.6702508534193759e-004
      4.3040720157965168e-004 1.0453644134923274e-003
      1.4503395956500523e-004 -3.2064315855864398e-004
      -7.9050792826842109e-004 -4.2675646106487284e-004
      -9.5081533919331746e-004 -1.6809043499499540e-003
      -2.2564704355281795e-003 2.4398013779687033e-003
      -1.2437688806108255e-003 -3.3576493191285245e-004
      -8.3670577277969807e-004 2.0075350708347890e-003
      2.0337508210334842e-003 1.0197204446009799e-003
      7.4680525854324456e-004 2.2752002292322172e-003
      2.4423263778551164e-003 1.5694227686376711e-003
      6.8861549591269270e-004 2.4198510218764679e-003
      -1.0148380395284433e-003 1.5463680722942782e-003
      -9.8064571659913728e-004 5.2943728972119105e-004
      -1.7061242447221616e-003 -2.4476298333003222e-003
      2.4206202030566410e-003 -1.4790816732420109e-003
      -1.8211025054454106e-003 3.5505142130565475e-004
      -1.0765599013310028e-003 -2.0895645713112907e-003
      -1.6494027505897686e-003 1.3829721457033720e-003
      -1.1564026870763044e-003 1.3289419955234798e-003
      -1.1119094626632953e-004 3.3182091883472595e-004
      -5.3885584467294010e-006 2.0682456716878020e-003
      -1.8037833860842826e-003 2.6914677818572463e-004
      2.2078161816006798e-003 -2.1658414545546516e-004
      8.2478670392002284e-004 5.0502262576391543e-005
      -1.1059541552507028e-003 -1.1462790539958705e-003
      1.6838522820160709e-003 1.4928813937643301e-003
      2.4066501492943457e-003 -1.3805676833976005e-003
      -1.1432004356527448e-003 1.5739247952894478e-004
      -1.6247225073566878e-003 8.9267071628749799e-004
      -1.0373489512656912e-003 -1.7848490019788750e-003
      -1.9040176865058104e-003 2.4749948006021058e-003
      2.3265695096527476e-003 -1.5717976614908176e-003
      3.0976285780915015e-004 1.9474800223644646e-003
      -3.6900472270802871e-004 -3.7894855960809710e-004
      -2.0090632446042216e-003 1.1660270336780636e-003
      -9.3595947859581824e-004 6.0214323108464000e-004
      6.3809133936260066e-004 1.4866771216766996e-003
      -1.7048634300641948e-003 -7.4154120934926825e-004
      -2.4956189892877886e-003 4.7485718177137836e-004
      -6.3247002210840180e-004 -1.1188457969734922e-003
      -1.0375046229133080e-003 1.5924130827790440e-003
      -1.5862397832829404e-003 -9.1455348406784367e-004
      -7.3551034751847546e-005 -9.1441678726549881e-004
      -4.3450667422741438e-004 -1.3012278850281663e-004
      -2.3777889288085804e-003 -9.9137992556812263e-005
      1.8856506462222732e-004 9.2223142162141869e-004
      1.3431119212830645e-004 1.0410867455087982e-003
      -1.1771933581057720e-003 2.0728414946635907e-003
      -1.2146110168569381e-003 8.7352134600763643e-004
      -1.2237780549232886e-003 4.8093328350124360e-004
      9.1472520417043557e-004 -8.7150517420505995e-004
      -6.8388323130098513e-004 1.3690782603370613e-003
      -1.1940589563475153e-003 4.7489416352802094e-004
      -1.3498357304782694e-003 1.5298804946776475e-003
      -1.9542656271620044e-004 -2.0888157730838269e-003
      -2.4502290347927988e-003 -9.1308982685121831e-004
      -1.0757925578814924e-003 -8.1411228377351963e-004
      2.2116891153917072e-003 -6.9776192164766647e-004
      1.7851268476726599e-003 -1.2250501675926128e-003
      -2.3499007911191158e-003 -6.1974249337317928e-004
      1.2239407019047422e-003 2.9340804628879554e-004
      4.6821130631004569e-004 -1.7773662718219944e-003
      5.6270641376845434e-004 -1.3202032061541721e-003
      1.4447812959083642e-003 -4.4753231750176622e-005
      -4.6565525964889574e-004 2.4766973542411116e-003
      -1.8031778506531033e-003 4.0804339543660427e-004
      6.9821820872441364e-004 -4.7238523510079926e-004
      -8.3540940136043657e-005 -1.4809221439437120e-003
      1.5687188046610799e-003 1.9710678023607616e-003
      -2.6271519525812390e-003 7.0628970800172878e-004
      -2.2613805103023424e-003 -2.2492453046296331e-003
      -7.7591035675663193e-004 -1.4141484873715245e-003
      1.0217720036861386e-003 -6.5866018284825719e-004
      6.8713841541900500e-005 2.1593736101307428e-003
      2.0481151737595854e-003 -1.1709347690116419e-003
      -1.4722701741640997e-003 1.9868746373063778e-003
      2.4390822840323696e-003 1.8692083079090176e-004
      2.4672771504237545e-003 1.7415167197079758e-004
      1.4483754583832829e-003 2.5405964013250951e-003
      -1.6921045664069635e-003 -6.2271075580655510e-004
      -2.0004117184311936e-004 -5.0483862349790150e-004
      4.9627053721566176e-004 -1.2012114137535145e-003
      1.8437905716016994e-003 -1.9802720597232623e-003
      1.0798619921493034e-003 -1.7031009541742790e-003
      1.1490017786832843e-003 1.5718799795335190e-003
      2.0221427221047035e-003 5.1234799469218899e-005
      -6.6433219207717470e-004 -1.3954451447262151e-003
      -2.2025103844499016e-003 -6.8991068121927160e-004
      -1.7209176472687071e-003 7.7065274231198546e-004
      1.0655977224599924e-003 1.1078956301779018e-003
      -9.8510559152364019e-004 8.4253768493219904e-004
      1.9749273768628023e-003 2.1450236598084390e-003
      -1.2087963509420745e-003 8.2584149795676730e-004
      6.7807563589376775e-004 1.2641087999098399e-003
      -2.1023439002666642e-003 -1.0663479291115737e-003
      -1.1060948578117229e-003 -8.8917706150000214e-004
      -1.1639821472407403e-003 -2.5109919069206551e-003
      2.3741093230369771e-003 1.6038853331980876e-003
      -2.5285355271136068e-003 -3.2113148973652190e-004
      -1.0313774288715654e-003 1.8596503583227699e-003
      2.7729104520879351e-004 -6.3073133321078670e-004
      2.2423856423443815e-004 -1.3369803972978890e-003
      -1.0616803191678076e-003 -2.3212435984168792e-003
      2.2647572218949413e-003 -1.6217752084454423e-003
      -2.2842321578212415e-003 1.8691961433699770e-003
      -1.9194301162723342e-003 -2.4706466281683376e-003
      1.6576712613661623e-003 -1.7129565578671816e-003
      1.2885515594413845e-003 2.1153360588760588e-003
      -1.7476730721524183e-003 1.5451967780840328e-004
      -1.7548438474146140e-003 2.3432134769811519e-003
      5.3745372755021606e-004 -1.1493880926460157e-003
      -1.8019335309736805e-003 3.7756753560240698e-006
      -2.0870146664677018e-004 2.4311053471594581e-003
      -2.3842689151045123e-003 8.7094624911333157e-004
      -2.0693050981809668e-003 1.6615433542627896e-003
      9.8666900967048611e-004 -5.1039991424437902e-004
      1.5429684848499705e-005 -8.2538304928748616e-004
      1.2340481776338316e-003 1.7718341737997241e-003
      2.4384749453281447e-003 -1.7161463333902867e-003
      2.6059160613438365e-003 -8.8687862866976979e-004
      -5.6483769748883416e-004 -2.3118418358634013e-003
      -6.8629192464709620e-004 7.8209277214531076e-004
      2.6912930647970533e-004 -1.4936435078858603e-003
      -1.6497104491172473e-003 1.6033722408983180e-003
      -4.0906000403777390e-004 2.4268791288125573e-003
      9.1706583663770248e-004 -6.9467677212588968e-004
      -2.4575237808038566e-003 4.1172502187026601e-004
      2.3070848296515216e-003 -1.5653347059928792e-003
      -1.0137041277779616e-003 -2.0380837878462743e-003
      -1.4065441426356878e-003 -2.0758828405476591e-003
      -1.0928340148085934e-003 -2.5220418779602453e-003
      2.2929812642097360e-003 -7.1842749559237649e-004
      2.1191566020158873e-003 -5.7847391002054311e-004
      1.4120886350075736e-003 -2.0632614867039925e-003
      -5.2987582509044027e-004 -2.0303711908818524e-003
      1.0928122559680036e-003 9.9236004375504987e-005
      2.2078793438726121e-003 -4.2067916050054008e-004
      1.6030632855083215e-003 -1.7542170817609044e-003
      1.2608751169692980e-003 -2.1689399833251916e-003
      -7.9949541717990662e-004 2.4137330303492938e-003
      2.4355656306315498e-003 -1.5446850936749422e-003
      1.0225102053846611e-005 -5.3452471530641239e-004
      -1.5192482494300226e-003 -2.9838280436777876e-005
      2.1399678731530108e-003 -5.1105230435686102e-004
      2.4007936377012516e-003 1.1895400013330823e-003
      -8.0223663881262845e-004 -2.4160574206185175e-003
      2.0026151307096403e-003 1.9477668319261732e-003
      -9.3096604249746603e-004 -1.0366111742813461e-003
      2.3325279455295414e-003 -1.5299903138791243e-003
      7.4972266478768321e-004 2.1480154735977826e-003
      -1.6333551067086751e-003 2.2136060460191324e-003
      -1.0118114693816675e-003 -6.6173978295847339e-004
      -2.2935150330674293e-003 -1.9319531682284604e-003
      -2.3718326870694950e-003 -1.9488285650806087e-003
      1.5784627451158363e-003 2.1924054879989430e-003
      -1.8606536729489647e-003 2.7189782825897269e-004
      -6.5260762489044689e-006 2.6288031090542522e-004
      5.3030704064463126e-004 -1.0649504287765673e-003
      7.0020890799688364e-004 -2.7305378813205158e-004
      -5.7699571624714326e-004 -2.2764250435849016e-003
      -1.3562983115048039e-003 -4.6464178075091955e-004
      1.0901205258355530e-003 9.7078413861113367e-004
      -1.8036829338499976e-003 -1.6859142595399533e-003
      1.1917486608045136e-003 1.2196749786368862e-003
      1.8563109654646801e-003 1.1781047320917990e-003
      1.9258149502136787e-003 -1.6234281297196574e-003
      7.8639009032966539e-004 2.5317727756784419e-003
      2.2326454049744217e-003 2.0086913929355920e-003
      4.3751175821924397e-004 1.1676377239260146e-003
      2.2238680966890933e-003 4.5620419151829947e-004
      1.5004634113546052e-003 -7.7760377606646844e-004
      1.5636579908030041e-003 3.8609082710068190e-004
      8.5233739630226162e-004 -7.0119542111019429e-004
      -1.6199184262887893e-003 -5.8480904716358649e-005
      1.0138603792754091e-003 2.8445463331344223e-004
      1.6606052759093077e-003 -8.0647646975605858e-004
      2.4371134014854906e-003 -4.2849950700782265e-004
      1.8714954614844764e-003 -1.8632010724561898e-003
      -1.0567602162346597e-004 1.2551393682127012e-003
      -2.2817486999970314e-003 -2.2419071014834410e-003
      -1.1187526676072260e-003 -2.5520523132974964e-003
      2.3227008827893946e-003 1.9030113161185578e-003
      9.3462450655330636e-004 1.8707375372027542e-003
      -2.3562582525757836e-003 -5.4426746125753257e-004
      1.3667206639360115e-003 -7.5538322910324960e-004
      2.2861480313225878e-004 -5.0808823290523610e-005
      1.3744716643558836e-003 1.2758004360956933e-003
      -4.6578123423624359e-004 -2.4432840633007688e-004
      6.4022902843424972e-004 -2.1426259481627939e-003
      -7.0889342689473759e-004 3.8645651467736017e-004
      -1.6259425248025088e-003 1.8563643475227303e-003
      -9.0247032301453162e-004 2.0933856632703736e-003
      4.2525940027842118e-004 -1.2771489676201727e-003
      -4.4594067451734641e-004 -1.2785942366415699e-003
      1.2984124186416811e-003 2.1660962469618123e-003
      2.4355276162811627e-003 5.8995217623936352e-004
      -7.1100508171886305e-006 1.8767570027374361e-003
      -1.8178308217985709e-003 1.7376977989254343e-003
      -7.1150862255445050e-004 -1.6581254027272774e-003
      8.1110060612635238e-004 7.6731642966987865e-004
      1.6579241470548749e-003 -9.0390794307175645e-004
      -2.4301440392757272e-003 -8.0442032620366556e-004
      -2.0028870355928048e-003 1.6353342199340790e-003
      2.2163166309892681e-003 -2.1263380546391146e-003
      -1.7038225768168584e-004 -9.0192440644848513e-004
      1.4587734845952877e-003 -9.9263034390242367e-004
      -2.0230017383057454e-004 -2.5489788111860410e-003
      2.1631453365487528e-003 -9.3287321806518090e-004
      2.3355080602021662e-003 2.1694192096729514e-003
      -1.5311357795413823e-003 2.8553254109345619e-004
      -1.0933643786808489e-003 7.7690854289301752e-004
      4.1236101517769820e-005 2.3060741040682154e-003
      2.1756078799951778e-003 1.6772135409755303e-003
      2.3506501395178128e-003 -2.3775249942914680e-003
      -1.6176794956875293e-003 -1.9797507037954589e-004
      2.1219699606958818e-003 3.1056470424632151e-004
      3.1110887958848830e-004 2.3451711262995386e-003
      -3.8938590284517472e-004 -8.2641095713575994e-004
      8.3291080788223015e-004 -1.1716399949876311e-003
      -6.0965748048628368e-004 -9.3142742142041286e-004
      4.0252565718665838e-004 -2.3746247684589671e-003
      -1.5256181103365043e-003 -1.6676436443583448e-003
      -1.0706807510358219e-003 -7.0666726487262797e-004
      6.7292204617520619e-004 5.1926577815007734e-004
      -2.4218835951772058e-003 1.3220913426832215e-003
      3.3278640120905389e-004 3.4508606223211072e-004
      -9.7118128856154835e-004 -9.1385147754222032e-004
      -6.1458832289818042e-004 1.1081756020900617e-003
      5.1332127146600361e-004 1.2609175642013910e-003
      4.0341068207453166e-004 -1.7131622799629223e-003
      8.7200075611434220e-004 5.2160249737905767e-004
      2.2025972949184596e-003 -4.9134670250646135e-004
      -4.5421238567223720e-005 -1.5099114759294845e-003
      -2.2149299922121146e-003 -2.1526064882267989e-003
      9.9611191882788643e-004 -7.2305957555115303e-004
      2.3871559255312694e-003 -2.2020152880557948e-003
      1.9434917063498780e-003 1.9222758380709416e-003
      -2.4093901322465418e-003 2.5315521823089672e-003
      -2.0070857404871031e-003 -4.8811030437093453e-004
      -1.1229727990528572e-003 -1.9944468608936983e-003
      -2.4153990029307519e-003 -5.9968661953078658e-004
      1.4229410375318824e-003 1.3747844237296343e-003
      -6.8848540724491050e-004 -1.7692603049884749e-003
      2.1439785337316782e-003 2.1589357836829309e-003
      -9.9668346628139473e-004 -2.2390138637963229e-003
      2.5986354801624295e-003 1.1039356555492814e-003
      -2.4789368441060540e-004 -4.7708004053789385e-004
      -1.2230789387882883e-003 -1.7673531974328974e-003
      -9.0667835328082902e-004 -2.6121696708746975e-003
      -6.5927894432719881e-004 -1.8645152955674136e-004
      1.7638897177168886e-003 2.7913093336300054e-004
      -4.8054940772894586e-004 -2.4342387046071405e-003
      -1.9739937134282130e-003 1.1016140799145382e-003
      -2.2335057458250721e-004 -1.3351741722078997e-004
      2.1580733527902735e-003 4.7312890327537525e-004
      2.9603125813401470e-005 -7.0206844926662968e-004
      -1.5513529827856449e-003 -1.8989191033760070e-003
      -7.1718970123918447e-004 9.7205292198055131e-004
      2.4772790351435875e-003 5.4212269512752414e-004
      -9.0430633139760653e-004 5.2508932636198351e-004
      9.9277751250998001e-004 1.8216665939678324e-003
      -6.5764520747988093e-004 -2.1728503921621855e-004
      3.9862939478522074e-004 1.1341757043540452e-003
      1.3067652205262111e-003 -2.4839618899243536e-003
      1.9079898291335285e-003 9.5205230242911343e-004
      3.7248237910683288e-004 -1.6036654478664698e-003
      1.0296062791457668e-003 7.1751558277761529e-005
      -1.5701557250376583e-003 -2.1918434805068172e-003
      -4.8084835749351773e-004 1.4434242152904270e-003
      -1.2200305731428268e-003 -2.3896661974146861e-003
      -1.6550354548547934e-003 -2.1787250743650999e-003
      -2.0414600774858746e-003 1.9892561339461936e-004
      1.1996981765393039e-003 -1.1387002588296472e-004
      -1.6394002072646365e-003 -1.8751125576793315e-003
      -2.0289244696807809e-004 -7.1628325727340187e-004
      7.5719594219004138e-004 -1.0149540796044025e-004
      -1.6306108338733475e-003 6.0384537602037260e-004
      -2.0859038900317927e-003 -1.1741327220688813e-003
      -1.0414302105927259e-003 1.5998470164571171e-003
      2.3469360247765528e-003 -1.0331234453419577e-003
      1.7366463215930093e-003 1.4061015239691657e-003
      1.0299350353668900e-003 1.4829518440384142e-003
      -1.6126417954985352e-004 2.8712782139407817e-004
      -1.7349154607034681e-003 -1.8466470272224702e-003
      -2.3137064513806364e-003 1.7103710911510694e-003
      1.0730661199500030e-003 -1.0064208426101360e-003
      -2.0917534133187379e-004 8.0892062396466279e-004
      -1.9469633068870727e-003 1.2660981179843381e-004
      -2.3018704679399452e-003 2.3893365188754697e-003
      -1.7242374405381719e-003 7.1189465595204824e-004
      1.2484974390915592e-003 -1.0494284454336340e-004
      -2.5398214765932660e-003 2.1012772387604328e-003
      -2.2135476305490127e-004 -1.6081753264043566e-003
      2.3541850190741567e-003 -1.3365967939160952e-003
      1.2629860408488332e-003 -3.3133946418646140e-005
      2.3103838239025352e-003 -5.1267938000860546e-004
      2.2736415525873893e-003 -7.7903608070218700e-004
      1.5963789108613287e-003 -2.2353029147382259e-003
      -9.3570929159069154e-004 1.9819161421812891e-003
      -5.3099189619287140e-004 -7.6024811367920119e-004
      -2.1354594509848251e-003 -1.1782082737063226e-003
      6.8996979904370394e-004 1.4971962645891851e-003
      -1.3038531752255799e-003 -2.5476749398288178e-003
      -2.4752273713671458e-003 1.6392891421157239e-003
      -2.0420502825817099e-003 1.1679075119113503e-003
      -2.1806121409565747e-003 4.0692912474637425e-004
      9.6709327966407882e-004 9.8320496657954633e-004
      4.4602749067731871e-005 2.3036160047417474e-003
      9.8570162554336826e-004 -1.7691370393318152e-003
      1.1470613580646695e-004 -2.2578745395509790e-003
      1.1009531983306492e-003 -7.5816925535573661e-004
      5.4455972500626283e-004 -1.4277602536619677e-003
      1.9150388557277521e-003 1.7549109251948822e-003
      2.4759512416700409e-003 2.3136196856363214e-003
      -1.1412072283063682e-003 -2.1001653057847480e-003
      -9.7221442828160506e-004 9.4103625118789201e-004
      -2.0096647650546767e-003 7.1890394353696623e-004
      -1.8371322144356346e-003 -4.8754527627631452e-004
      7.6303124575824845e-004 1.7658412559758061e-003
      1.8407784697574453e-003 -1.5554975032811326e-003
      -1.8229522783723188e-003 -9.7535023173840802e-004
      2.4544560689926448e-003 9.9581085740027726e-004
      -1.9434427546321869e-003 -1.6970480958243704e-003
      2.1071906740250533e-003 -1.3082774571176130e-004
      -1.8581454788165160e-003 -9.3726558408674865e-004
      3.8278193959775855e-005 -9.3052359811559280e-004
      9.6638621033791697e-004 1.7434762317094894e-003
      -1.5159455755827005e-003 1.8395960584088407e-003
      2.2686553459150128e-003 4.0176418909614660e-004
      1.0091672470999278e-003 1.2923548729329372e-003
      1.2973638145579482e-003 1.3708427684689709e-003
      -1.9407885951191139e-003 -1.4949793236025604e-004
      -1.7113419217398094e-003 9.6601591206166228e-004
      2.5034684083231145e-003 -8.4695169147446718e-004
      2.1624121671331964e-003 2.3531318965328446e-003
      -1.8678991399269525e-003 -9.1074290370237338e-005
      1.5654091921640001e-004 1.8583218614609380e-003
      2.3819541173301429e-003 2.0248084840654521e-003
      -1.8135069813722880e-003 2.4757466412143181e-004
      -7.7706383554398040e-004 1.6646405119117766e-003
      1.4871914942490402e-004 -2.0124601222003282e-003
      -1.7065382923073969e-003 -2.3316295996133819e-003
      1.2500132578807110e-003 1.3718620754490132e-004
      -1.2276959373266707e-003 -1.7575445173610474e-003
      1.9267340700280060e-003 1.3924566545530693e-003
      -6.8803166412969110e-004 -4.0809488762737086e-005
      1.0384273089399179e-003 -6.3233064345963406e-004
      2.0782383396124125e-003 1.9604314816019084e-003
      -2.5534674620146134e-003 1.3962856988092994e-003
      -1.2901504632765271e-003 1.1737618017226383e-003
      1.9950326471316082e-003 1.3742421447113312e-003
      -1.2923820870029870e-003 -1.2726462996145611e-004
      2.2649807811515898e-003 4.3516085146233280e-004
      1.3301277441320309e-003 -2.4319817088298006e-003
      -8.5854418150383143e-005 -2.3566413210372934e-004
      -7.1066178161873601e-004 -1.3209252432566803e-003
      1.1066688526152386e-004 -2.1968860058131233e-003
      2.4518577429130158e-003 -5.2086174237819729e-004
      1.0776060642399060e-003 -5.5168966573476508e-005
      -1.3761756864341809e-003 -1.2164777193783471e-003
      1.0324709361368973e-003 1.1097521827093328e-003
      1.4648853398081972e-003 7.4504233562238092e-004
      -1.0615030243423483e-003 2.1274106474581259e-003
      -2.3768122074610347e-003 -1.8025004639250549e-003
      5.3087504273898584e-004 1.1253173360403870e-003
      1.5225081984099539e-003 -4.5835165167086567e-004
      7.3777260949227440e-004 2.4625095832109013e-003
      -5.0445364334547474e-004 2.2239370062082384e-003
      6.3341808361687391e-004 1.8297159920521631e-003
      -4.1881400766986598e-004 9.8855530364856843e-004
      -3.5970178809834497e-004 -1.4782941196455230e-004
      -1.5620517306036625e-003 -8.2205061291142003e-004
      1.6939581987880559e-003 1.7989346164163978e-003
      2.4790674575165595e-003 -1.8166157480815218e-003
      5.1775310260625945e-004 -1.8730415882430944e-003
      1.0942704021323544e-003 1.5218307587529362e-003
      -7.2929734252552851e-004 1.4180446946674375e-003
      2.0198224780031940e-003 7.2237495908250213e-004
      -1.8390716485538420e-003 8.6712012081508936e-004
      -2.7551685190469079e-004 1.6671334046737751e-003
      -5.5388202799376302e-004 -2.2211925831212495e-003
      -3.1314458940538285e-004 2.5232628306238016e-003
      -2.2118372330591114e-003 1.6505772170607434e-003
      6.5860547833690572e-005 -2.6898751848984415e-004
      1.8155773819905942e-003 -1.6696683747385985e-003
      -2.5517100201107889e-003 1.8400097668356662e-004
      1.4777227997603262e-003 1.0135809857720231e-003
      1.1441065160440311e-003 -9.8539209129170366e-004
      1.3540417949750995e-003 -9.1306331193057987e-004
      1.7907499117371583e-003 1.9749015070914303e-003
      -2.4303581869004501e-003 -1.4643586808053609e-003
      -2.2179657940841844e-003 -1.1153499377673001e-003
      1.5649744275959335e-003 9.3023664916268669e-004
      -5.7649173320587269e-004 2.3846916350558690e-003
      2.4957934986970451e-003 6.2663345878673834e-004
      -4.4120925553237281e-005 1.2136857370928103e-003
      -1.1630149194425592e-003 8.4108556195509182e-004
      -1.3687687854712790e-003 -9.7885352964059875e-004
      -1.3528983589845090e-003 -1.5553875265364092e-003
      5.8988995864534910e-004 8.0396933293352089e-004
      -1.9462460147041864e-003 1.5273348740815372e-003
      -1.1464535028270313e-003 1.8515889156227084e-003
      2.4839792771347330e-003 1.5220409635551800e-003
      -1.7636469189960338e-003 -4.5148348806611170e-004
      2.4282309829572780e-003 -6.1709802433751167e-004
      -1.2384969234255840e-003 -6.2804782605180602e-005
      9.1660384560135846e-004 -1.5949397225460289e-004
      2.2188037495792378e-003 2.3345956984941220e-003
      1.0609407349342966e-003 6.6060478175809150e-004
      1.5433693806871955e-003 -1.6920106725257587e-003
      2.6220797861960921e-004 -1.5766043705611498e-003
      -2.3023925516252454e-003 7.4238347505981212e-004
      -2.6321608735046414e-004 6.9746350974242866e-004
      -2.0260076290910404e-003 -1.5613224193180564e-003
      1.7760690184833965e-004 1.0460713086410773e-003
      1.3058583929327688e-003 9.2964611852520607e-005
      7.8359144014274206e-004 -1.7932137937478053e-004
      -1.9825215126616034e-003 -2.4426159166605001e-003
      -2.2857754524738317e-003 -1.4023582711326092e-003
      2.6226922776886479e-003 -6.1704232991250632e-004
      1.3746661711368361e-003 2.1894539610025606e-003
      -1.9326696657178419e-003 3.2353124859687871e-004
      1.9819782756559808e-003 -5.6531602920385348e-004
      -2.4508495177563670e-003 -7.4041254219187535e-004
      -2.1508997667453850e-003 1.6055594624601593e-003
      6.1225942643527715e-004 -9.9439284129076294e-004
      -1.6938194920316728e-003 -1.4455106048872511e-003
      2.6555567584147068e-004 2.3330544733863056e-003
      -2.3312022237901068e-003 -4.8007365502885155e-004
      8.7149330048669779e-005 -1.7047090488146034e-003
      1.0342501782854713e-003 -5.2367953655847700e-004
      -1.7027761957468486e-004 -1.9511628051929310e-003
      -1.5855541841814469e-003 -4.2818187093851670e-004
      1.6473158274423071e-003 -1.0666884826643877e-003
      -6.2351295746799161e-004 2.6301038680452697e-003
      -1.3188753768819431e-003 -1.1082120690259619e-003
      1.5213343545867487e-003 -1.4506536694264872e-003
      1.1235552112753887e-003 -1.7609931912453023e-003
      -3.8977100973806232e-004 -5.0389484108597795e-004
      1.9040262013849687e-003 -2.2293793858874241e-003
      -1.9537913473955341e-003 1.2654735700372579e-003
      2.2796362872305824e-003 -3.2077763339686079e-004
      -2.3195926563691154e-003 -8.0742751313860679e-004
      2.2797695590026741e-003 6.1287251923840909e-004
      -1.0033534920614970e-003 6.0274314791802840e-005
      -1.5477508423111003e-003 -4.7172514386324715e-004
      -2.2249331444254522e-003 -1.2484381861481214e-003
      3.9769626940997399e-004 -1.0631497171332144e-003
      -4.8920192850025171e-004 -1.4739093158127632e-004
      -2.6269932425998028e-004 -5.8942966112902710e-004
      2.5341158228720960e-003 -1.9914609744313789e-003
      1.3488872385676470e-003 -1.6875350912299387e-003
      -1.9725363402299722e-003 -1.4917404078753035e-003
      -1.0908972101044154e-003 3.7050160484543282e-004
      -8.2843728397685929e-004 -1.0579001957778952e-004
      -1.9252883454374044e-003 -1.3986043395239473e-003
      -2.5023379670165873e-003 2.0011278316204419e-003
      -1.7603590304235436e-003 3.6843899087734319e-004
      -2.1347224240985136e-003 -3.7601364183556188e-004
      1.9004918509648965e-003 -2.5094983883566400e-003
      4.2525597378790728e-004 -1.7344987160824404e-003
      -1.7259895260352915e-003 2.9787188642201924e-004
      -1.4814140609018904e-003 1.9690035405939559e-003
      1.1464702186550634e-003 -1.7889556665590502e-003
      1.3900476199280177e-003 -3.1327368363925966e-004
      -1.6360863713816996e-003 -5.6363509559534701e-004
      9.0673743481844440e-005 -2.2965974881980868e-004
      2.3782388087253675e-003 -1.6840741980280458e-004
      6.1784263872361677e+001 1.3148938540292563e-002
      -4.3043061559645907e-002 7.3744674726034673e-002
      4.1650934102856416e+000 1.1891268745381023e-002
      -7.5890432418212139e-001 -1.7395693735563281e-002
      -2.4916511704694599e+000 -4.3960110395355894e-005
      -1.4347245505199733e+000 7.8161381622484875e-003
      4.8011664415340043e+000 2.4339418802936139e+000
      -1.1927218560387349e+000 -1.7554673003070775e-003
      5.0778860087776576e-003 -2.3176378441836676e-002
      -3.9389743644059807e-003 1.6970958791530152e-001
      2.0438126133007019e-002 -1.0431197993777792e-001
      3.3339137397659846e-001 -9.6593600502849208e-003
      -5.4279509165865825e-002 -9.6939402244573241e-003
      -5.0341568354174679e-002 2.4910305501699009e-002
      1.3835981753256188e+000 -1.0790652130206215e-002
      1.6439670952733345e+000 -2.8881651213051508e-002
      -2.1012121698480445e-002 4.6814365527897681e-002
      3.0087594407732760e-002 -6.0553583534799249e-001
      2.2786199480058575e-001 4.3778141238185579e+000
      -1.8439310740684500e-003 1.1818663187456480e+000
      -1.5239695725447666e-002 2.5891644256115502e-002
      -5.4172990804530101e-003 6.0247819769312191e-002
      4.3188863632193003e-001 2.4495995987728878e-003
      2.7427886837471688e-001 -7.9941053550165470e-003
      1.8805312710541569e-001 1.6778825210412091e-002
      -1.3148933704454880e-002 -1.3457680984658814e-002
      -6.5138620077440840e-002 1.0334598344234754e-002
      2.3294866218443920e-002 7.3363895515416300e-001
      1.1667643141419510e-004 -1.7284249773806721e+001
      -1.2760040069760279e-002 1.0568090494860008e-002
      -1.1337804159359499e-001 -1.3186440154386199e-002
      5.7020165325030382e-002 -1.5714388872116369e-004
      -2.1335499450670906e-001 -3.7319447784052456e-001
      1.5720211114646856e-002 9.5556180408012920e-002
      2.3682721261137893e+000 1.4203978396734230e-002
      -2.1575988885739583e-002 -7.9341478379749208e-001
      6.3707481245135325e-002 -3.5857779984151017e-002
      4.4315690894428120e-002 -7.6321523441061643e-003
      2.2739101313836501e+000 -7.6717258270804500e-003
      -1.8781003318509279e-002 7.4360349142924163e-003
      -4.7330967634056126e-001 -4.1957781270211079e-003
      3.1758259936984383e-002 1.3523438708270366e-001
      -7.6773127619371743e-003 1.7283394091811866e+000
      7.0215921475645030e-004 -5.6069202740375146e-001
      -7.4625290452861304e-005 -2.8298800057345141e-002
      1.8369946360845241e-002 1.7599727922446125e-002
      -5.3879412779874458e-002 -8.8851308722526744e-003
      1.0532912608750587e-001 1.4156878909033119e-002
      -9.7184516527714579e-003 4.4794836908449147e-002
      1.7861740336959912e-002 6.9399124119317417e-003
      6.8605119736641527e+001 1.9738498841271927e-002
      -3.7751780132247136e-002 5.3373544344125512e-001
      3.1902961871576889e+000 1.3459781025741469e-002
      -5.7714878324728480e-001 -2.7064006339555722e-002
      -1.8982543861624896e+000 2.5104408498039300e-003
      -1.0733066890317057e+001 4.7680952548115961e-002
      3.7338324602717035e+000 1.8610919271392945e+000
      -9.2708839984734066e+000 7.9010636746424832e-004
      1.9941982105186194e-003 -2.0618044305832372e-002
      -4.7779820753732216e-003 1.2867308165867073e+000
      2.1484172372421693e-002 -7.8354980761304982e-001
      2.5734703784290458e+000 -1.5205951860361484e-002
      -3.2496336575741802e-001 -7.7663420313330116e-003
      -3.9354280230905314e-001 2.9976492404302117e-002
      1.0481698627439911e+001 -1.5227022156986640e-002
      1.2596338625179484e+000 -8.4213278327842311e-002
      -2.1572876666823195e-002 3.7652859405395374e-002
      3.6237489924039461e-002 -4.6849303520747680e+000
      1.6861834460558620e+000 3.1161780851159695e+000
      -8.8302824019613935e-004 9.0592793165690044e-001
      -1.8859523226772937e-002 2.0322790866386931e-002
      -1.0162309344595033e-002 4.5514897243206548e-001
      2.9491950987043278e+000 1.9017540700781079e-003
      2.1977177738132263e+000 -1.3078426042075521e-002
      2.5266004727107044e-001 1.9674532738942034e-002
      -1.4896667593645597e-002 -1.0247470648189162e-002
      -5.3687212862934833e-002 1.4461823958079411e-002
      3.4218158467969897e-002 5.5489883151241814e-001
      -3.8156395514302735e-002 -1.3208670391632472e+001
      -2.1059467974288260e-002 7.4809873091794987e-002
      -8.7696032856771938e-002 -2.1065178281766038e-002
      5.5946094004707314e-001 -4.6750627332512303e-004
      -1.5459026628478403e+000 -3.6973200255568706e-001
      1.7267636463988260e-002 9.6409692826075377e-001
      1.6981275991787566e+001 1.5908641705686167e-002
      -1.1453874107450494e-001 -6.0474443181851556e-001
      5.3348036956073507e-002 -3.4008062995754637e-002
      4.2593158347003973e-002 -1.4864980422495436e-002
      1.8234719015668542e+001 -1.9476125456795446e-002
      -1.2405064106778239e-001 9.9401924058091923e-003
      -3.5075724849031711e+000 2.1066284881249837e-003
      3.0577152637833210e-001 9.6147655679748179e-001
      -6.5738257753965839e-003 1.3169807749197007e+000
      1.3907712137613206e-002 -4.5244875135701665e+000
      -3.7015075206670435e-003 -1.5987872805518197e-002
      2.4494828733414509e-002 7.4092685778671076e-003
      -5.4945962476367245e-002 -1.0664725122437501e-002
      7.5764119604065416e-001 1.7250088469173180e-002
      -1.2136440534603077e-001 5.8944123558521730e-002
      1.9857890653573983e-002 1.1603935196498929e-002
      3.6697204966762058e+001 1.2312864818902113e-002
      -1.3923702770050143e-002 8.2140941255627775e-001
      1.3581683072790441e-002 1.0525276685600498e-002
      2.8431019519891696e-003 -1.5423659827743418e-002
      1.1688890584046915e-002 -7.4204543748696117e-005
      -1.6553385559480123e+001 7.2382172167276979e-002
      1.0852778332601998e-001 -2.5150683401614351e-003
      -1.4357794946536321e+001 1.2319578771970599e-004
      2.7505834685705175e-003 -4.3449291563580428e-003
      -5.0675987267785614e-003 1.9849899475373443e+000
      1.2969384980951409e-002 -1.2075798652439607e+000
      3.9843062407163661e+000 -7.9542027842735528e-003
      -4.8741807885998378e-001 5.5271057872875522e-004
      -6.1179980301034564e-001 2.0772417062902428e-002
      1.6186201883321726e+001 -8.2376812023799081e-003
      2.6417695866277646e-003 -1.0607164811794623e-001
      -7.7895741006131537e-003 -3.1219974378141227e-003
      2.8168303009600000e-002 -7.2563679322049390e+000
      2.6014347746795612e+000 -3.9666577432498357e-001
      6.7668857131841711e-004 -5.5216416645364737e-004
      -1.5143904113755206e-002 4.4047485225682274e-003
      -6.6590728843853152e-003 7.0235158296407718e-001
      4.5029298856066040e+000 3.6021450807776651e-003
      3.4108118358187776e+000 -9.5498747362402388e-003
      1.7797085861828479e-001 1.3739791223833116e-002
      -7.4218565647276372e-003 -4.6603243353342573e-003
      -9.7445439740384745e-003 1.0068951912289988e-002
      2.4199394858990225e-002 -8.2080534972686602e-003
      -6.3252733450613857e-002 1.1166125819425020e-002
      -1.2417552148039411e-002 1.0701221855767803e-001
      -1.6241460756972425e-003 -1.2669919252808739e-002
      8.7732020659380139e-001 -1.7524189664385199e-003
      -2.3784256029225341e+000 -1.4587343665887786e-001
      1.1945403820652446e-002 1.5280809339274946e+000
      2.6056853185080747e+001 1.1345508396045898e-002
      -1.7059682713842744e-001 -3.9784659344816001e-004
      1.0727476762979681e-002 -1.7808019074107288e-002
      1.4437870177686654e-002 -8.4933030734451881e-003
      2.8335117730665299e+001 -2.7109761436018100e-002
      -1.8949963144586876e-001 7.8487115587856423e-003
      -5.4023918628817915e+000 1.1963314281204869e-002
      4.7971412121155860e-001 1.4720489103366037e+000
      -6.0334456839458098e-003 -8.4826045560339458e-003
      1.8288327621698644e-002 -7.0313110533230301e+000
      -1.0662524576528056e-003 9.9148344814717140e-003
      1.4265126651495751e-002 -4.8500115002474836e-003
      -2.5008082469331158e-002 -5.9937389583893620e-003
      1.1632103249776353e+000 1.4759144269544939e-002
      -1.9482286578211166e-001 4.1473746117766323e-002
      1.4342028673443181e-002 9.5785888459648336e-003
      3.6699338344218233e+001 1.0166910587369953e-002
      -1.4537162737901529e-002 8.2214111137344503e-001
      1.1965092136830995e-002 1.1555013851837248e-002
      2.6350091256140411e-003 -1.9259353494584984e-002
      7.4573251399990270e-003 4.0262236563477979e-003
      -1.6550917105940805e+001 7.4633328902169241e-002
      1.0583685115794483e-001 -1.2500399211857513e-003
      -1.4356877342587275e+001 -8.3301376032925785e-004
      3.7007105070609157e-003 -3.2008139434509331e-003
      -5.1367604351557879e-003 1.9819888058051112e+000
      1.6171394848523393e-002 -1.2051431133726382e+000
      3.9871395412523141e+000 -1.0717641481286325e-002
      -4.8775047391197979e-001 2.1611018534306936e-003
      -6.1312904526545287e-001 2.0566177577585359e-002
      1.6187656633568182e+001 -1.0095831899948622e-002
      1.9067032787998762e-003 -1.0638547933933709e-001
      -7.5852621620881100e-003 -1.7038258852374584e-003
      2.7466308971073154e-002 -7.2524798139595221e+000
      2.6027787053418900e+000 -3.9538028289362487e-001
      8.7607925589520930e-004 -5.1705559158897951e-004
      -1.4492012615815536e-002 7.3068935668453025e-003
      -9.0362215347360268e-003 7.0098395872775932e-001
      4.5019462751831325e+000 2.7711084440852187e-003
      3.4118408001401654e+000 -1.0832306555547936e-002
      1.7938209313973533e-001 1.5112348898773428e-002
      -7.3827554030074811e-003 -8.7490959539359790e-003
      -5.6031764835467839e-003 7.4773768784233800e-003
      2.1712362810496995e-002 -6.9193696797295772e-003
      -6.6170986590224398e-002 1.1641549724680487e-002
      -1.6391044400446041e-002 1.1056309523300237e-001
      -2.9721340540541990e-003 -1.1188495767760044e-002
      8.7926888460682628e-001 -2.8716873874799678e-004
      -2.3774245020297915e+000 -1.4764642504427500e-001
      1.1789329848917399e-002 1.5276910089866758e+000
      2.6059477710773301e+001 1.3148667390441428e-002
      -1.7260134653234976e-001 3.3162043419348089e-004
      9.5031266056570547e-003 -1.5964965825571421e-002
      1.7909975162204446e-002 -9.7737665121245109e-003
      2.8338135535013770e+001 -2.4090785453863645e-002
      -1.8982749831545451e-001 9.1346567955531369e-003
      -5.4043484623135400e+000 1.3144583602849097e-002
      4.7776181528783962e-001 1.4703615312530267e+000
      -6.8932625453128529e-003 -1.2800451553818853e-002
      2.2468932354467716e-002 -7.0296847723875899e+000
      -3.8959846644145198e-003 1.0799409246676269e-002
      1.7042256252072358e-002 -2.8638507409456592e-003
      -2.2246803737985807e-002 -9.1550888377848662e-003
      1.1629106277911569e+000 1.2733102806483506e-002
      -1.9502260639628607e-001 4.3650696074158994e-002
      1.2365205494376440e-002 9.4331967359596921e-003
      -2.4124252313146427e-004 2.4877363615886292e-003
      -7.5216360247844097e-004 -2.1526782116795657e-003
      9.2808946054698531e-004 -1.6185969314668064e-003
      -5.9121378937925081e-004 4.5369101491116772e-005
      -7.4719041593419356e-004 -1.0338683330915921e-003
      -4.8032411376723626e-004 1.5732209413582921e-003
      2.6521706382663359e-004 2.3304900799673129e-003
      -1.5017649121349748e-003 -2.0692888652865758e-003
      -2.2824263887496607e-003 -3.5377832149031393e-004
      -1.8801698908161048e-003 1.1525902316391174e-003
      1.2236692620700034e-003 1.4338266425475117e-003
      -4.7049475523885958e-004 2.2277600447990157e-003
      9.8198123444294318e-004 -1.3237209388156012e-003
      -2.2010831651668680e-003 3.2240554506732087e-004
      2.5320372421166348e-004 -2.0759781027591150e-003
      1.9257350431631012e-003 7.9188877824023962e-005
      2.1241570639420862e-003 -1.0948274406454058e-003
      1.8421707892304275e-003 2.2540077821276345e-003
      1.8536039819465448e-003 -1.1978037874932714e-003
      -3.9054586397333863e-004 8.8848423155176608e-004
      -1.0520535116718009e-004 -1.1072533575416522e-003
      1.8898007058377893e-003 -1.6201973895866866e-003
      2.4129540943394218e-003 1.3200240058859512e-003
      1.0187692326651687e-003 2.0563055100552940e-003
      4.7231369739789326e-004 3.9731410237942396e-004
      1.8867939517422851e-003 1.0133025322350531e-003
      -2.1097709042386410e-003 -1.5724013809863022e-004
      -5.6290449978366056e-004 8.7728573644059004e-004
      -2.1340960291157127e-003 2.1938518985636913e-004
      1.7074703952651943e-003 1.9022296974269463e-003
      -2.5774075835668683e-003 -2.5012036328079818e-003
      -1.7818336627593587e-003 7.5942290638849664e-004
      8.2118328735936142e-004 -1.2747072905840123e-003
      6.9225576930864816e-004 1.3199227741916624e-003
      -2.8151713165507016e-004 2.3284693940871966e-003
      1.2067861523950099e-003 1.3532946777917252e-003
      2.9268851768674383e-004 -1.9590924681004832e-003
      -1.8332112296856955e-003 1.8357086247921624e-003
      -2.5646466606425362e-003 1.1527946575068829e-003
      -8.3142300742470058e-004 -1.5891159986744247e-003
      1.0679783481110097e-003 -1.7331202857749021e-003
      4.9791307718639888e-005 7.1047908869666240e-004
      -2.4822643974893225e-004 2.4160211733589053e-003
      2.1384249102025946e-003 -1.4035461357103372e-003
      -2.4567911639236314e-003 -1.4458052756905317e-003
      1.6245398575571108e-003 1.1190580180878307e-003
      -5.3625011957680348e-004 1.0493997237688657e-003
      -2.4801296661854833e-003 7.8996689480626686e-005
      -1.1806772126059721e-003 -5.9221743382881448e-004
      -1.1525229644748906e-003 -1.2674486301713795e-003
      -9.6725959234682224e-004 2.1820100636970063e-003
      -1.5767754148170892e-004 2.4189522674551937e-003
      -1.0783281659980460e-003 1.0209789235078241e-003
      -2.3001097548634936e-003 -2.1274692464248899e-003
      8.9456161304354962e-004 -2.1687639280258534e-003
      2.8031947328921073e-004 2.3710371034066308e-003
      -6.0810698622981295e-004 -1.2618933260747367e-003
      3.7092201642891236e-004 1.0098088550546194e-003
      1.0641012153043518e-003 8.5668355020620754e-004
      -4.4179196621434342e-004 -4.6826745606362927e-004
      -6.0221712749483364e-004 1.0062184211210908e-003
      -6.3062127314485791e-004 1.3092593099032137e-003
      -7.3267354139735521e-004 -1.5807114967742214e-003
      7.1622589579707022e-004 1.9328152537041016e-003
      -6.8946443763092671e-004 6.9908631664643490e-004
      -7.6577731371982761e-004 -1.0028962493114596e-003
      -6.2041066124259416e-004 2.3530592602603513e-003
      -1.2643285110525127e-004 -2.2767401943762609e-003
      1.4444461102337538e-003 -1.6995082291560286e-004
      1.5978385547523969e-003 8.9990942343797561e-004
      -3.4921627497462831e-004 -1.1894514238673340e-003
      -6.5783341837715760e-004 2.2355095944948016e-003
      1.5811116369207233e-004 -2.0802192700787570e-003
      -1.6114473062054928e-003 1.1482476516411798e-003
      2.0358567702827342e-003 -9.2539416475471872e-004
      -1.4579256898887103e-003 -2.1569314588096964e-003
      2.1308302597827372e-003 1.6352257376385871e-003
      -2.5894707568093101e-003 2.2464432140754595e-003
      1.6224018579745760e-003 -2.4342063129612515e-003
      2.4335662725881524e-003 1.7907928684134725e-003
      -1.2217752945841759e-003 -4.0729419686622031e-004
      1.5292259275288288e-004 1.9569162366851417e-004
      -1.8732153894424474e-003 1.3288315362326847e-003
      1.3372132595073267e-003 1.4320739084805589e-003
      1.6637751213236683e-003 1.7542786236372800e-003
      -8.0014083721043956e-005 1.9979461362573184e-003
      -1.8320826237092028e-003 9.5213923875375511e-004
      9.7384964021552886e-004 -1.3949732749219841e-003
      1.4401617132218960e-003 -2.6385291523280330e-004
      -7.9686265703647207e-004 -1.5336107254532913e-003
      -7.7824749788851300e-004 -8.4136177416613614e-004
      -1.2715621123204719e-004 8.9957141186428025e-004
      1.4643986395766878e-003 1.3703588151324716e-003
      -1.2470548101708220e-003 -2.1453545296866664e-003
      1.4974094208411303e-003 2.3376926289788752e-003
      2.2826881579001931e-003 1.8402603798982739e-003
      -8.6125295232908220e-004 -5.2905497695897947e-004
      1.0663582806071130e-003 -8.2944769815336496e-004
      -1.4068633154260290e-003 -8.7440854105742360e-004
      8.1359999660991322e-004 3.0432301927659286e-004
      4.8140961262840365e-004 -1.0669161519742012e-003
      -1.1304707922473788e-003 -2.4196166855114916e-003
      -2.2477043500051630e-003 -1.3810526798334985e-003
      1.9670422828384584e-003 9.0944536716638859e-004
      1.4339022343146126e-003 1.6593068348584849e-004
      1.0249338087584315e-003 1.9945605005092936e-003
      -1.7933371503843407e-003 -1.0891101230487820e-003
      -1.1525161051330662e-003 1.4890600608248670e-004
      -1.9920193153009982e-003 -1.8286602502687796e-003
      6.1498326368081106e-004 1.8596118524843192e-003
      -1.9928464554679827e-003 -4.4439826108446057e-004
      -1.8651353083414986e-003 2.1962603457916200e-003
      -1.6564548839075304e-003 7.8408132723169698e-004
      1.5518718897698459e-003 8.1211366749008138e-004
      -6.1588422275436414e-004 2.3042947707485836e-004
      -4.8268116088889541e-004 -2.0280382793000321e-003
      2.3177388882878098e-003 8.7326128035041775e-004
      1.7162869660400700e-003 5.1224562024575779e-004
      -2.0715148341316396e-003 -1.8357097354093576e-003
      2.1224608034057135e-003 -4.8901470621002011e-004
      -7.7729840821646123e-004 -1.9664360479896021e-003
      1.3675076166522252e-003 -1.1257547941642028e-003
      -3.7705924169497611e-004 3.4997493828691666e-004
      -9.2835307017126152e-004 -2.0672963332461843e-003
      8.9726324713538294e-004 -1.4994950380282630e-004
      -4.7416673646528322e-004 1.0906856546569854e-004
      2.3988960347462035e-003 -9.9471607892168547e-004
      -1.0278392411285876e-003 2.0309388947702587e-003
      9.6639729735916238e-004 -4.3985157221852148e-004
      -2.1596071872793535e-003 6.8104076770810645e-004
      -2.5894328247331777e-004 2.1793035800130086e-003
      -1.0021146755790837e-003 -1.7067466669473682e-005
      -1.1211265694930053e-003 1.6366399428830668e-003
      -1.2023827338149247e-003 1.1519371780771811e-003
      9.9260611067995068e-005 -1.1062283406501900e-003
      1.1538727341575454e-004 -2.1112013769802687e-003
      -9.1982546769534706e-004 1.1287055015374715e-003
      -4.1363445995206376e-004 8.2468484499449496e-004
      -3.1832547120703709e-004 -8.7721081344265808e-004
      2.2474681929748855e-003 2.6624516871299997e-004
      -1.1518249425113256e-003 -1.5575970558943150e-003
      -1.9783345766039542e-003 -2.3807129848324362e-003
      2.0575281771741220e-003 1.1591773721126061e-005
      -1.6754345535401627e-003 1.5154057061090623e-003
      -3.6570791798502751e-004 -5.5456325674168379e-004
      -2.1721340024942882e-003 2.1378595331905384e-003
      -1.8458016231924002e-004 2.4330600414347071e-003
      5.8073053573993170e-004 -1.5753328158039099e-003
      -5.4056295151372346e-004 -6.4881594126672869e-004
      -2.1221083564727972e-003 -6.6269325569251079e-004
      -2.4233640717585933e-003 -2.2553427602556757e-003
      1.9667224899576207e-003 1.3352376707672345e-003
      -2.1703256481772965e-004 4.1910831468335198e-004
      -9.4076448987193042e-004 4.5167164800782595e-004
      9.2020997337662286e-004 -1.9969738270121714e-003
      8.6464086435897335e-004 -9.8434944867371236e-004
      -5.4708412439943857e-005 4.8881129576822569e-004
      -2.2084257697222967e-003 -2.2406433690984342e-003
      -2.2320255959188120e-003 2.0798935782063272e-003
      2.1832815646224044e-003 -1.8097874120363928e-003
      -1.9855392984434546e-003 -1.7589893912706989e-003
      -1.2424950828900743e-003 2.2281832393642267e-003
      -3.9066587189629773e-004 -3.3292327314871651e-005
      1.9011792303392781e-003 -3.7475145106394264e-004
      -7.2637791363924916e-004 -9.1437238397838109e-004
      2.4054159315140258e-003 1.3092508602140680e-003
      8.3339318267595236e-004 4.7729749441064692e-004
      -1.2021666654013395e-003 1.3985970073500823e-003
      2.7577884294358544e-004 -2.0833444282620439e-003
      2.3475137697388185e-003 -5.6110991043318572e-004
      -1.8141652818153122e-003 -1.9773672336414203e-003
      2.0465240638454299e-003 7.5377454918781287e-004
      -5.4958948513487335e-005 -2.4724285670263369e-003
      1.6176302799255555e-003 1.4312436488620637e-003
      -1.7910395337930490e-003 -8.0861289246350219e-004
      8.6093230780379831e-004 -2.5968771982538157e-004
      -9.0852748980100369e-005 2.0398257790221947e-003
      1.1710203470566656e-003 -2.3960884163817362e-003
      3.2879862431503380e-004 1.0101218120719380e-003
      6.6282250380748742e-006 6.3473726149068969e-004
      -1.9490423069011724e-003 -2.2564919926387214e-003
      -2.3251177236622723e-003 -3.2465518185081818e-004
      -3.6572367018345147e-004 1.5833346318270180e-003
      -3.4143250809220597e-004 1.9342229807936388e-003
      1.9945414696678813e-003 -1.5834920153285391e-003
      -1.7652550027780485e-003 1.3338655654012760e-003
      1.4653246601224921e-003 2.2496620532043311e-003
      1.0623828992353931e-003 9.5545309882056890e-004
      -2.3093598261649758e-003 -4.4202716882142640e-004
      1.4112678808709475e-003 -6.0319450986280273e-004
      2.2104238224786130e-003 -1.1951600129180312e-003
      -1.3318657059507449e-003 8.0342899035386166e-004
      2.0739102990052854e-003 -9.7896055391250036e-004
      -1.6360454103175415e-003 -3.7671036324600729e-005
      -8.6022766461589051e-004 -2.4130024480665010e-003
      -5.5298048760923490e-004 -1.8241079224720731e-003
      1.5415302112872580e-003 1.6450549290193514e-003
      1.7253061900341451e-003 6.0748383566178654e-004
      5.1998206226612389e-004 -1.9857580980691251e-003
      -5.4713027584823895e-004 -2.1874790891401662e-003
      2.0997905027406736e-003 1.3098905691871158e-003
      -5.1524074190390466e-004 1.2901975324807748e-003
      -1.4448185853182727e-004 1.7211672708544292e-003
      1.6810559842796459e-003 1.5003125468079940e-003
      -8.6657682583298899e-004 -2.4774554591240213e-003
      -1.1368213253304660e-003 -1.6460584301126631e-003
      -2.6096196010606988e-004 -1.3442444983128221e-003
      -1.4103614653953296e-003 -4.0949982398802730e-004
      -2.3620621880544588e-004 1.0703788538920325e-003
      -7.0314861255109840e-004 2.9273807869133016e-004
      1.6662060899171793e-003 -1.5746012891282649e-003
      1.5733597118136014e-003 -2.4799761022149358e-003
      -2.4048774382144544e-003 2.0752239812732265e-003
      -1.0905205432026482e-003 -6.8491826054448797e-004
      -2.3773422239698204e-004 1.7429489738814185e-003
      8.5566423945525577e-004 -6.2890929748229919e-004
      -7.2123144493198787e-004 -2.1521632699395589e-003
      2.0688791152002977e-003 -2.2795101809484049e-003
      -3.0028076841189709e-004 -4.4432986710001536e-004
      -2.3623292425477950e-003 -1.1443940836265286e-003
      -2.0075849879648061e-003 2.4843522555311344e-003
      2.0730053225927352e-003 -1.5639057369201832e-006
      1.6120623247423166e-003 -9.1351489271584063e-004
      8.2200041903777565e-004 1.8945769142322151e-003
      -1.9534708816003638e-004 2.3220652186023067e-003
      1.9548985060000579e-003 2.3140859190605313e-003
      2.4066012327704539e-003 -1.0308314973588696e-003
      1.3771988369021548e-003 3.0409432288729142e-005
      2.3601950893181764e-003 -1.6430918597653147e-003
      2.4501795161303891e-003 -2.2427411392509974e-003
      3.8048360969650285e-004 -1.8297004771797617e-003
      1.0419472373764560e-003 9.6071703398602009e-004
      2.7703550976864810e-004 1.9063868526870908e-003
      -1.9053797495745815e-003 1.0773164718044753e-003
      2.4000444468667906e-003 1.0281701248667466e-003
      2.4655736178676784e-003 -1.0559321794771860e-003
      -1.5915807140013513e-003 2.1343946960221639e-003
      2.3485086692077227e-003 -1.2709777590130656e-004
      1.5044301489001439e-003 -1.0240315201281791e-003
      1.8127755069499119e-003 -6.4718681106090453e-004
      -4.6552794687307808e-004 -2.8760651166741952e-004
      1.5389252601881120e-003 1.3181540284951106e-003
      -1.9849919564476227e-003 -9.9508046342641006e-004
      -5.5804606738938853e-004 7.8052735899809844e-004
      7.9617694520706513e-006 -1.0477030242972789e-003
      -1.8472657086653261e-003 -1.6267163836756714e-004
      1.4385719595896294e-003 1.9592149716846298e-003
      -4.7600341031291327e-004 1.4028086323612545e-003
      -1.6512843632914562e-003 -1.6486864026910640e-003
      1.9282353798493464e-003 1.7789609829800188e-003
      -2.8084595323478624e-004 -1.1196277767102530e-003
      4.7256399079016975e-004 -3.5270604333533629e-004
      3.6098617618197704e-004 2.3552301417568500e-004
      -2.0932816837879427e-003 -4.7632994338508945e-004
      7.5373850515536806e-004 2.0986502424221766e-003
      2.3968570590791566e-003 8.9990812015209253e-004
      1.4601039201062661e-003 1.4161532285716545e-003
      1.7817663327264011e-003 -1.3745721276578734e-004
      -2.1741320650895211e-003 -2.3433984232766897e-003
      -1.5472315840337897e-003 1.9428742631522030e-003
      1.9807445406589508e-003 1.9524384827402429e-003
      1.0703754465043358e-003 -8.5881555420153522e-004
      1.5723300624311087e-003 -1.8246151629652367e-003
      -1.4849742339988359e-003 2.5045955467345980e-004
      1.0282031196306334e-003 -4.2007134182567058e-004
      -4.2005269834332297e-004 1.9006592845270676e-003
      -2.4097323978767363e-003 1.9005756758425009e-003
      6.8757229673886038e-004 3.0261846547298199e-004
      -1.5051623564290501e-003 -6.6756453157502439e-004
      1.2051581967088894e-003 -8.2332318336587909e-005
      -1.5387504582753796e-003 4.4088944833692095e-004
      6.3783830329406125e-005 -2.1274277846924949e-003
      9.0185892150910704e-004 -6.8170109924391739e-004
      -4.5882555541761170e-004 1.5818185258674672e-004
      1.3291409002399474e-003 2.1876603442098600e-003
      3.8243731767668906e-004 2.0780940606965931e-003
      1.3979424533560995e-003 1.2381196554593528e-003
      7.8269101621684001e-004 -2.1949162698628776e-005
      5.4271830696422528e-004 2.4293714390535822e-003
      1.5591194667161120e-003 4.1413135150101990e-004
      -1.2159326244735975e-003 -2.4849847244984690e-003
      -5.1772931658474602e-004 1.4382441735461939e-004
      -1.0661824316666529e-003 -1.7956154800897572e-003
      1.2259232238332951e-003 -1.1427786672231342e-004
      2.5137618612920457e-003 -1.4194096354320190e-003
      7.9787012475360925e-004 1.0609900124086676e-003
      -8.6488366639463882e-005 1.6869087930621396e-003
      1.4184404696566655e-003 3.8994816452686261e-004
      6.0062228041334357e-004 -4.8038691499110081e-004
      1.0526050288498775e-004 -1.1030623500679557e-003
      -1.5477405672375245e-003 -7.4971431391275903e-004
      -2.2689608455820375e-003 2.0557479190332151e-003
