<?xml version="1.0"?>
<opencv_storage>
<my_nn type_id="opencv-ml-ann-mlp">
  <layer_sizes type_id="opencv-matrix">
    <rows>1</rows>
    <cols>4</cols>
    <dt>i</dt>
    <data>
      784 30 30 10</data></layer_sizes>
  <activation_function>SIGMOID_SYM</activation_function>
  <f_param1>6.6666666666666663e-001</f_param1>
  <f_param2>1.7159000000000000e+000</f_param2>
  <min_val>-9.4999999999999996e-001</min_val>
  <max_val>9.4999999999999996e-001</max_val>
  <min_val1>-9.7999999999999998e-001</min_val1>
  <max_val1>9.7999999999999998e-001</max_val1>
  <training_params>
    <train_method>BACKPROP</train_method>
    <dw_scale>1.0000000000000000e-002</dw_scale>
    <moment_scale>1.0000000000000000e-002</moment_scale>
    <term_criteria><epsilon>1.0000000149011612e-001</epsilon>
      <iterations>5</iterations></term_criteria></training_params>
  <input_scale>
    1. 0. 1. 0. 1. 0. 1. 0. 1. 0. 1. 0. 1. 0. 1. 0. 1. 0. 1. 0. 1. 0. 1.
    0. 5.3648089601031472e+002 -4.4180780035878615e-003
    1.8733774383330552e+002 -5.7548196110001025e-003
    2.8917827912884053e+002 -4.0825169257547667e-003
    6.9402784549102953e+003 -4.0825169257547667e-003 1. 0. 1. 0. 1. 0.
    1. 0. 1. 0. 1. 0. 1. 0. 1. 0. 1. 0. 1. 0. 1. 0. 1. 0. 1. 0. 1. 0. 1.
    0. 1. 0. 3.9039065793799291e+003 -4.0825169257547667e-003
    1.3101496181268840e+003 -4.7096882957418460e-003
    2.4170555661572348e+002 -8.7993464003812156e-003
    1.2171280219459351e+002 -1.1590559163787754e-002
    8.6089359193337074e+001 -1.4758979878597188e-002
    7.6718219273647634e+001 -1.9284854722948250e-002
    5.2369380879591176e+001 -2.4671797567120807e-002
    4.6120563044168556e+001 -2.9071027211066414e-002
    4.4786878460768051e+001 -3.0592658412926032e-002
    4.4787656333604353e+001 -3.1164012851993019e-002
    4.3052375530710435e+001 -3.1962872072097276e-002
    4.4224211811248360e+001 -3.0202535635168715e-002
    4.2710977315808599e+001 -3.1310217614785599e-002
    4.7105537951617727e+001 -2.8383396132158473e-002
    5.8885235955553128e+001 -2.3119190743491249e-002
    6.8612394577963698e+001 -1.9166626047137380e-002
    7.9472344018885167e+001 -1.6772300826249399e-002
    1.3123581002788268e+002 -1.0996360185098215e-002
    2.1052953089211195e+002 -8.3248607972167977e-003
    3.1615382190904126e+002 -4.3806935526371849e-003 1. 0. 1. 0. 1. 0.
    1. 0. 1. 0. 1. 0. 9.7597664484498227e+002 -4.0825169257547667e-003
    1.9654474500613208e+003 -5.3953459858502402e-003
    3.1269281164948018e+002 -8.5224122716123403e-003
    5.5735882228722335e+002 -1.1985036320239759e-002
    9.5576151789615537e+001 -1.7653477825358348e-002
    5.1056930164178773e+001 -2.7710899055215305e-002
    3.5733230559056175e+001 -3.7020094475901343e-002
    2.6249780508148806e+001 -5.2151280432312361e-002
    1.9721078691808820e+001 -6.7036200977379556e-002
    1.6409286549080885e+001 -8.3017048703456608e-002
    1.3549186342660247e+001 -9.9379298193932500e-002
    1.1609696744810909e+001 -1.1518412819176357e-001
    1.0285110111076740e+001 -1.2913325665555714e-001
    9.7338727394767943e+000 -1.3839467778572026e-001
    9.5151757314514303e+000 -1.3888363126273645e-001
    9.9099722698638910e+000 -1.3184343867851445e-001
    1.0956210590093917e+001 -1.2042952276999193e-001
    1.2709041411674468e+001 -1.0189079519288578e-001
    1.6674130696362294e+001 -7.8604904641684514e-002
    2.2944006927855842e+001 -5.6995613250721576e-002
    3.4145332390673552e+001 -3.9657684022977056e-002
    6.4380972289955125e+001 -2.3728386197652593e-002
    1.0201216064042070e+002 -1.4088346403922682e-002
    2.3129702595552419e+002 -7.8308406660807534e-003 1. 0. 1. 0. 1. 0.
    1. 0. 4.2338233222320622e+002 -5.3683775164463359e-003
    3.8666742348304632e+002 -8.8706059090845110e-003
    2.9859014774801244e+002 -1.4070817030805434e-002
    8.0947487658522121e+001 -2.2146809867850625e-002
    4.2299103006120951e+001 -3.5180136973244715e-002
    2.5693166624632646e+001 -5.5023680434794296e-002
    1.7471606281948510e+001 -7.9096132486633566e-002
    1.2387967826839686e+001 -1.0764901291939635e-001
    9.6104002962409627e+000 -1.3716993626751239e-001
    7.8359633636656172e+000 -1.6710576206380734e-001
    6.7479269336820620e+000 -1.9600875625047062e-001
    5.9035586020770170e+000 -2.2449111454187792e-001
    5.3359280153182747e+000 -2.4865599235127445e-001
    5.0493488363958932e+000 -2.6211797157803446e-001
    5.1020316277747826e+000 -2.6259690263220598e-001
    5.3500796218594200e+000 -2.4785590409543781e-001
    5.9302663542669949e+000 -2.2194700403229387e-001
    6.9559318179997014e+000 -1.8721140566259786e-001
    8.9774380797173094e+000 -1.4764013220829042e-001
    1.2125871950158762e+001 -1.0816436426260549e-001
    1.8460389166583141e+001 -7.6812111961473944e-002
    2.9061171573651848e+001 -4.7075299817748793e-002
    4.7515691261457995e+001 -3.0201967712070305e-002
    1.3997060017124366e+002 -1.5241243557476001e-002
    4.8119589386801294e+002 -5.2837196625275355e-003 1. 0. 1. 0.
    1.6437501695049459e+003 -4.0825169257547658e-003
    3.7948999124808012e+002 -7.7634229880172686e-003
    2.6465364956065173e+002 -1.4893254778498660e-002
    7.5547100132842345e+001 -2.3962750593807168e-002
    3.1293045517732885e+001 -5.0340898280189013e-002
    1.9253319487654689e+001 -7.8767470638240050e-002
    1.2245896133246163e+001 -1.1618154082631563e-001
    8.6097739388774102e+000 -1.6124756268211621e-001
    6.4388293629673141e+000 -2.1196163624500775e-001
    5.1132841711993935e+000 -2.6689873233519090e-001
    4.2638297890357677e+000 -3.2567801164512661e-001
    3.6806139544727343e+000 -3.9024154964529489e-001
    3.2738534965497990e+000 -4.5207637767453540e-001
    3.0435958433804271e+000 -4.9939798584797257e-001
    2.9495370808173877e+000 -5.2342832611087087e-001
    2.9769122738174585e+000 -5.1761889653133042e-001
    3.1329988028508930e+000 -4.8090242105578862e-001
    3.4437108985095328e+000 -4.2307969572253151e-001
    3.9682893262328145e+000 -3.5674039635689764e-001
    4.8775705226929116e+000 -2.8368364956985076e-001
    6.3838811405214022e+000 -2.1683666225361695e-001
    8.8883053626105912e+000 -1.5852438094871815e-001
    1.2980744765268748e+001 -1.0878458180989357e-001
    2.0958680168932609e+001 -7.0922531196939281e-002
    4.7812936951348171e+001 -3.8953481956109211e-002
    1.2257531590987458e+002 -1.4252385185312388e-002
    7.2367721439515208e+002 -5.7704980649312702e-003 1. 0. 1. 0.
    2.9417871540563647e+002 -1.1901740571867412e-002
    8.8757532139417663e+001 -2.2050156045995403e-002
    3.3425595655991053e+001 -5.1838075220759387e-002
    1.5797611144504913e+001 -9.0659703953055240e-002
    9.9267732325844857e+000 -1.3966710617956615e-001
    6.9531288054011107e+000 -1.9708212142090495e-001
    5.1791888093859644e+000 -2.6438472877765856e-001
    4.0949478367254004e+000 -3.4073044304775724e-001
    3.4204840343450540e+000 -4.2253575084186085e-001
    2.9730831654946930e+000 -5.1540865072114705e-001
    2.6668716473145091e+000 -6.1603532954457296e-001
    2.4737869050523331e+000 -7.1598329994436671e-001
    2.3794854760962667e+000 -7.9412046946133519e-001
    2.3503097988593207e+000 -8.3504925635580662e-001
    2.3634512455510617e+000 -8.2418581501601362e-001
    2.4260536770784915e+000 -7.6283928686585112e-001
    2.5775767509617884e+000 -6.6655950118818852e-001
    2.8486228331443502e+000 -5.5625040028500872e-001
    3.3231497757785200e+000 -4.4764565589238675e-001
    4.1210727967563585e+000 -3.4762461555368174e-001
    5.3682591316137893e+000 -2.6084090780568092e-001
    7.3094126115109832e+000 -1.9030605405482484e-001
    1.1168926550406491e+001 -1.3108013024346532e-001
    2.2622369636117178e+001 -7.4846037679501431e-002
    5.7487757691238450e+001 -3.1930129200937823e-002
    4.4537747239005859e+002 -8.2089183482417123e-003 1. 0.
    7.7475761849239916e+003 -5.5701529617163117e-003
    1.4522877585739832e+002 -1.5661927109954732e-002
    4.1878262883200854e+001 -3.6365660799255094e-002
    1.7999909142227235e+001 -7.9024308297724138e-002
    1.0331230932898812e+001 -1.3328908680027177e-001
    6.8290999672482995e+000 -1.9915441154090080e-001
    4.9272088983420650e+000 -2.7542969256552524e-001
    3.8384135058740849e+000 -3.6333594751041953e-001
    3.1668069885399324e+000 -4.6308053479389188e-001
    2.7597555957407991e+000 -5.7484519127083211e-001
    2.5128741893339548e+000 -6.9880387586332815e-001
    2.3671697816662784e+000 -8.2877368728986567e-001
    2.2969091330304900e+000 -9.5689205221335294e-001
    2.2733047872684260e+000 -1.0564726445619259e+000
    2.2700029602873086e+000 -1.1047183133689411e+000
    2.2700798035254794e+000 -1.0835076143940101e+000
    2.2737221268619314e+000 -9.9895165037964051e-001
    2.3209344948971462e+000 -8.7474762749777191e-001
    2.4580832860573358e+000 -7.2455973761129977e-001
    2.7398668240292201e+000 -5.8060590051791761e-001
    3.2651479905893215e+000 -4.5215876562125606e-001
    4.1219458100688380e+000 -3.3932343243838997e-001
    5.5475302010118375e+000 -2.4893037380193136e-001
    8.1851398042212065e+000 -1.7293970228860725e-001
    1.4306326443527240e+001 -1.0410424081705541e-001
    3.3058742626084744e+001 -4.8317622140315382e-002
    1.2378034910308999e+002 -1.4708018335971802e-002
    1.3289895241960487e+003 -4.0825169257547667e-003
    1.7097503105993474e+002 -1.3231009297387382e-002
    6.2156417289230625e+001 -2.6243821063207492e-002
    2.5326014435452908e+001 -5.9158591101620160e-002
    1.2461614420419414e+001 -1.1300485338296566e-001
    7.6748826564449653e+000 -1.7844152583258199e-001
    5.2903635826036215e+000 -2.5800481117426877e-001
    3.9855384106976888e+000 -3.5091181301576635e-001
    3.2255336891033113e+000 -4.5909822604992340e-001
    2.7636640436047499e+000 -5.8414555938894386e-001
    2.5061212210827257e+000 -7.2495421010686889e-001
    2.3728022936152451e+000 -8.7563927059873414e-001
    2.3191964338595943e+000 -1.0148029099084741e+000
    2.3096254095150335e+000 -1.1321685726224024e+000
    2.3091297569524634e+000 -1.2021883494219350e+000
    2.3156209254806486e+000 -1.2295375110901414e+000
    2.3134545967968343e+000 -1.2096977062098020e+000
    2.3040826394535481e+000 -1.1446098338285335e+000
    2.2977073667993531e+000 -1.0231255472837781e+000
    2.3473772945100539e+000 -8.6295358798529131e-001
    2.5233258071932654e+000 -6.9048024142832987e-001
    2.9015902103058213e+000 -5.3290132220149733e-001
    3.6020074141584897e+000 -3.9754744165744771e-001
    4.8258985705805326e+000 -2.8768128006504112e-001
    7.1423331935750323e+000 -1.9700702619488319e-001
    1.1967859180596893e+001 -1.2122894012373475e-001
    2.8232694452391648e+001 -5.6808611116772538e-002
    1.2309315998804624e+002 -1.5390667998292832e-002
    3.1512311940197498e+002 -5.0254929763461640e-003
    8.6915034227213312e+001 -1.7320519236473687e-002
    3.3353518918426836e+001 -4.3080539345626098e-002
    1.6501665069210755e+001 -8.5248897298831686e-002
    9.4878918596255062e+000 -1.3945836938888370e-001
    6.3388288157438160e+000 -2.1088330837912489e-001
    4.5489207782483518e+000 -3.0001797847660905e-001
    3.5089835075906186e+000 -4.0728152778461418e-001
    2.8955066536535083e+000 -5.3288848207907169e-001
    2.5483504278885358e+000 -6.8062942828912154e-001
    2.3779352949715311e+000 -8.4198850653767099e-001
    2.3094731416557623e+000 -9.8243825962476616e-001
    2.2950475427098693e+000 -1.0749410261392018e+000
    2.2897015071404887e+000 -1.1079807311493859e+000
    2.2934425646888057e+000 -1.1065909925445747e+000
    2.3014178424824854e+000 -1.1041449293100105e+000
    2.3021769544932984e+000 -1.1080246860400558e+000
    2.2968944306998953e+000 -1.1002043340650480e+000
    2.2893812422312445e+000 -1.0437866747052380e+000
    2.3139661012166353e+000 -9.1297850863583752e-001
    2.4379019491961684e+000 -7.3919131686119588e-001
    2.7526088689138888e+000 -5.7100550688195340e-001
    3.3962279264341801e+000 -4.2367100326525065e-001
    4.6485867214316325e+000 -2.9819620790274953e-001
    7.0153496296266971e+000 -1.9768613611613886e-001
    1.1806251728899330e+001 -1.2068381593648728e-001
    2.8559096790374753e+001 -5.3935628705774091e-002
    1.2669209539206287e+002 -1.3505543386742688e-002
    3.0944315317963407e+002 -5.9057126134358260e-003
    6.7738656622238466e+001 -2.1109667985968885e-002
    2.6390164853037579e+001 -5.2989037094956837e-002
    1.3804376771270224e+001 -9.3078492706036020e-002
    8.6264638559462412e+000 -1.5039873435817505e-001
    5.8816016172546597e+000 -2.2619102416253942e-001
    4.2265450319020417e+000 -3.2364534136116913e-001
    3.2674701841764309e+000 -4.4213121885917056e-001
    2.7235951492800199e+000 -5.8424747952851686e-001
    2.4429431754282676e+000 -7.4857559583901401e-001
    2.3184328847443116e+000 -9.0044933645904002e-001
    2.2880451790190088e+000 -9.9238771182055507e-001
    2.2903977291540158e+000 -9.9508845054647088e-001
    2.3159115826654175e+000 -9.4955660320436031e-001
    2.3400023309736979e+000 -9.0890463073946370e-001
    2.3448783848648453e+000 -9.1393597560628748e-001
    2.3324089905019623e+000 -9.5430484160568874e-001
    2.3068421463559310e+000 -1.0030879479951453e+000
    2.2944998827245033e+000 -9.9948655628514804e-001
    2.3186267704657251e+000 -9.0150861591533038e-001
    2.4383754485171605e+000 -7.3668151861396036e-001
    2.7460999213736166e+000 -5.6758942361502807e-001
    3.4069706817979601e+000 -4.2017190081767347e-001
    4.8071125317185377e+000 -2.9017459661998679e-001
    7.7632887031407938e+000 -1.8148235202313431e-001
    1.4099110746027900e+001 -1.0493977535211736e-001
    3.4218926242112786e+001 -4.7213173069471162e-002
    1.2770362755626950e+002 -1.4130865617149962e-002
    2.2080979481972778e+002 -5.7728051896635754e-003
    5.8551544860708745e+001 -2.2632277216942331e-002
    2.5743692712420348e+001 -5.2803174909811866e-002
    1.4040794545379780e+001 -9.2205807073873325e-002
    8.7664846399532319e+000 -1.4745170041602812e-001
    5.8682691958390016e+000 -2.2728458898662540e-001
    4.1271684665560304e+000 -3.3242831767066960e-001
    3.1726428200935208e+000 -4.6269615993779045e-001
    2.6434436699252171e+000 -6.1903352393203437e-001
    2.3980230386018517e+000 -7.8428268871882556e-001
    2.3107152781844200e+000 -9.0820988328758534e-001
    2.3020532537123550e+000 -9.3137298807958624e-001
    2.3616687536827730e+000 -8.6957693898804456e-001
    2.4501902006376532e+000 -7.9705953125158169e-001
    2.4767447444586304e+000 -7.7141210576080943e-001
    2.4242269432151642e+000 -8.0356009669907225e-001
    2.3741118908222560e+000 -8.7393930142504228e-001
    2.3236374730501517e+000 -9.5157541847179761e-001
    2.3084370459076480e+000 -9.6213107014847044e-001
    2.3368851413852503e+000 -8.6347326281157732e-001
    2.4890745322650929e+000 -7.0132424929878223e-001
    2.8361738959976552e+000 -5.3739656640440714e-001
    3.5527761731899536e+000 -3.9677102845564982e-001
    5.1237901210746575e+000 -2.7122264283119252e-001
    8.8311570423583614e+000 -1.5932446505431147e-001
    1.8016601970465089e+001 -8.1258409030663059e-002
    4.2475451263066198e+001 -3.6950867161005700e-002
    1.6162188860115646e+002 -1.1873399190853711e-002
    3.0321392328343035e+002 -7.0551739346642736e-003
    6.9327879968291768e+001 -2.0771176943315300e-002
    2.8599156427981907e+001 -4.7203562577549596e-002
    1.6332023143315467e+001 -8.2003836591592230e-002
    9.6134959453560249e+000 -1.3745728550563183e-001
    6.0102573986025112e+000 -2.2518195646666947e-001
    4.0843516560539026e+000 -3.3849238244600804e-001
    3.0899489891325302e+000 -4.8293499897158720e-001
    2.5794276110452685e+000 -6.4828822167773359e-001
    2.3678608283610170e+000 -8.0980531476936812e-001
    2.3141938318023891e+000 -8.9646046460446061e-001
    2.3433404321987799e+000 -8.7178559663557820e-001
    2.4505416852454323e+000 -7.8497609927864986e-001
    2.5469197646779538e+000 -7.3254174095443259e-001
    2.4813477754078130e+000 -7.4095056286507999e-001
    2.3946426915352417e+000 -8.0221047344472940e-001
    2.3621688028976315e+000 -9.0126281941490594e-001
    2.3196255433058850e+000 -9.7772293278124422e-001
    2.3094117449211740e+000 -9.5554794718715286e-001
    2.3627026813110632e+000 -8.2490290244962106e-001
    2.5756959169276556e+000 -6.5598783786068571e-001
    2.9964048381517889e+000 -4.9936418843997310e-001
    3.7189069616766792e+000 -3.6957331047588260e-001
    5.2390531077791911e+000 -2.5846440795255993e-001
    9.5672989990866988e+000 -1.4969571541660254e-001
    2.5777562248504001e+001 -6.1111356621783915e-002
    5.7373091915983444e+001 -2.8011568936962498e-002
    2.8492657215739843e+002 -9.1250996351920129e-003
    3.5594987641409557e+002 -5.3043513137468554e-003
    9.4791115927359712e+001 -1.6238399995902673e-002
    3.8327558212569656e+001 -3.6378614981226812e-002
    1.9899955434053297e+001 -6.8582010752963551e-002
    1.0583490008789630e+001 -1.2736849948820311e-001
    6.0022749242070725e+000 -2.2614336060038370e-001
    3.9429188777766218e+000 -3.5220290772844426e-001
    2.9703659427023865e+000 -5.0758351463884255e-001
    2.5120531810291049e+000 -6.7944964231380811e-001
    2.3400369882995657e+000 -8.2825105145513700e-001
    2.3152806380133186e+000 -8.8883003965305396e-001
    2.3570299628350395e+000 -8.4190091517470877e-001
    2.4523180750098583e+000 -7.6653453141818517e-001
    2.4745419852472459e+000 -7.7020475853643366e-001
    2.3415121077481293e+000 -8.2034372296827540e-001
    2.3006479016649179e+000 -9.1768349461627485e-001
    2.3215181931826061e+000 -1.0290959458622542e+000
    2.2951064685186098e+000 -1.0582790011233243e+000
    2.2922312798183810e+000 -9.6567404756517139e-001
    2.3969977575408943e+000 -7.9447676689302027e-001
    2.6843948212324853e+000 -6.1674936599250463e-001
    3.1327176368905603e+000 -4.7007288569919620e-001
    3.8146440475721257e+000 -3.5512441570711928e-001
    5.1233803565236054e+000 -2.5540754559716816e-001
    9.1333732885906187e+000 -1.5382451413879286e-001
    3.0176743919350308e+001 -5.2454282291703812e-002
    6.8736104119773330e+001 -2.1505865133579341e-002
    2.4886281089663652e+002 -9.9219815924551629e-003
    1.9519532896899645e+003 -4.0825169257547667e-003
    1.5278182212105168e+002 -1.0934385475086019e-002
    5.3124290381130734e+001 -2.5544797971133213e-002
    2.3963175940830791e+001 -5.7073081192190386e-002
    1.0894664373756868e+001 -1.2466202083886102e-001
    5.7190220435471195e+000 -2.3849817393128747e-001
    3.7247304971314525e+000 -3.7325889874453644e-001
    2.8570634271343360e+000 -5.3313607010242603e-001
    2.4649387283709516e+000 -7.0209414254697566e-001
    2.3294563044533056e+000 -8.3745005342666701e-001
    2.3162617421233631e+000 -8.8007425314282606e-001
    2.3541599869294054e+000 -8.4101427640859638e-001
    2.3976996357132512e+000 -8.1679096235082194e-001
    2.3455576036564376e+000 -8.9192404165129613e-001
    2.2405161665547344e+000 -9.7855056749435643e-001
    2.2848281990008465e+000 -1.1108034348264570e+000
    2.3193023652239093e+000 -1.1806299637403603e+000
    2.2737736985285615e+000 -1.1288577610345119e+000
    2.2859771540836697e+000 -9.7607041736638400e-001
    2.4356898638405293e+000 -7.7519539879466393e-001
    2.7447986339664068e+000 -5.9444660744996891e-001
    3.1590746832916117e+000 -4.6091023967254047e-001
    3.7814789520643957e+000 -3.5550054693543814e-001
    4.9257015514210067e+000 -2.6354918133304256e-001
    8.2208589242476027e+000 -1.6450368783159636e-001
    2.5954888077457770e+001 -5.9513032785963038e-002
    7.1809723124772660e+001 -2.3368667945240732e-002
    1.7375176839444867e+002 -7.4043238015330153e-003
    5.5276556182575848e+002 -4.0825169257547667e-003
    2.4691249127225689e+002 -7.9883454199429389e-003
    8.6134069842761278e+001 -1.8296453055643928e-002
    2.8082418945003692e+001 -5.1339434738376370e-002
    1.0759234825880586e+001 -1.2934639780528998e-001
    5.3166979990211676e+000 -2.5752139449892208e-001
    3.5308347249498726e+000 -3.9501133107809910e-001
    2.7788958855542472e+000 -5.5042172497057373e-001
    2.4456390322327417e+000 -7.0732309101379065e-001
    2.3309129818889831e+000 -8.2604982050292919e-001
    2.3276143696997282e+000 -8.6785315456393874e-001
    2.3528041492090299e+000 -8.6074372611799910e-001
    2.3564506975469435e+000 -9.0403568425773240e-001
    2.2859676784389427e+000 -1.0347035346571298e+000
    2.2422076618255358e+000 -1.1454361875382564e+000
    2.3283026161621181e+000 -1.2742078993414363e+000
    2.3215746332786940e+000 -1.2481935484502884e+000
    2.2691255498527179e+000 -1.1397750976187400e+000
    2.2957931461751087e+000 -9.6328345085513789e-001
    2.4457350592781810e+000 -7.6301131924236842e-001
    2.7139253507707810e+000 -5.9702704247599581e-001
    3.0907965633105148e+000 -4.7201999119145954e-001
    3.6782996426446153e+000 -3.6837041336524734e-001
    4.7685251138076854e+000 -2.7332531730663617e-001
    7.7275097775245278e+000 -1.7338663436106347e-001
    2.1431663193156854e+001 -6.8942720164739402e-002
    6.7976068223364109e+001 -2.4644657380557041e-002
    8.0352630096764460e+002 -6.9849019269755293e-003
    1.6587564066621760e+003 -4.7702800414168032e-003
    2.7628555281923161e+002 -4.1894280237942541e-003
    1.0543914156042786e+002 -1.8648256426065438e-002
    2.6868748417048771e+001 -5.3272123932593785e-002
    1.0056610295259727e+001 -1.4042051740819139e-001
    4.9056303882587207e+000 -2.7718062477915140e-001
    3.3920298880197790e+000 -4.1220900906901681e-001
    2.7586775502695384e+000 -5.5400340017988914e-001
    2.4700492270462737e+000 -6.9200544534485309e-001
    2.3574416684740833e+000 -7.9258314302255395e-001
    2.3494471930472263e+000 -8.4194083935003439e-001
    2.3534046381274121e+000 -8.6976698674166020e-001
    2.3271405763526309e+000 -9.5866435178155440e-001
    2.2645021592926078e+000 -1.0941026623517327e+000
    2.2643481010533932e+000 -1.2048945593454270e+000
    2.3324589356324146e+000 -1.2724254177800682e+000
    2.2899573648145002e+000 -1.1836340690530318e+000
    2.2643911272807853e+000 -1.0783524942057492e+000
    2.3214758116188281e+000 -9.2258453771877857e-001
    2.4481311437088400e+000 -7.5248127639028639e-001
    2.6679477326838810e+000 -6.0978718581715263e-001
    3.0089562499497662e+000 -4.8675394046402110e-001
    3.6000095403133292e+000 -3.8089677789549986e-001
    4.7658399627595980e+000 -2.7829889148674003e-001
    7.6781348424802269e+000 -1.7549155267349842e-001
    1.8194027952870897e+001 -7.7026142867230613e-002
    5.0970700973169819e+001 -2.9626304106761300e-002
    2.1444103433480433e+002 -9.1102402300022641e-003
    1.5615626688370928e+003 -4.0825169257547667e-003
    4.3118210866498373e+002 -6.7072773949266992e-003
    7.4103567040797373e+001 -2.1601432392398305e-002
    2.4849582084670089e+001 -6.0707692550739371e-002
    8.9577210510157030e+000 -1.5702241225085961e-001
    4.5844733595056848e+000 -2.9716316949982258e-001
    3.3078945953160570e+000 -4.2230679955157091e-001
    2.7862859655937635e+000 -5.4572670883740459e-001
    2.5345531891813025e+000 -6.5910029169170115e-001
    2.4268577521168866e+000 -7.4125055539316853e-001
    2.4016709244412526e+000 -7.8837956822291577e-001
    2.3774781804714529e+000 -8.3396729711932249e-001
    2.3181693652265993e+000 -9.1941340182165476e-001
    2.2581093867191364e+000 -1.0259556246832575e+000
    2.2637781374363977e+000 -1.1227755199202125e+000
    2.2914445737932567e+000 -1.1450631680222347e+000
    2.2738267121204796e+000 -1.0794597074728101e+000
    2.2925316038385004e+000 -9.9988631825843377e-001
    2.3499895118375496e+000 -8.7891758823830757e-001
    2.4512227250017862e+000 -7.4358354695923701e-001
    2.6336275973954510e+000 -6.1562164502372996e-001
    2.9908264110534786e+000 -4.9307976642021417e-001
    3.6241081455783544e+000 -3.7987428222747016e-001
    4.8968917167607033e+000 -2.7351765035083858e-001
    7.8803457154066576e+000 -1.7353912160656032e-001
    1.6651998712570645e+001 -8.4050148584957768e-002
    4.5490457495914207e+001 -3.4162442354077387e-002
    1.8533415106542139e+002 -8.9396475017993384e-003 1. 0.
    3.1272528069509980e+002 -8.9320884530738175e-003
    5.7722188781541384e+001 -2.5397763552538224e-002
    1.9766659214740706e+001 -7.3900175999987924e-002
    7.6197133271261928e+000 -1.7786004816348638e-001
    4.3139196946334328e+000 -3.1338343076992242e-001
    3.2703858159618995e+000 -4.2901306281978535e-001
    2.8322543736440142e+000 -5.3508893813496083e-001
    2.6182270867393669e+000 -6.2078198995980194e-001
    2.5150346894911983e+000 -6.8268924112787699e-001
    2.4702917048498105e+000 -7.2347014006379928e-001
    2.4179529110888551e+000 -7.6555898228681141e-001
    2.3484882223506967e+000 -8.2507042832445943e-001
    2.2995934391871122e+000 -9.1939023956809407e-001
    2.2784967857757339e+000 -1.0062601380037826e+000
    2.2814871178392950e+000 -1.0328150598231831e+000
    2.2960659036638327e+000 -1.0106726929154235e+000
    2.3213283244741656e+000 -9.5150930190270022e-001
    2.3550879384987486e+000 -8.5546569040277520e-001
    2.4434150552990870e+000 -7.4032107142160763e-001
    2.6358787565292001e+000 -6.1326579661208680e-001
    3.0316100828809454e+000 -4.8515629380565350e-001
    3.7626446035868213e+000 -3.6804197912277126e-001
    5.1811765341757416e+000 -2.6078182504371211e-001
    8.3242235766781221e+000 -1.6833375752181137e-001
    1.5937674453010477e+001 -8.8542637406523836e-002
    4.3629929251431058e+001 -3.5936234007029881e-002
    3.0745859936160235e+002 -1.0710812869814668e-002
    7.9264290382954835e+002 -5.9059667884066198e-003
    3.0466252237848397e+002 -6.3521141607904329e-003
    4.7072878041138345e+001 -3.3320214244283233e-002
    1.5316080507390778e+001 -9.1304863358325772e-002
    6.6617962943833726e+000 -1.9910803143977690e-001
    4.0960052775195699e+000 -3.2796741365280158e-001
    3.2065643376810495e+000 -4.3899542814059200e-001
    2.8285290962207679e+000 -5.3445409007988098e-001
    2.6514252731867503e+000 -6.0594789918596770e-001
    2.5479151004395426e+000 -6.5940509656342305e-001
    2.4802743245613934e+000 -6.9784836882395940e-001
    2.4320952188286302e+000 -7.3042289711392439e-001
    2.3963158369953845e+000 -7.8112567027452406e-001
    2.3365997654832360e+000 -8.7168855588320016e-001
    2.2936590400163581e+000 -9.5845445859848255e-001
    2.2982594127292231e+000 -1.0112466172079284e+000
    2.3140479275716292e+000 -1.0104488490174122e+000
    2.3138922655004164e+000 -9.5294508048441673e-001
    2.3390097793279789e+000 -8.5872464213485333e-001
    2.4369784609184322e+000 -7.3231139653859911e-001
    2.6754727095326194e+000 -5.9491059769969501e-001
    3.1294067910226357e+000 -4.6342915177180038e-001
    3.9445495520310541e+000 -3.4877114545342847e-001
    5.5085902005863181e+000 -2.4588474760444853e-001
    8.8099579978306579e+000 -1.5820093635281790e-001
    1.6777698363713807e+001 -8.5437963031161371e-002
    5.2277696344241953e+001 -3.1557961707876239e-002
    2.0428772867343619e+002 -9.7604141172027512e-003
    4.1641672487571304e+003 -4.0825169257547667e-003
    2.3612781711075036e+002 -1.1281662638917349e-002
    3.5408559718698022e+001 -3.9757101771674130e-002
    1.2957299696939886e+001 -1.0385233520642091e-001
    6.1964858147993693e+000 -2.1198097225213341e-001
    3.9594650444964721e+000 -3.3747788973590559e-001
    3.1271813601099603e+000 -4.5170193431740946e-001
    2.7617916321302518e+000 -5.5213161161170021e-001
    2.5842929066675864e+000 -6.3188647746150528e-001
    2.4802645880248617e+000 -6.9322439374912392e-001
    2.4176608056922126e+000 -7.3838490342499952e-001
    2.3783764450554807e+000 -7.7073076966790333e-001
    2.3490303082911219e+000 -8.2876952688509886e-001
    2.3116364742205167e+000 -9.1927271444367897e-001
    2.2877357705369965e+000 -1.0088061036688303e+000
    2.2962927703534590e+000 -1.0608282848796260e+000
    2.3055633661100563e+000 -1.0481237315772911e+000
    2.2953862067285660e+000 -9.6705521798398641e-001
    2.3392306315132405e+000 -8.4650228801890137e-001
    2.4875291139961457e+000 -7.0122275732413397e-001
    2.7878473255332268e+000 -5.5538565651689953e-001
    3.3310128770022769e+000 -4.2707460799875402e-001
    4.3033513665355905e+000 -3.1681048101811732e-001
    6.1459947839004654e+000 -2.2068580424468653e-001
    9.8816230148713426e+000 -1.4105726429159887e-001
    1.8655700071922737e+001 -7.8171042636145410e-002
    5.0726362610482980e+001 -2.9182578619715460e-002
    2.9949883377146671e+002 -8.0257859512416103e-003 1. 0.
    1.7274475915998426e+002 -1.0342104927080499e-002
    3.3237269496476486e+001 -4.3273622199041920e-002
    1.2341179937887706e+001 -1.0916701419569666e-001
    6.2613640936690826e+000 -2.0903257346693113e-001
    4.0691477585926403e+000 -3.3022464188369649e-001
    3.1277474562017642e+000 -4.5487526727414634e-001
    2.6981651335036378e+000 -5.6919680920874238e-001
    2.4916779890819090e+000 -6.7294360257836749e-001
    2.3897765853198467e+000 -7.6060122869494906e-001
    2.3376032043649415e+000 -8.2875749867192705e-001
    2.3094098733546939e+000 -8.8650819387043789e-001
    2.2931587187037685e+000 -9.5984040790998726e-001
    2.2848475852125874e+000 -1.0513839738978326e+000
    2.2875166188451828e+000 -1.1209048305462916e+000
    2.2928505979586640e+000 -1.1289434454891294e+000
    2.2923966853097815e+000 -1.0627393793992568e+000
    2.3074800485734488e+000 -9.3933290698519423e-001
    2.3936848519631009e+000 -7.8734756835251007e-001
    2.6109413868413118e+000 -6.2699095829156970e-001
    3.0390331936072981e+000 -4.8806277673095233e-001
    3.7717453270064931e+000 -3.6895114573691079e-001
    5.0386270820564043e+000 -2.6929222684699877e-001
    7.3023661237951742e+000 -1.8721262426800395e-001
    1.1428271378915754e+001 -1.2162743416079987e-001
    2.2633046192565740e+001 -6.6493819918405500e-002
    5.9439626894799801e+001 -2.6033003150953943e-002
    8.7457160875791180e+002 -5.7733159389513162e-003
    1.9519532896899645e+003 -4.0825169257547667e-003
    2.0097821386457520e+002 -1.0009503564535732e-002
    3.6333445668023472e+001 -4.0498731626959106e-002
    1.3862603433763448e+001 -9.9984708351078630e-002
    7.2357084414232782e+000 -1.8820172495416496e-001
    4.5209348496663777e+000 -2.9963131354587930e-001
    3.3206379128157311e+000 -4.2724847049622211e-001
    2.7455239673924332e+000 -5.5525136241948458e-001
    2.4686739450668247e+000 -6.8177739987301045e-001
    2.3426949046735590e+000 -8.0158751915885995e-001
    2.2944713474999623e+000 -9.0865684987425754e-001
    2.2878424154374488e+000 -1.0089452420447471e+000
    2.2955759265085596e+000 -1.1036228913658575e+000
    2.3106113088741012e+000 -1.1813322080156927e+000
    2.3057952754025552e+000 -1.1921856853912771e+000
    2.2980484211071177e+000 -1.1253050551749648e+000
    2.3053731812177567e+000 -9.9470796319709454e-001
    2.3720670298054869e+000 -8.3223274795177449e-001
    2.5546462043288165e+000 -6.6712599279544393e-001
    2.9231303420497383e+000 -5.2269449435178028e-001
    3.5635000634852583e+000 -3.9906542962413394e-001
    4.6428273522096921e+000 -2.9670064408779434e-001
    6.3701806670761432e+000 -2.1262622456584229e-001
    9.2275954809983389e+000 -1.4869395821728790e-001
    1.4508897402895309e+001 -9.6895728841391707e-002
    2.9263045878004082e+001 -5.0931089071961047e-002
    8.7293469201337828e+001 -2.0214429425303843e-002
    1.6016027333676827e+003 -4.0825169257547667e-003
    2.0149196406116675e+003 -4.0825169257547676e-003
    1.5572043077856297e+003 -6.0049057227948019e-003
    4.5942726236699890e+001 -3.3706347242927433e-002
    1.8509734930018020e+001 -7.8972450858446508e-002
    9.5511946810091679e+000 -1.4774137747773536e-001
    5.7193836820922845e+000 -2.4325025088460003e-001
    3.9284231374253080e+000 -3.6034629905507259e-001
    3.0523495303717452e+000 -4.8644317391314928e-001
    2.6031928890019969e+000 -6.2240998390928659e-001
    2.3820580368802329e+000 -7.5670417890365116e-001
    2.2865960298787700e+000 -8.8873651629216632e-001
    2.2595258215903029e+000 -1.0021705961184684e+000
    2.2676813246114129e+000 -1.0895925753510698e+000
    2.2740748483281883e+000 -1.1174380283506609e+000
    2.2724156883699842e+000 -1.0748398554738789e+000
    2.2911931165328139e+000 -9.6307263463876414e-001
    2.3773104761289381e+000 -8.1766817636238709e-001
    2.5690377547178307e+000 -6.6465591304478566e-001
    2.9451974012654514e+000 -5.2359508190457682e-001
    3.5692064629435833e+000 -4.0214203004097754e-001
    4.5720036484622586e+000 -3.0306916085785518e-001
    6.1702694261497379e+000 -2.2168084535953111e-001
    8.6299852982483980e+000 -1.5936593598315191e-001
    1.2613603522996451e+001 -1.1006069997814258e-001
    2.1385974089017630e+001 -7.0039765310377741e-002
    5.0072707896652531e+001 -3.7135622969980124e-002
    1.7446875323390933e+002 -1.2201409925660911e-002
    8.6753480686378691e+002 -4.0825169257547667e-003 1. 0. 1. 0.
    9.0364287961602884e+001 -2.2738726688603637e-002
    3.1606804277646912e+001 -5.1905397466875648e-002
    1.4715153146870287e+001 -9.9988024641741419e-002
    8.5647751210323548e+000 -1.6843162344781057e-001
    5.5173878059039252e+000 -2.6031072100529362e-001
    3.9393454269138735e+000 -3.6983708225796319e-001
    3.1044608743878799e+000 -4.9009799719239100e-001
    2.6645084982783320e+000 -6.1537068177771459e-001
    2.4387492096415366e+000 -7.3897799674054676e-001
    2.3362459534878677e+000 -8.4317590832245992e-001
    2.3067953676491069e+000 -9.0195141763074727e-001
    2.3138337282029231e+000 -8.9980608740497892e-001
    2.3637368685532509e+000 -8.3974858303552558e-001
    2.4785457180132680e+000 -7.3465553747717993e-001
    2.7125767315666223e+000 -6.1257571358669050e-001
    3.1218285421560279e+000 -4.9207119008839512e-001
    3.7996938912317675e+000 -3.7992816821790787e-001
    4.8326273042782271e+000 -2.8881739452323613e-001
    6.3854364769598693e+000 -2.1344093799804417e-001
    8.8669869107133010e+000 -1.5366778297330164e-001
    1.2619632853276977e+001 -1.0912600850246741e-001
    1.9248390570241277e+001 -7.4098756511331132e-002
    3.5589782125376395e+001 -4.3317185320121798e-002
    8.5094885527377215e+001 -1.9343792080923451e-002
    2.7583703406443715e+002 -1.0402481984734060e-002 1. 0. 1. 0. 1. 0.
    1.6655764615757803e+002 -1.0352700890498751e-002
    5.9994074933847870e+001 -2.8750102524065856e-002
    2.7003375540170516e+001 -5.7568373863846986e-002
    1.5182051158942553e+001 -9.5310537265846387e-002
    9.3189478652061020e+000 -1.5360976276349314e-001
    6.2309547067523656e+000 -2.2342452706933258e-001
    4.6003146079896382e+000 -3.0357777160973176e-001
    3.6585686458791615e+000 -3.8847997503342746e-001
    3.1467005272938047e+000 -4.7019583424592126e-001
    2.8897868890364111e+000 -5.3312356752001944e-001
    2.7991188735900057e+000 -5.6650599100434185e-001
    2.8160026559533500e+000 -5.6278365839423838e-001
    2.9584979336834598e+000 -5.2716469784496944e-001
    3.2482283585972671e+000 -4.6805739853350276e-001
    3.6779783775324946e+000 -3.9580504695925761e-001
    4.3342463742431860e+000 -3.2478944735782650e-001
    5.3825305523192180e+000 -2.5570503272368655e-001
    6.8782638998898085e+000 -1.9461171306904182e-001
    9.3112700649656173e+000 -1.4457420568795201e-001
    1.3020504802411075e+001 -1.0177354320002412e-001
    1.9147175508781199e+001 -7.1425222991494272e-002
    3.0486265340168710e+001 -4.7777757086526054e-002
    6.4497015077753005e+001 -2.5752435999282175e-002
    1.3080779972900260e+002 -1.1379423793926306e-002
    6.2688780062263675e+002 -4.7528749341798140e-003 1. 0. 1. 0. 1. 0.
    1.0847213087133043e+003 -6.6643011271786835e-003
    1.5721880005558535e+002 -1.0964213236813024e-002
    5.5086488023576301e+001 -2.7604451685625048e-002
    2.7705306946450186e+001 -5.1553601425717507e-002
    1.5743024153023145e+001 -8.6771846188993015e-002
    1.0293051935241124e+001 -1.2839203323658069e-001
    7.2960988449751776e+000 -1.7577589865098220e-001
    5.7870197642168240e+000 -2.2305443842966177e-001
    4.9024182121991906e+000 -2.6664028652916133e-001
    4.4971767442703481e+000 -2.9484431645459142e-001
    4.3322548406607746e+000 -3.0750543396580460e-001
    4.3780128970537122e+000 -3.0518012275382900e-001
    4.6657172510630858e+000 -2.8923178018649093e-001
    5.1147729585684223e+000 -2.6323129207069107e-001
    5.6771986005857658e+000 -2.3372359022899974e-001
    6.5795145791347958e+000 -2.0102782478387640e-001
    7.9934413549729015e+000 -1.6369105249752314e-001
    1.0295210628504439e+001 -1.2766599656024497e-001
    1.4166994665298915e+001 -9.3965139687798876e-002
    2.0292669136165173e+001 -6.5683259341041161e-002
    3.1602244940278954e+001 -4.5926531259964626e-002
    5.2377849853898759e+001 -2.8718809806365080e-002
    1.2798691546448659e+002 -1.5693036558388229e-002
    4.0575786632970085e+002 -5.6753061690289659e-003
    6.0060103964212067e+002 -4.0825169257547658e-003 1. 0. 1. 0. 1. 0.
    1. 0. 1.6437501695049459e+003 -4.0825169257547658e-003
    1.0877166104137086e+002 -1.5121393949717036e-002
    4.9049992613745033e+001 -3.1369554677313588e-002
    2.5264036432077848e+001 -5.3330235093993712e-002
    1.6845130997129960e+001 -7.9228267194858468e-002
    1.1932232824927320e+001 -1.0837665070136905e-001
    9.7295488013126779e+000 -1.3397906834398657e-001
    8.2812508102890874e+000 -1.5751318119558358e-001
    7.4665824969193100e+000 -1.7510551410246683e-001
    7.2259399750698483e+000 -1.8262689797873416e-001
    7.3549760793065140e+000 -1.8053534138236474e-001
    7.7763890446668418e+000 -1.6987649156736156e-001
    8.7749184574538699e+000 -1.5315731416993231e-001
    9.7697588468058694e+000 -1.3543312418421866e-001
    1.1460099152015596e+001 -1.1648029967275737e-001
    1.4083023156070727e+001 -9.3951254495821812e-002
    1.8349302005841515e+001 -7.2576887352189492e-002
    2.4714646487709242e+001 -5.2364359860292822e-002
    3.8916379061000157e+001 -3.6382999665505157e-002
    7.2851388649906184e+001 -2.1503063848340172e-002
    2.0535563144582238e+002 -1.3019279071624543e-002
    2.2181126274400849e+003 -4.4942151694836409e-003
    1.0586865875306848e+003 -4.0825169257547676e-003 1. 0. 1. 0. 1. 0.
    1. 0. 1. 0. 1. 0. 5.8282566922955721e+002 -5.7901636185117896e-003
    1.4815384042268099e+002 -9.0538459630506996e-003
    9.8031734479042356e+001 -1.6005443039450590e-002
    6.3234739408312400e+001 -2.2119760192230036e-002
    5.3391879867369703e+001 -2.6845995937598614e-002
    4.1276640363348562e+001 -3.1845063383270797e-002
    3.3200270050886715e+001 -4.3748408875714795e-002
    2.8042060901266538e+001 -4.7282947566080466e-002
    2.5762023480025256e+001 -5.3138804776655016e-002
    2.4444263035638215e+001 -5.6622819640951172e-002
    2.2362696334659461e+001 -6.0338355805842875e-002
    2.4245960803600116e+001 -5.6295001632962055e-002
    2.7133959988062209e+001 -5.1366537962549211e-002
    3.1646881451155753e+001 -4.2632279919398892e-002
    4.2201622222289785e+001 -3.3171027205153004e-002
    6.4456509031414527e+001 -2.2462883077193959e-002
    8.9794385126056980e+001 -1.6069087038247151e-002
    1.5117778664796199e+002 -1.1432202884208037e-002
    1.5194223226179110e+002 -9.0072945458071294e-003
    7.3572522314844582e+002 -5.7703939285430259e-003 1. 0. 1. 0. 1. 0.
    1. 0.</input_scale>
  <output_scale>
    2.2715898947368425e+008 -2.1580103999999997e+008
    2.2715898947368425e+008 -2.1580103999999997e+008
    8.8732631578947371e+005 -430759120. 1. -431602080. 1. -431602080. 1.
    -431602080. 1. -431602080. 1. -431602080. 1. -431602080. 1.
    -431602080.</output_scale>
  <inv_output_scale>
    4.4022030663058893e-009 9.4999999999999973e-001
    4.4022030663058893e-009 9.4999999999999973e-001
    1.1269811141691182e-006 4.8545739299610892e+002 1. 431602080. 1.
    431602080. 1. 431602080. 1. 431602080. 1. 431602080. 1. 431602080.
    1. 431602080.</inv_output_scale>
  <weights>
    <_>
      -2.3939812486818974e-003 8.4936007508614429e-004
      9.6585435686827163e-004 -2.4647605855414741e-003
      1.3195145769160962e-003 2.4623047461713294e-003
      -1.1527886789964208e-003 -7.1983589707890036e-004
      -2.8637706880977134e-004 8.0550090219362526e-004
      -3.6580978255983988e-004 1.2967108669864477e-003
      -5.7424664986832413e-004 -5.0203014148849810e-004
      2.6014635959103936e-005 2.5323896949311507e-003
      6.2307852738059389e-005 2.2280472884078071e-003
      7.9601099751042820e-004 6.2944232666872497e-004
      -2.5231864210873968e-004 -9.4077382366237238e-005
      -1.4544693841673263e-003 1.6417912781309773e-003
      1.5323983352070200e-003 2.0096787154666946e-003
      -1.6019864768175949e-003 8.1058572754296810e-004
      8.0383562382529679e-004 3.8808973026766930e-004
      2.0440570886294117e-003 -1.2310171640883684e-003
      1.2343677264945523e-003 -6.1804884966640760e-004
      -1.4549882515290206e-003 1.4253269117816942e-004
      1.7821241496321864e-003 -1.8287070494086590e-004
      -1.9155151864738570e-003 -2.3689156675591344e-003
      -5.8447003378880717e-004 -6.9126715158206046e-004
      -1.1010024937640765e-003 1.6544476810894349e-003
      2.3939269109873895e-004 8.3786623865808412e-004
      -1.2157347476263816e-003 -1.1605313618661573e-003
      -5.4002608346846986e-004 -1.5110490149991913e-003
      1.1226542382043218e-003 1.6301187256544994e-003
      -1.4056682480954215e-004 1.8209584506137821e-003
      -1.3934339914668159e-003 1.8503065212182846e-003
      2.0887321920228831e-003 1.8181196042644458e-003
      1.0399443872830029e-003 7.0791691159464304e-004
      2.2279110503575571e-003 2.5402012975600532e-003
      2.1853465457793869e-003 -2.4135038841213764e-003
      2.0650200838872282e-003 -1.1405015523387968e-003
      -1.9950081115206460e-003 -1.9740227074472026e-003
      1.4074703738230349e-003 1.1775424616181618e-003
      5.6214688258838792e-004 -4.8225006653366870e-004
      -2.4973307373513643e-003 -7.7279824785335654e-005
      -9.7221523368987844e-004 -2.4126025514868538e-003
      -2.1624634503636395e-003 1.7533038294780122e-003
      -6.0564496502744523e-004 -1.8731394917088316e-003
      -8.7513551954296819e-004 -2.4786675802071631e-004
      1.0692600223330408e-003 2.3354738243794777e-003
      -1.5305256261955962e-004 -4.7272180896286534e-004
      -1.9049765030416905e-004 -1.1648268117088593e-003
      1.5168403526353089e-004 4.7455322115614592e-004
      -1.1564026870763044e-003 1.3289419955234798e-003
      -1.1119094626632953e-004 3.3182091883472595e-004
      -5.3885584467294010e-006 2.0682456716878020e-003
      -1.8037833860842826e-003 2.6914677818572463e-004
      2.2078161816006798e-003 -2.1658414545546516e-004
      8.2478670392002284e-004 5.0502262576391543e-005
      -1.1059541552507028e-003 -1.1462790539958705e-003
      1.6838522820160709e-003 1.4928813937643301e-003
      2.4066501492943457e-003 -1.3805676833976005e-003
      -1.1432004356527448e-003 1.5739247952894478e-004
      -1.6247225073566878e-003 8.9267071628749799e-004
      -1.0373489512656912e-003 -1.7848490019788750e-003
      -1.9040176865058104e-003 2.4749948006021058e-003
      2.3265695096527476e-003 -1.5717976614908176e-003
      3.0976285780915015e-004 1.9474800223644646e-003
      1.5687188046610799e-003 1.9710678023607616e-003
      -2.6271519525812390e-003 7.0628970800172878e-004
      -2.2613805103023424e-003 -2.2492453046296331e-003
      -7.7591035675663193e-004 -1.4141484873715245e-003
      1.0217720036861386e-003 -6.5866018284825719e-004
      6.8713841541900500e-005 2.1593736101307428e-003
      2.0481151737595854e-003 -1.1709347690116419e-003
      -1.4722701741640997e-003 1.9868746373063778e-003
      2.4390822840323696e-003 1.8692083079090176e-004
      2.4672771504237545e-003 1.7415167197079758e-004
      1.4483754583832829e-003 2.5405964013250951e-003
      -1.6921045664069635e-003 -6.2271075580655510e-004
      -2.0004117184311936e-004 -5.0483862349790150e-004
      4.9627053721566176e-004 -1.2012114137535145e-003
      1.8437905716016994e-003 -1.9802720597232623e-003
      2.4384749453281447e-003 -1.7161463333902867e-003
      2.6059160613438365e-003 -8.8687862866976979e-004
      -5.6483769748883416e-004 -2.3118418358634013e-003
      -6.8629192464709620e-004 7.8209277214531076e-004
      2.6912930647970533e-004 -1.4936435078858603e-003
      -1.6497104491172473e-003 1.6033722408983180e-003
      -4.0906000403777390e-004 2.4268791288125573e-003
      9.1706583663770248e-004 -6.9467677212588968e-004
      -2.4575237808038566e-003 4.1172502187026601e-004
      2.3070848296515216e-003 -1.5653347059928792e-003
      -1.0137041277779616e-003 -2.0380837878462743e-003
      -1.4065441426356878e-003 -2.0758828405476591e-003
      -1.0928340148085934e-003 -2.5220418779602453e-003
      2.2929812642097360e-003 -7.1842749559237649e-004
      2.1191566020158873e-003 -5.7847391002054311e-004
      4.3751175821924397e-004 1.1676377239260146e-003
      2.2238680966890933e-003 4.5620419151829947e-004
      1.5004634113546052e-003 -7.7760377606646844e-004
      1.5636579908030041e-003 3.8609082710068190e-004
      8.5233739630226162e-004 -7.0119542111019429e-004
      -1.6199184262887893e-003 -5.8480904716358649e-005
      1.0138603792754091e-003 2.8445463331344223e-004
      1.6606052759093077e-003 -8.0647646975605858e-004
      2.4371134014854906e-003 -4.2849950700782265e-004
      1.8714954614844764e-003 -1.8632010724561898e-003
      -1.0567602162346597e-004 1.2551393682127012e-003
      -2.2817486999970314e-003 -2.2419071014834410e-003
      -1.1187526676072260e-003 -2.5520523132974964e-003
      2.3227008827893946e-003 1.9030113161185578e-003
      9.3462450655330636e-004 1.8707375372027542e-003
      8.3291080788223015e-004 -1.1716399949876311e-003
      -6.0965748048628368e-004 -9.3142742142041286e-004
      4.0252565718665838e-004 -2.3746247684589671e-003
      -1.5256181103365043e-003 -1.6676436443583448e-003
      -1.0706807510358219e-003 -7.0666726487262797e-004
      6.7292204617520619e-004 5.1926577815007734e-004
      -2.4218835951772058e-003 1.3220913426832215e-003
      3.3278640120905389e-004 3.4508606223211072e-004
      -9.7118128856154835e-004 -9.1385147754222032e-004
      -6.1458832289818042e-004 1.1081756020900617e-003
      5.1332127146600361e-004 1.2609175642013910e-003
      4.0341068207453166e-004 -1.7131622799629223e-003
      8.7200075611434220e-004 5.2160249737905767e-004
      2.2025972949184596e-003 -4.9134670250646135e-004
      -4.5421238567223720e-005 -1.5099114759294845e-003
      -4.8084835749351773e-004 1.4434242152904270e-003
      -1.2200305731428268e-003 -2.3896661974146861e-003
      -1.6550354548547934e-003 -2.1787250743650999e-003
      -2.0414600774858746e-003 1.9892561339461936e-004
      1.1996981765393039e-003 -1.1387002588296472e-004
      -1.6394002072646365e-003 -1.8751125576793315e-003
      -2.0289244696807809e-004 -7.1628325727340187e-004
      7.5719594219004138e-004 -1.0149540796044025e-004
      -1.6306108338733475e-003 6.0384537602037260e-004
      -2.0859038900317927e-003 -1.1741327220688813e-003
      -1.0414302105927259e-003 1.5998470164571171e-003
      2.3469360247765528e-003 -1.0331234453419577e-003
      1.7366463215930093e-003 1.4061015239691657e-003
      1.0299350353668900e-003 1.4829518440384142e-003
      -1.6126417954985352e-004 2.8712782139407817e-004
      7.6303124575824845e-004 1.7658412559758061e-003
      1.8407784697574453e-003 -1.5554975032811326e-003
      -1.8229522783723188e-003 -9.7535023173840802e-004
      2.4544560689926448e-003 9.9581085740027726e-004
      -1.9434427546321869e-003 -1.6970480958243704e-003
      2.1071906740250533e-003 -1.3082774571176130e-004
      -1.8581454788165160e-003 -9.3726558408674865e-004
      3.8278193959775855e-005 -9.3052359811559280e-004
      9.6638621033791697e-004 1.7434762317094894e-003
      -1.5159455755827005e-003 1.8395960584088407e-003
      2.2686553459150128e-003 4.0176418909614660e-004
      1.0091672470999278e-003 1.2923548729329372e-003
      1.2973638145579482e-003 1.3708427684689709e-003
      -1.9407885951191139e-003 -1.4949793236025604e-004
      -1.7113419217398094e-003 9.6601591206166228e-004
      6.3341808361687391e-004 1.8297159920521631e-003
      -4.1881400766986598e-004 9.8855530364856843e-004
      -3.5970178809834497e-004 -1.4782941196455230e-004
      -1.5620517306036625e-003 -8.2205061291142003e-004
      1.6939581987880559e-003 1.7989346164163978e-003
      2.4790674575165595e-003 -1.8166157480815218e-003
      5.1775310260625945e-004 -1.8730415882430944e-003
      1.0942704021323544e-003 1.5218307587529362e-003
      -7.2929734252552851e-004 1.4180446946674375e-003
      2.0198224780031940e-003 7.2237495908250213e-004
      -1.8390716485538420e-003 8.6712012081508936e-004
      -2.7551685190469079e-004 1.6671334046737751e-003
      -5.5388202799376302e-004 -2.2211925831212495e-003
      -3.1314458940538285e-004 2.5232628306238016e-003
      -2.2118372330591114e-003 1.6505772170607434e-003
      -2.2857754524738317e-003 -1.4023582711326092e-003
      2.6226922776886479e-003 -6.1704232991250632e-004
      1.3746661711368361e-003 2.1894539610025606e-003
      -1.9326696657178419e-003 3.2353124859687871e-004
      1.9819782756559808e-003 -5.6531602920385348e-004
      -2.4508495177563670e-003 -7.4041254219187535e-004
      -2.1508997667453850e-003 1.6055594624601593e-003
      6.1225942643527715e-004 -9.9439284129076294e-004
      -1.6938194920316728e-003 -1.4455106048872511e-003
      2.6555567584147068e-004 2.3330544733863056e-003
      -2.3312022237901068e-003 -4.8007365502885155e-004
      8.7149330048669779e-005 -1.7047090488146034e-003
      1.0342501782854713e-003 -5.2367953655847700e-004
      -1.7027761957468486e-004 -1.9511628051929310e-003
      -1.5855541841814469e-003 -4.2818187093851670e-004
      -7.5683453249066794e-004 -1.9539810389662721e-003
      1.0544577861286537e-003 3.5485879494096640e-004
      2.0590900248325600e-004 3.3566968592650703e-003
      -2.8410450038610395e-003 9.6929938116289689e-004
      -2.4828653017644263e-003 -2.0446289329454454e-003
      1.1516407191611466e-003 -9.0618680997399631e-004
      -1.2626309520895010e-003 -1.1732555138549627e-003
      -3.0519329659735143e-004 -2.0327526121244372e-003
      3.7653574875999075e-003 -3.7373807478846305e-004
      -1.2622197614092076e-003 7.3775579664068418e-004
      -5.4022204350506113e-004 1.6770527367889344e-003
      9.1091616164343269e-004 1.6202032800678549e-003
      -7.8711778695774164e-004 -3.3002839135328269e-003
      6.1966587247167556e-005 2.5725385823436040e-003
      4.2214603099828690e-003 -1.8753714029525537e-003
      1.6344372213594992e-002 5.2961773343203856e-003
      5.2768837459841169e-003 2.0771451008520432e-003
      -4.4193132543277865e-003 -7.1530009610022531e-003
      -1.3866806424147481e-003 -8.5874927035745046e-003
      -3.5338000688284257e-003 3.0719094690866713e-003
      -3.0105617531376609e-003 -3.2750377059593727e-003
      -7.0897036946925172e-003 -1.1661489576593994e-003
      -1.2991636577347487e-002 -1.7134120390634628e-003
      -5.2709156695472260e-003 -7.2768012601319015e-003
      7.1438237958097945e-004 -4.5901100318942274e-003
      9.5049189064546815e-003 7.6124830106396079e-003
      -3.7842380236881903e-004 -1.3683862181304032e-002
      4.5729211656918289e-003 5.1228308525746672e-003
      -9.1062637847394486e-003 6.0011317541585844e-003
      -3.3327533119165216e-003 2.3189889639525963e-003
      2.9015392919263378e-002 7.3411737973290356e-003
      2.0698439976881292e-003 4.5439619886232241e-003
      -3.8555541778028477e-003 -1.3672824316550300e-002
      -1.1772321044217153e-003 -7.8067326493390671e-003
      -3.0014837471154681e-003 3.5180029358682775e-003
      -7.7178531106583143e-003 -3.6914852130448031e-003
      -9.7903745529101562e-003 -3.0572673674242930e-003
      -2.1174729024356059e-002 -3.8130367032413273e-003
      -8.0051754282108711e-003 -1.1377680322095782e-002
      8.5119498286000681e-004 -1.1248279064593150e-002
      1.9945614778718767e-002 1.2232661578894256e-002
      -2.4146767583180004e-004 -2.0154568466606720e-002
      8.3854617013457405e-003 1.4295501000305652e-002
      -1.7634150595660127e-002 8.9277939839001157e-003
      -1.2781547098266474e-002 1.0192427673366113e-002
      3.1148770375447599e-002 5.1952195657970907e-003
      1.4563840298368485e-003 5.2756608057904159e-003
      -5.4721451137623028e-003 -1.2643087150313734e-002
      -1.3853249307968355e-003 -1.1642426316180638e-002
      -7.2330491911635339e-003 7.6184311359648307e-003
      -5.2493995713412331e-003 -1.4403284781526761e-003
      -1.2481306720985309e-002 -1.7922389484484765e-003
      -2.0257125075310363e-002 -4.7692462512901662e-003
      -7.0550483897206901e-003 -1.0233565109188623e-002
      7.8203327448278027e-004 -1.4249420796826152e-002
      2.3147624646290259e-002 1.4669413450216820e-002
      2.5918328601165835e-003 -2.2918007163619938e-002
      8.0530666493497452e-003 1.5903892275007128e-002
      -1.8963392850767435e-002 8.7215544985829990e-003
      -1.1326796851811208e-002 8.3342769757975103e-003
      -2.4124252313146427e-004 2.4877363615886292e-003
      -7.5216360247844097e-004 -2.1526782116795657e-003
      9.2808946054698531e-004 -1.6185969314668064e-003
      -5.9121378937925081e-004 4.5369101491116772e-005
      -7.4719041593419356e-004 -1.0338683330915921e-003
      -4.8032411376723626e-004 1.5732209413582921e-003
      2.6521706382663359e-004 2.3304900799673129e-003
      -1.5017649121349748e-003 -2.0692888652865758e-003
      -2.2824263887496607e-003 -3.5377832149031393e-004
      -1.8801698908161048e-003 1.1525902316391174e-003
      1.2236692620700034e-003 1.4338266425475117e-003
      -4.7049475523885958e-004 2.2277600447990157e-003
      9.8198123444294318e-004 -1.3237209388156012e-003
      -2.2010831651668680e-003 3.2240554506732087e-004
      2.5320372421166348e-004 -2.0759781027591150e-003
      -9.6725959234682224e-004 2.1820100636970063e-003
      -1.5767754148170892e-004 2.4189522674551937e-003
      -1.0783281659980460e-003 1.0209789235078241e-003
      -2.3001097548634936e-003 -2.1274692464248899e-003
      8.9456161304354962e-004 -2.1687639280258534e-003
      2.8031947328921073e-004 2.3710371034066308e-003
      -6.0810698622981295e-004 -1.2618933260747367e-003
      3.7092201642891236e-004 1.0098088550546194e-003
      1.0641012153043518e-003 8.5668355020620754e-004
      -4.4179196621434342e-004 -4.6826745606362927e-004
      -6.0221712749483364e-004 1.0062184211210908e-003
      -6.3062127314485791e-004 1.3092593099032137e-003
      -7.3267354139735521e-004 -1.5807114967742214e-003
      7.1622589579707022e-004 1.9328152537041016e-003
      -6.8946443763092671e-004 6.9908631664643490e-004
      4.8140961262840365e-004 -1.0669161519742012e-003
      -1.1304707922473788e-003 -2.4196166855114916e-003
      -2.2477043500051630e-003 -1.3810526798334985e-003
      1.9670422828384584e-003 9.0944536716638859e-004
      1.4339022343146126e-003 1.6593068348584849e-004
      1.0249338087584315e-003 1.9945605005092936e-003
      -1.7933371503843407e-003 -1.0891101230487820e-003
      -1.1525161051330662e-003 1.4890600608248670e-004
      -1.9920193153009982e-003 -1.8286602502687796e-003
      6.1498326368081106e-004 1.8596118524843192e-003
      -1.9928464554679827e-003 -4.4439826108446057e-004
      -1.8651353083414986e-003 2.1962603457916200e-003
      -1.6564548839075304e-003 7.8408132723169698e-004
      1.5518718897698459e-003 8.1211366749008138e-004
      -6.1588422275436414e-004 2.3042947707485836e-004
      -2.4233640717585933e-003 -2.2553427602556757e-003
      1.9667224899576207e-003 1.3352376707672345e-003
      -2.1703256481772965e-004 4.1910831468335198e-004
      -9.4076448987193042e-004 4.5167164800782595e-004
      9.2020997337662286e-004 -1.9969738270121714e-003
      8.6464086435897335e-004 -9.8434944867371236e-004
      -5.4708412439943857e-005 4.8881129576822569e-004
      -2.2084257697222967e-003 -2.2406433690984342e-003
      -2.2320255959188120e-003 2.0798935782063272e-003
      2.1832815646224044e-003 -1.8097874120363928e-003
      -1.9855392984434546e-003 -1.7589893912706989e-003
      -1.2424950828900743e-003 2.2281832393642267e-003
      -3.9066587189629773e-004 -3.3292327314871651e-005
      1.9011792303392781e-003 -3.7475145106394264e-004
      -7.2637791363924916e-004 -9.1437238397838109e-004
      2.0997905027406736e-003 1.3098905691871158e-003
      -5.1524074190390466e-004 1.2901975324807748e-003
      -1.4448185853182727e-004 1.7211672708544292e-003
      1.6810559842796459e-003 1.5003125468079940e-003
      -8.6657682583298899e-004 -2.4774554591240213e-003
      -1.1368213253304660e-003 -1.6460584301126631e-003
      -2.6096196010606988e-004 -1.3442444983128221e-003
      -1.4103614653953296e-003 -4.0949982398802730e-004
      -2.3620621880544588e-004 1.0703788538920325e-003
      -7.0314861255109840e-004 2.9273807869133016e-004
      1.6662060899171793e-003 -1.5746012891282649e-003
      1.5733597118136014e-003 -2.4799761022149358e-003
      -2.4048774382144544e-003 2.0752239812732265e-003
      -1.0905205432026482e-003 -6.8491826054448797e-004
      -2.3773422239698204e-004 1.7429489738814185e-003
      -2.8084595323478624e-004 -1.1196277767102530e-003
      4.7256399079016975e-004 -3.5270604333533629e-004
      3.6098617618197704e-004 2.3552301417568500e-004
      -2.0932816837879427e-003 -4.7632994338508945e-004
      7.5373850515536806e-004 2.0986502424221766e-003
      2.3968570590791566e-003 8.9990812015209253e-004
      1.4601039201062661e-003 1.4161532285716545e-003
      1.7817663327264011e-003 -1.3745721276578734e-004
      -2.1741320650895211e-003 -2.3433984232766897e-003
      -1.5472315840337897e-003 1.9428742631522030e-003
      1.9807445406589508e-003 1.9524384827402429e-003
      1.0703754465043358e-003 -8.5881555420153522e-004
      1.5723300624311087e-003 -1.8246151629652367e-003
      -1.4849742339988359e-003 2.5045955467345980e-004
      1.0282031196306334e-003 -4.2007134182567058e-004
      2.3337101643542864e-003 -2.0155912258874812e-003
      1.4465379875761319e-003 -1.1993295474694605e-003
      -1.5719393422835497e-003 -1.7453130077950514e-003
      -1.8709224091771014e-003 -8.1979465568722488e-004
      -3.8075239438359120e-004 1.3843740509362813e-003
      -2.6816804773284280e-004 4.7851084726987825e-004
      1.9719515501807755e-003 -6.3262007666292305e-004
      -1.2008382466389563e-003 2.5374935846884678e-003
      1.1840527604792359e-003 -1.8655726642683727e-003
      -1.9712608014803212e-003 -1.2964817318810698e-003
      -3.0252186610138347e-004 -1.6461807002414764e-004
      9.3465457828560130e-004 2.3271262023737724e-003
      1.3580823182305858e-003 1.6650332071801506e-003
      1.0815225105533059e-003 2.3204501936978979e-003
      1.0272486554042100e-003 -1.6775013660033416e-003
      1.4285898876184599e-003 -1.2709826314687334e-003
      3.6321847212802901e-004 -2.3140586835762923e-003
      -2.6534489129011760e-004 -1.5529102123525203e-003
      1.7166331936422502e-003 -1.3170981053539307e-003
      2.1940717347313115e-003 4.6685278128556535e-004
      -2.1605649523331327e-003 -2.2917516727349227e-003
      2.3114525832516651e-003 -1.6470445637892532e-003
      -1.0470739544451333e-003 1.3911878526150082e-003
      1.1604056352966200e-003 1.4961897772989765e-003
      -1.6384823104582313e-003 -5.6264312700506623e-004
      2.0781834246144408e-003 -1.9325014640947497e-003
      9.4443558755955915e-004 4.6577176832206284e-004
      1.5887718473828289e-003 4.2679037240702197e-004
      1.9340292665752322e-003 1.4160893899913965e-003
      -1.3442190062783865e-003 -4.4632679994049874e-005
      2.3031807370537784e-003 3.5074805103087669e-004
      -2.5853343016866985e-003 -7.5870122185927214e-004
      1.2533320898406261e-003 -1.1849988029198520e-003
      -2.4603971727717053e-004 6.8880553355771311e-004
      -2.5120188816595149e-003 1.8638589774399507e-003
      -9.6377437951289507e-005 1.8351852927335176e-003
      -2.4657383898410478e-003 -2.4550951893048570e-003
      -1.0252897745912865e-003 1.8538810721776367e-004
      -2.1219184203164340e-003 1.4133682431650191e-003
      -1.1751110179351336e-003 1.8702429134285566e-003
      2.2363341244610153e-003 -2.3887186509593604e-003
      2.1003575833019651e-003 1.2843983557426471e-003
      -1.8491771998407533e-003 3.2447886777752611e-004
      -1.2723060977040369e-003 3.5452473366592927e-004
      1.2256099753238665e-003 -1.3660993271384144e-003
      8.1248178939244279e-004 -1.9096125258959566e-004
      1.3302138458366371e-003 -6.8241383874137593e-004
      2.3075912342952168e-003 -4.5316190257319315e-004
      9.4137949129264697e-004 -2.4669016598473392e-003
      -6.4152199328428462e-004 -2.3735563089868628e-003
      2.2880927205109311e-003 1.6226002810070062e-003
      1.0521486399044111e-003 -1.8258708696867094e-003
      1.5539244401802377e-003 2.2415003781321272e-003
      -1.6567908424680838e-003 -9.3604419186806259e-004
      2.3513183526574764e-003 2.0557754003202532e-003
      -5.2880596104082692e-004 1.1547950265377461e-003
      -3.7796475687285747e-005 5.4072030394702181e-004
      -2.4612538770384484e-003 -1.0559274273824785e-003
      -2.4956214977385938e-003 -8.0847636460003953e-004
      -2.0821506181922167e-003 2.4372214836121801e-003
      2.1684022094808682e-003 -5.5921848176013092e-004
      -9.7132328412939250e-004 8.8331188042450743e-005
      -1.0797271486565299e-004 1.7105785457112532e-003
      -8.5308539354247839e-006 2.4681818588958141e-003
      9.1720713563351144e-004 2.3810634912121600e-003
      -2.0592462029126561e-003 -2.4687567449250773e-003
      -1.9307363550376733e-003 1.1452909513821055e-003
      2.5155026073556243e-003 -1.5644804827838837e-003
      -6.8103722757295268e-004 -1.1805522701206449e-003
      3.8208721445863892e-004 2.3134881231563287e-003
      4.4918024425192606e-004 8.8611370321854514e-004
      -4.8135418567556313e-005 2.5060778738379519e-003
      -7.4863780603943184e-005 1.5502923589251327e-003
      -3.8604763371010250e-004 2.0186676142415218e-003
      7.4932282845205389e-004 1.2673781410604628e-003
      1.7814269722886261e-003 5.6101717667126705e-004
      1.7497431170782165e-003 -9.5172002757438925e-004
      -9.5138318435326159e-004 -1.7580516361674291e-003
      2.4994710697193766e-003 5.8703661321766250e-004
      -2.0529154493978716e-003 -3.9027657999073968e-004
      2.1341174424445966e-003 -2.2935647247968767e-003
      4.9173864645263104e-004 1.8764941990646227e-004
      1.0849707004675314e-003 9.1577627660176198e-004
      -4.5915693777569456e-004 -1.3946612189815087e-003
      1.2315796039666248e-003 1.3579050987068708e-003
      1.7966423690281429e-003 9.8961874366642190e-004
      -1.6822288418988007e-003 -4.3667165413190090e-004
      2.2590119444999405e-003 -2.1720649009150834e-004
      5.6994863262767412e-004 -5.3730725934955832e-004
      -6.0410482581240148e-004 -2.1843408112401500e-003
      1.4161773015338383e-003 1.2172705132618030e-003
      8.7053683140799290e-004 2.5237971433592610e-003
      -1.1059726113916988e-003 1.3365806929208697e-003
      -1.3398185780025963e-003 -1.0789205316813443e-003
      5.8092710845443745e-004 6.2927529513268922e-004
      -4.3439112642471039e-004 -2.1728783675086191e-003
      -1.2669587709777698e-003 2.4553344272440977e-003
      -2.1966951383605975e-003 -3.7418397312745681e-004
      -1.5347389709006590e-003 1.4032292219003319e-003
      -3.7520089929461020e-004 1.1628425161676558e-004
      1.0745252975251994e-003 -7.0916935339411090e-004
      -2.3168774392001634e-003 1.2102984217313654e-003
      2.4086141982333190e-003 1.6425897918625270e-003
      -1.6982148652006286e-003 -1.4946328833879998e-003
      2.3818182247157568e-003 -1.1383721705888494e-003
      2.2209066428279947e-003 -9.1923417761622577e-004
      4.1668225676677514e-004 2.1220101771658758e-003
      -2.0411870282356576e-003 1.4194077631153454e-003
      -4.9668027406114920e-004 -7.2819290416302918e-004
      -1.9737715586577924e-003 1.1593684562183687e-003
      2.2233036455494700e-003 3.4340799571512233e-004
      -2.2467681604229572e-003 -2.0597512842717926e-003
      -1.7555889473734876e-003 2.4275365824525720e-003
      1.5440758713389767e-004 -1.0573853478818944e-003
      1.2405896621307448e-003 -4.5091667747922007e-004
      3.0011664036914227e-004 1.6737629597912390e-003
      -3.9602904539854582e-004 2.2742875363148483e-003
      -1.5185528428475841e-003 -1.1727744329053183e-003
      -8.9312077316780600e-004 2.5242186846568702e-003
      -1.1600935257920098e-003 -8.5593977623663064e-004
      1.5488577536193211e-003 1.9593541453795504e-003
      -8.2127941418157929e-004 1.3661849253048140e-003
      1.9414147939635241e-003 1.8760284513751019e-003
      -7.7854873258374215e-004 -1.9084647273593367e-003
      -1.3379311678947004e-003 -2.4555050083420997e-004
      -9.2323375222310333e-004 1.2058151807335736e-003
      4.7476306640594184e-004 1.9741749484039118e-003
      -1.8259305446407669e-003 7.4362024545173474e-004
      1.7239030552928562e-003 2.0544522226201259e-003
      -2.3371641575680511e-003 -1.9662388468395702e-003
      -2.0297133346518239e-003 2.5220011150693515e-003
      -1.8781259522458007e-003 5.6291384575569189e-004
      -2.1947040777767885e-003 -8.8044178313424824e-004
      -5.5022986981450531e-004 6.0183486377174433e-004
      8.4705851289244936e-004 2.4772866193510431e-003
      -1.8557086918260795e-003 2.3710778448023761e-003
      -4.7575113827717401e-004 -1.1018142296284794e-003
      2.2128192468988373e-003 1.4699401590521392e-003
      -8.5141202710720186e-004 2.0401838969458943e-004
      1.5705319296688992e-003 -4.5764852451189584e-004
      2.2916385218403070e-004 1.4316520603308723e-003
      -6.8792424976474157e-006 -1.4507140341544182e-004
      -1.8197737746473020e-003 -2.5218236502480905e-003
      -9.3665213887658965e-004 4.6434081470141006e-004
      4.1099109264303017e-004 1.5306046641586977e-003
      2.1969916484703405e-003 1.7789308473450901e-003
      -2.1632161212588900e-003 -6.8800531807306615e-004
      2.4444843947938623e-004 -1.3132932202636759e-003
      2.1246153106221051e-003 6.6078898788868128e-004
      6.5752390486702509e-004 -2.3131265149244746e-003
      5.5016885932756537e-003 -5.9351140051815540e-003
      1.0033629225202602e-002 3.9615869997917446e-003
      3.3814234382923262e-003 2.9256734795025459e-003
      -5.9343540464762673e-004 6.1861558919534144e-003
      9.2401653784404420e-003 9.6779343286778675e-004
      -2.1434914362349583e-003 3.1916338174312023e-003
      -4.5107517205787576e-003 -6.5336292446154407e-003
      -1.2322854002826925e-003 5.6832603622000467e-003
      -1.0181071441525741e-003 -6.0596799317151522e-003
      7.3054263629503974e-003 1.3687984708657724e-003
      -6.6358681661739293e-003 -5.0803662027755242e-004
      6.7958963130768726e-003 3.6280313081073091e-003
      3.3013936316632448e-003 -5.6743402565802054e-004
      9.5825466658720662e-004 -5.3537051598494621e-003
      4.6274920504784305e-004 -5.2330967887889027e-003
      7.7713494313135798e-003 -4.6713777053515055e-003
      8.5527988249410932e-003 2.7894412108515577e-003
      1.5089174327294879e-003 4.0035096767371725e-004
      -1.8146980466777517e-003 2.8803222446237143e-003
      8.4100401778010505e-003 -3.1384750593778476e-003
      -1.2578557511596963e-003 8.3172638268647837e-005
      -2.4981877905141440e-003 -5.0115690685179444e-003
      -3.9155191564407259e-003 5.9081027308184059e-003
      -3.0866294014670107e-003 -1.5230546604983409e-003
      9.2599376617673538e-003 2.4287303430114348e-003
      -7.0889612957612726e-003 -9.0553134530249385e-004
      2.6557300800690914e-003 3.3354646249368855e-003
      3.4521230623784646e-004 1.6809858519016405e-003
      3.3352656237607427e-003 -5.9392780795202689e-003
      4.0233024194969306e-003 -4.3087999358928115e-003
      -2.0982086161630258e-003 4.8724234410302764e-003
      -4.5119981672911468e-003 1.8476536968403691e-003
      1.1961087238369331e-003 -3.6905997069967074e-003
      -1.7487098679922406e-003 -2.5522153053627512e-003
      -4.7140410378929401e-003 1.0381607893758171e-003
      -1.6047097968500156e-003 -3.2614441074708981e-003
      6.4336780583108323e-004 1.5250886018804912e-003
      3.1971635135790966e-003 -1.5381377887608114e-003
      -1.3966255370324928e-003 3.1014067043830104e-003
      -5.2412143426446142e-003 1.3984694785562578e-003
      4.1365280378901029e-003 -5.8081516422766298e-004
      -2.9557486051079150e-003 -2.1089020124948703e-003
      -7.6967444080669543e-004 1.7820513129081575e-003
      -2.9056213053978573e-003 6.4169470402149938e-003
      -5.6660708957794719e-003 6.1172814804128003e-003
      -1.1648231242035749e-003 -2.9938082755822152e-004
      -7.8283547939049839e-004 -6.3353571853229059e-004
      1.4087255231630294e-004 -7.1702881425486119e-005
      -1.7845233351724316e-003 9.2705269134662669e-004
      -2.0931462717143361e-003 1.9043505964749766e-003
      -2.5191032247818684e-003 -2.0463698595516882e-003
      7.6394805582157596e-004 -1.7695750827553174e-003
      1.8249227356310405e-003 1.4991563125926791e-003
      6.1772632958409068e-004 3.1427333966257205e-003
      -5.3316018369957484e-004 1.1079076053690734e-004
      -1.7112427032565213e-003 -7.4603574541544967e-004
      -1.4113029869559754e-003 7.4113000730100160e-004
      2.3229994702397339e-003 1.5500602240638736e-003
      -2.0012326051813906e-003 1.4596996851962809e-003
      -3.4861084853711548e-004 3.3264800105734468e-003
      2.2188951821124260e-004 1.7323589774361024e-003
      5.2923373325983647e-004 1.1621908318920845e-003
      -9.7508093775153107e-004 -2.2873783432646021e-003
      4.6065598042644313e-004 1.3999109911251317e-003
      1.6953755070511481e-003 2.1217815430980458e-003
      4.7324117774776231e-004 2.2674375066534919e-003
      2.5265786729965090e-003 -1.8810974090006818e-003
      1.0803181304220959e-003 9.5445977760600493e-004
      -1.4045013101068890e-003 1.2330252908665604e-003
      3.5372339670346360e-004 2.2396292632603865e-003
      1.5306848953086777e-004 3.1896660601982704e-006
      9.7389034623268498e-005 -2.7959151751082715e-004
      -9.9825523337885116e-004 -3.9566665907254684e-004
      2.2362646220422315e-003 -5.0897447175007979e-004
      -1.8968157688874973e-003 -7.5378918379914923e-004
      -1.0404286238320075e-003 -1.4189012384078273e-003
      -2.8735847837985046e-003 -1.8014727478273007e-003
      2.4337679807990148e-003 2.4944429363545103e-003
      1.0524469734942866e-003 1.7145334367706898e-003
      2.8575528691858051e-003 7.9246516404208559e-004
      -2.5265029291419139e-003 -2.0946985293218644e-003
      -2.8392028756133473e-003 2.9014391198721795e-003
      -9.1311159254086141e-004 8.3848362148837390e-004
      1.8299613562042540e-003 3.9666840342814769e-004
      -2.3129160686252608e-003 -6.0979086709688022e-004
      1.7676080811508694e-003 -3.8444709712085141e-005
      -6.5603729009476499e-005 -4.7611695758691098e-004
      -1.4824402672667465e-003 -1.1284318228707855e-003
      -3.3580629407610439e-003 -9.8638199468703970e-004
      1.3782668865084048e-003 -1.6683034537183464e-003
      4.7240409859461137e-004 -1.4141513616355021e-003
      -3.4433390792467976e-003 4.7530908609050514e-005
      -2.3223397846491162e-003 1.8626359449319323e-003
      -2.2210474915239448e-004 -4.6318400675738301e-004
      2.5932291600753591e-003 -1.1227403610489972e-003
      -2.0830132687926226e-003 7.8936186594694786e-004
      -2.6512911248867538e-003 2.6192190056458656e-003
      4.0625849031906898e-006 -1.4007041737266583e-003
      -1.9767800800879233e-003 3.0331393562992187e-003
      9.5311229978713998e-004 -1.7528397340574092e-003
      1.3271876810793542e-003 -7.6458459025037279e-004
      2.2392275085312227e-003 1.6848271538342529e-003
      -1.1243644316116922e-003 -1.5230821927061013e-003
      -1.5191869204863751e-003 1.4420966356092389e-004
      1.9473548579814831e-003 -6.4432296977105102e-004
      -1.2298812531102150e-003 -7.7678262639092335e-004
      1.8566119604921136e-003 -1.4452734505160797e-003
      -1.0389172072933365e-003 -3.3648739776371387e-005
      -1.4260647342558271e-004 -1.6511113965701062e-003
      -2.7403928063655944e-003 9.6187718740865335e-004
      -1.7798300751124707e-004 1.7672163204975409e-003
      3.1359058120722211e-003 -6.4610960283476297e-004
      -2.2508621147396480e-004 7.7653598953538144e-005
      -4.3706843826656771e-004 -8.1349948243896321e-004
      7.4565130022624399e-004 6.2396901170053999e-004
      -1.4649464324700749e-003 -1.9531018379388559e-003
      -5.2414520766190683e-004 6.5485384798758266e-004
      -5.2584775276067658e-005 2.4593776501849397e-004
      -2.5415536397943063e-004 1.3009498031527553e-003
      -1.9503307249479221e-003 -1.1228281953507197e-003
      -1.9591264570596048e-003 9.9110754870052639e-004
      -6.2709582013778086e-004 1.0985089654032680e-003
      1.8540257260416635e-003 -5.2358135601591495e-004
      -1.2684837884286205e-003 -3.7551715448704302e-004
      2.4266448343916573e-003 4.0482221355694897e-007
      1.1151962566215302e-003 1.6214336396463830e-005
      4.8764964180813414e-004 -2.5338702609602551e-004
      -1.8990299295270059e-003 1.4071964706195619e-003
      1.7571641625803408e-003 7.7804298665353324e-004
      4.8500908883887009e-005 -1.8452751564006990e-003
      1.2521815750262290e-005 2.0407332059907629e-003
      -3.5105353634275362e-004 2.5166530259899270e-003
      -4.7158181066468994e-004 9.8058468216882105e-004
      6.6633267719777599e-004 3.6993532608734246e-004
      -9.8879847689387090e-004 1.2649023376342004e-003
      7.0070112794235308e-004 -3.3534395965903571e-004
      1.1644077269986734e-003 2.1053847103963985e-003
      -1.2018466295414716e-003 -3.5245979424601152e-004
      -1.9784780804133488e-003 -5.5443516698620621e-005
      -2.3272001185652962e-003 -9.5992882856616704e-004
      -1.2872305782698197e-003 2.6329692446186085e-005
      2.4864086923908992e-003 -7.8889330809494662e-004
      5.3613611573184500e-004 -1.5881965844640987e-003
      -7.2571496817668468e-004 -1.2647608566840440e-003
      9.6129911495476878e-004 7.2529253585310949e-004
      -1.5793069871389578e-003 -4.5825594488405882e-004
      1.2169428852112837e-004 1.0047956650435989e-003
      1.5241903158619849e-003 -7.6660186590972056e-004
      1.2492263365777845e-003 -1.2305275007243783e-003
      2.5043691241750676e-003 -1.9266130370038939e-004
      1.5711975794007451e-003 -8.7973087686176916e-005
      1.7448109289135245e-003 -1.2537937863978134e-003
      -1.7227880822872719e-003 -7.1265553781711644e-004
      -1.4459337319746796e-003 5.0692095588338048e-004
      -4.4326988578236471e-004 -2.1893280425123755e-003
      -1.5249288767480813e-003 2.1463997428545719e-004
      4.3935708315008781e-004 -1.4575639460111625e-003
      -2.2673528476370667e-003 -7.3245725237977869e-004
      -1.1321678630984919e-003 8.8141643832169068e-004
      6.8059781904903282e-004 -7.7593460577363681e-004
      -1.6719834434567261e-003 1.7239926116671073e-003
      -2.2858847891587622e-004 1.4679873623713239e-003
      -4.5646511677499947e-004 1.7980834847870317e-003
      8.7323426040805923e-004 -8.4496684943703086e-005
      -2.7905952050348995e-003 2.1513697600620647e-003
      -1.9728248620360924e-003 -2.2161052494022813e-004
      -1.0591630753174529e-003 -2.6825005219081069e-004
      -1.6519353373530628e-003 -3.7178597270082805e-004
      -3.6195688140864364e-003 1.3106897770196948e-003
      1.1304286824326516e-003 1.5268701384789983e-003
      -7.2145586871474865e-004 1.4348862575413880e-003
      1.0172019664481636e-003 -1.4676975785292949e-004
      3.0602574574128521e-004 1.5651507662548720e-003
      -1.4371935554988091e-003 -1.5837571158507102e-003
      -1.9286538896481618e-003 2.9431483550883633e-003
      1.9820597398722336e-004 5.8341005505563477e-004
      -5.2423025732395099e-005 7.8399218992591089e-004
      1.5334493306304166e-003 8.4296111136258369e-004
      -8.3918582328174019e-004 1.1121936957502968e-003
      9.7458101862691021e-004 -1.4117929118034214e-003
      1.6204441917442024e-004 -1.0382761296385519e-003
      4.7339419727191731e-004 -1.4117674093419863e-003
      1.7071363561891082e-005 -2.8249926989980237e-003
      -2.7146637132679876e-003 -1.5683870073973315e-003
      7.5085464739666269e-005 -1.2250127582182611e-003
      8.2296092935375213e-004 3.1026263343000491e-004
      7.0630089001803744e-004 -2.7260868833987278e-003
      8.8427576815212872e-004 -1.0334211409692229e-003
      -1.3776685794279608e-003 -2.2096874354772199e-003
      1.3558914209317787e-003 -2.3574625016961118e-004
      -1.8667327102683321e-003 -2.4797398855263745e-004
      -2.7542073171746865e-003 2.7767089172523506e-003
      -7.5365737385244295e-004 1.3783252707367901e-003
      2.4076482986583785e-003 1.5168199831776467e-003
      -1.7077191068981992e-003 1.1856667291175553e-003
      -2.2457418885133169e-004 8.8274225523361533e-004
      2.3517336590036285e-003 1.0742630460094504e-003
      -1.1828404071656147e-003 -2.5801497564514270e-003
      -2.2278554558471143e-003 -1.2289113529226354e-003
      -2.1522529596606846e-003 3.2876520516496099e-004
      1.1741025643916723e-005 2.4156202181323081e-003
      3.7159024681981496e-003 -1.9992358322458805e-003
      -3.4192907753213093e-004 -8.4884657149876508e-004
      1.9177520525298982e-003 -1.7875341840665382e-003
      2.1409763450905843e-003 1.6919138003310200e-003
      3.6133205353593205e-004 3.5127051546621327e-004
      -1.2039891373287169e-003 1.6613192944727850e-003
      2.6185026679320833e-003 1.5147028598120806e-003
      4.1685192183781592e-003 1.1174503113308061e-003
      -2.4926100848310010e-004 1.8294948481476123e-003
      8.9816920906745040e-004 1.1256094494360178e-003
      4.1140127900375368e-004 -2.2132650907841927e-004
      4.3178544459235248e-004 -1.6117410895064100e-003
      -2.9852498162181067e-003 -2.9420692789845938e-004
      -3.3840040501508790e-003 3.2003131812619702e-004
      -1.3091104389215435e-003 -2.7736453677743717e-004
      -4.5604683522214160e-004 1.1042934878311183e-003
      5.1581216126735390e-004 -1.0845397073134626e-003
      -3.0335738630673831e-004 -2.6208116963483382e-003
      9.5283701590145832e-004 2.0143872117471774e-003
      -3.2889651207245519e-003 9.0972661972338201e-004
      -1.5789345801306047e-003 1.6663158076698650e-003
      -3.2687458782042710e-004 4.7185785322626124e-004
      5.7706004320877023e-004 -7.7918986126282604e-004
      -6.3605512358800599e-004 -1.3892390926528197e-003
      -4.4472616591306692e-004 -1.2077238639022249e-004
      -1.3670288549705393e-004 1.7082539666358444e-003
      -2.3582366984708065e-003 -2.1683540202028567e-003
      -2.1871407395449203e-003 -9.8628507576396037e-004
      -3.4856018393689707e-003 -2.1652769161910417e-003
      2.3264301163843440e-003 -6.2899919297205705e-004
      1.3894869595323441e-003 -4.7419591832763026e-004
      -1.8932996809128935e-003 -7.3931669481202677e-004
      -3.5299972596365638e-004 -1.0496140246088559e-003
      5.7834885008905049e-004 4.4891061993089054e-004
      -1.9839462293718816e-003 6.7183768563057364e-005
      -3.7364966135901853e-003 -1.5929910916836713e-003
      2.3226160510762292e-003 -6.5638580328996861e-004
      3.1289918498764125e-003 -9.9385395982297441e-004
      -3.9349719426384343e-004 1.5788346496886782e-004
      -6.5162254888277043e-004 -1.1231606827268141e-003
      7.8154976269855772e-004 9.0117717931454799e-004
      1.1144182118022663e-003 -3.4664220972518405e-003
      -2.5048580423199782e-003 2.0804848813324199e-003
      -8.1859610903557050e-004 5.5174795142623858e-004
      -7.1116389041985472e-004 9.2617150433718057e-004
      8.1852147449379951e-005 -1.7337034332262191e-003
      5.4962390529213678e-004 2.8657998708189873e-003
      8.0681326919348800e-004 -1.2389009841343105e-003
      8.9655334210204875e-004 1.8584513815751440e-003
      -1.2304602119200456e-004 -1.7410453987021257e-003
      -1.8543173947300747e-003 1.9263081903590478e-003
      -6.5288747896473297e-005 -1.2068086799387719e-003
      -9.2100830482117241e-005 -6.0242405131121825e-004
      -9.9335607461348090e-004 -1.7063400034625078e-003
      2.9164271254521067e-003 -4.0198374559908840e-003
      4.2983868246529383e-003 3.2887992466974244e-003
      3.7936972713167980e-003 4.2007777821002215e-003
      -6.2757443180338731e-004 -2.6895007812692746e-003
      1.8382032435217553e-003 -2.3360554976747483e-003
      1.1625322360162128e-004 3.1098875332078706e-003
      -6.1548668335153550e-003 1.1970381314578175e-005
      -2.6398431175985292e-003 -9.0523325912577333e-004
      -2.4856714449862123e-004 -3.8502506080747194e-003
      5.2350500631846873e-003 -1.8595318436231982e-003
      -1.8507845158203956e-003 -3.8071980720082778e-004
      3.1952221461482616e-003 3.0841585008631466e-003
      2.3501472654961688e-003 2.2578741309998954e-003
      3.3141002252543949e-003 -2.2991042097050773e-003
      -4.2366110397002686e-003 -3.5308648697039316e-003
      1.7003676733851945e-003 -3.8453549988124759e-003
      4.3371995103670940e-003 1.9005965858516521e-004
      1.2528055224288229e-003 4.1706886104401755e-003
      -1.5970909864293381e-004 3.2282507218438826e-003
      3.4041934089552553e-003 -7.4424183326759729e-005
      6.6189753904943394e-004 1.7313786065724264e-003
      -1.6950736818561207e-003 -4.3701948422430800e-003
      -1.6487765579905557e-003 3.5422450968873205e-003
      2.3483316442592596e-003 -1.3028926620943797e-003
      7.2709240115421733e-003 1.2526888690930352e-003
      -4.8902196417867369e-003 -4.2102469648890575e-003
      4.7660147070198869e-003 2.0991718056012011e-003
      -4.2838317019572962e-003 -2.7391326251711453e-003
      3.0546851035449379e-003 -3.9386332211128064e-003
      9.2444089295387383e-004 -6.9036046666390467e-003
      -7.8340325141285213e-004 -3.8259577866063526e-003
      8.7656722503977828e-003 -3.2555424233720130e-003
      1.4777000259209292e-003 1.7909015671286561e-004
      -5.1759181539300157e-004 4.4494346224012594e-003
      3.1719673898599750e-003 -2.9720942562161417e-004
      3.2944572987949009e-003 -1.3244892953455047e-003
      5.2281083379441583e-003 -3.7416944910473328e-003
      1.5951449109469839e-004 2.8401844033327621e-003
      7.4471871770297182e-003 1.8775362750906425e-003
      3.6711070819421829e-003 3.7378820292000388e-003
      4.6484316614957288e-004 9.3855237278584098e-004
      1.0765312653428315e-004 6.4298082352615476e-003
      -6.6270782888544957e-003 -1.0567157473740119e-002
      1.5311335229852418e-003 2.8358219485345210e-003
      1.1312301952857940e-002 -6.3529072153553807e-003
      -7.1767749264342454e-004 -2.2013487770660067e-003
      -1.2908968984583105e-004 -1.2082100701739731e-003
      1.2999188819735254e-003 -2.2272011138761917e-003
      8.5173981194804570e-004 -7.9111968335685099e-004
      1.3453505977915991e-003 -8.0736589409045726e-004
      4.9572008014307442e-004 5.9038086749316058e-004
      1.0756094858699258e-003 -7.8599214764929742e-005
      2.3859395871935140e-003 -2.4621537546451488e-003
      7.1414403872901413e-004 -2.1501018191087745e-003
      -1.1925464095250866e-003 4.0501536569807794e-004
      1.4405166190664081e-003 -1.1520601362145391e-003
      -4.9207152653887485e-004 3.0369113895654406e-004
      -7.8049695566517654e-004 -2.3875985880640899e-003
      1.6968620891842977e-003 -1.0879383190162573e-003
      1.6555057974800733e-003 1.9774733756771686e-003
      -2.3186190408730914e-003 -1.1481768115812747e-003
      -2.3957528295516541e-003 8.1477858368153024e-004
      1.6162164093209100e-003 -1.2324033075654314e-003
      5.5702880153970656e-004 2.7989358316551352e-005
      -6.7587166761139974e-004 2.3002794730872787e-003
      -2.0159167533900443e-003 -2.4200130461303894e-003
      -8.0033172987654705e-004 1.2526521400967403e-003
      6.9718479329034791e-004 8.2867189896107659e-004
      -1.9281980338288196e-003 -5.2170268578171601e-005
      -2.7378349092488759e-004 6.5133571105528492e-004
      3.9902567557373818e-004 -4.7129697344125833e-004
      3.2047674453817264e-004 -2.2931192689545823e-003
      2.2709683736236025e-003 -1.8252328780213108e-003
      -1.8129570029149462e-004 -1.2876202909630197e-003
      2.0770149604179464e-003 -1.4528379345272141e-003
      8.8453520933550432e-004 -2.5399744899387597e-003
      -4.3838408157373570e-005 9.5201568271382239e-004
      2.5243701024111019e-003 -1.5657318377634343e-003
      1.6333317814173148e-003 -1.1773673957790737e-003
      8.1126595448112492e-004 8.7091440825385022e-005
      -1.0894953917399055e-003 -2.0159300426431971e-003
      -1.6216906607234391e-003 8.1387628379363968e-004
      1.3450615641742440e-003 -1.3063302220136753e-003
      8.9746934684978947e-004 5.8210198294826154e-004
      3.0428049129403592e-004 -1.6768254351728663e-003
      -1.2137143263254680e-003 1.8567649929991561e-003
      1.0302900187482114e-003 -2.3802167167096024e-003
      -1.1192578614772873e-003 1.9512340189501052e-003
      -1.8069774380496124e-003 -2.2882862662558707e-003
      1.4327779212622218e-003 -2.4026783319620205e-003
      1.3651303017381765e-003 7.3747654833622033e-004
      1.0618483670935283e-003 1.1177272412847925e-003
      5.5160535070703908e-004 1.5459323031063474e-003
      -1.5596239532613121e-003 -1.6285416180879932e-003
      2.1924207049575763e-003 -5.2937124473805670e-004
      9.9933668022250026e-004 1.7813259903243226e-003
      1.6835579942556778e-003 -5.0656763419242620e-004
      1.4009014174771372e-003 -6.0353694082771023e-004
      -6.2131168833541627e-004 -1.5798313729833157e-003
      2.1890910996168197e-004 -3.8859785407962903e-004
      9.0653662576532746e-004 -2.4001556661176881e-003
      -2.4032761231652894e-003 -1.4000418800032196e-004
      6.0660735039654544e-004 -1.8994694736986437e-003
      8.3539016807814232e-004 9.5623739493647911e-004
      1.2470979789544199e-003 -1.3525161278065633e-003
      1.1433487698548335e-003 1.6306549928775300e-003
      -1.6600860751312082e-003 1.4005453545268094e-003
      5.9487861770095773e-004 -1.6912038810031427e-003
      -1.1925308375629387e-003 2.4225681777359401e-003
      1.4854382460654627e-003 -1.7029625321978140e-003
      -7.6047296591924204e-004 9.4121770577206996e-004
      -2.0078628177650466e-004 -2.3084463908182246e-003
      2.1649341992783129e-003 -1.5798469812624161e-003
      -2.4457022767452230e-004 -8.7711106665676482e-004
      8.4009371108516198e-004 1.2470948649673714e-003
      1.4132751362926177e-003 1.3866265035589514e-003
      2.3588693744723125e-003 2.0314396804674011e-003
      -1.4925820635331403e-004 5.3248980379044320e-005
      2.1907470219519076e-003 1.9270263862606030e-003
      -2.2755652992425758e-003 2.0660410050698898e-004
      -1.9032307046960403e-003 1.6707762479479978e-003
      1.1880375974485248e-003 3.4894819231863825e-004
      -2.0576643736647756e-003 4.8004707372084386e-005
      8.9347029627766987e-004 -1.3490275790089268e-003
      -2.2395203170734674e-003 -7.6454565620692289e-005
      -1.9990451293166699e-003 -1.5734237366835375e-003
      7.2643260593135094e-004 -1.4711839249790235e-003
      -5.9774958049317746e-004 2.1423828890747493e-004
      8.6135659581794356e-004 -1.0819966437205129e-003
      2.3402624338469120e-004 -1.1967418653817403e-003
      1.7452787437725761e-003 -7.4379450493604121e-004
      1.7964400444058363e-003 -4.0101104596592735e-004
      -4.3615288814284484e-004 1.8352438266894227e-003
      7.5704989950475603e-004 1.5536256477540103e-003
      -3.9321682315027055e-004 6.7320600281275728e-004
      -1.2277492396313240e-002 5.9665771368113962e-003
      -8.7991047457730825e-003 2.1741298334592525e-003
      -2.0806019567028086e-003 1.8362016891388666e-003
      4.5273722490688532e-003 -1.0873852281995246e-003
      -5.7725163733241157e-003 1.8349485462095081e-003
      -4.3297925960482098e-003 3.5832977169757867e-004
      -1.0912919196445357e-003 2.9663266295487192e-003
      2.4326686287056230e-003 -3.1702651949933446e-003
      -2.0751981292067481e-003 -2.8725553804869277e-004
      -9.7854183583547492e-003 -2.4916634916700969e-003
      -3.2322599154647785e-003 6.0208940700343620e-005
      -3.4064498885250294e-003 4.0736795735033276e-005
      3.1454718967448892e-003 -5.6476653623730236e-004
      2.6962168996152811e-003 -2.7202118387724249e-003
      -4.2467945584682976e-003 8.2835334934297043e-003
      1.7833885118954659e-002 -1.0428742443701667e-004
      -3.8298879175306015e-003 2.6030421653697399e-003
      -1.2759659275995432e-003 -5.5514726955923892e-003
      9.3672382134644752e-003 1.4246110457748628e-002
      -1.8949876765901087e-003 -1.5558396628594191e-003
      -1.0626333071703213e-002 2.3640620786225912e-003
      -9.8031860657994303e-003 -2.6329940801004350e-003
      -3.2115138582802386e-003 -4.6158817563103482e-003
      -6.5127091062466445e-003 -5.6399486834140004e-003
      -8.9427943836003089e-004 -1.0033314106167651e-002
      1.0870949670053026e-002 4.4924092607979962e-003
      7.0074350949353896e-003 -1.0205447067323042e-002
      1.0452587714146035e-002 1.3453143698679065e-002
      -9.9354501691742113e-003 -7.7802940169205068e-003
      -1.4303269889246266e-002 9.7604726727439067e-003
      -5.0099134034405047e-004 -2.7154864088203305e-003
      -1.9582857671819850e-004 1.0315302596093064e-003
      4.1916375556812224e-004 -1.5409463235465956e-003
      -3.5556679617323642e-004 5.1145286517727973e-003
      3.1231976090278163e-003 4.9427142297689647e-004
      -3.8235957845641295e-004 -9.0669802952397717e-004
      1.1195969310180268e-003 -3.0075281726234457e-003
      1.1557372608724617e-003 -9.4897450625400703e-004
      2.5130553151480359e-003 -6.6654205412110243e-005
      -5.3858587840704307e-005 -2.3486926656165934e-003
      -1.7724390400778189e-003 4.1585266658989903e-004
      -1.2711925096993443e-003 1.6918613535417250e-003
      2.2481923897315079e-003 -2.1254380810376457e-003
      2.5468381370432934e-003 1.3463102633744741e-004
      2.0610534897510940e-003 -3.2627344697286793e-003
      -1.4446381192283811e-003 3.5301210802877914e-003
      2.2996775310276823e-003 -8.6790279033333094e-004
      3.5071557555901166e-003 -1.1001418951846380e-003
      -9.6506895474608018e-004 4.2589213211048253e-004
      -5.1539106315936069e-004 5.3007586497472083e-004
      -9.1058564472268821e-004 -7.7972362070312482e-004
      -2.3669361195238456e-005 2.0465779007986552e-003
      -2.1389424725600198e-003 -2.2500045049464023e-003
      -1.0161828896196714e-003 1.6300545477088736e-003
      7.0359143748442344e-005 3.6098696595480988e-003
      1.1902320100638532e-003 -1.6043289614814009e-003
      7.9307190863392928e-004 -3.3572856052474119e-003
      -1.4258704141711992e-003 -6.7689679556834023e-004
      2.3487392104637184e-003 6.7152441185270391e-004
      1.1279540477160089e-003 1.9244093948614165e-003
      -2.2163373725414986e-003 5.7958067588214312e-004
      -2.7794969348660559e-003 -2.4358268652192208e-003
      -1.4477114604596717e-003 1.6601437771264550e-003
      2.5052034801954581e-004 4.3881382331934838e-004
      -8.7997190237627907e-004 -1.2649731839891258e-003
      1.7367114622736946e-004 -1.0295312522556656e-003
      -7.2498012214411856e-004 -1.0530529911158667e-003
      -1.8119171576506739e-003 2.3556209198606140e-003
      -1.6003489763860197e-003 1.4817189791111176e-003
      -3.7959747162457085e-004 8.7029623018844567e-004
      4.2635528790379321e-004 1.2132399269519051e-003
      -1.2807805944219707e-003 1.7112326875829262e-003
      -1.2214506528266781e-003 1.8977899009427659e-003
      -8.9617594703182192e-004 1.8014624123221525e-003
      -1.5020850410377218e-003 1.3294365973879954e-003
      3.9153453719651347e-003 -1.0405827384782210e-003
      -8.0928205657138375e-003 -2.0571250568923225e-005
      1.0814101584684683e-004 9.5006772546835788e-003
      1.0530666952077638e-002 3.3298582272501018e-003
      7.4168776458275873e-003 1.4894703335211186e-003
      -1.0600425814412107e-003 -4.7307881910796834e-004
      -5.4519947494820397e-003 6.2106674835712625e-003
      2.6274788050106585e-004 -1.1397405120152837e-003
      1.3467975629820382e-003 5.5432615406434517e-003
      -2.7612582767016897e-003 -4.5861156859594932e-003
      5.8106389591480786e-003 1.5855273576452975e-003
      8.3844760997604916e-003 -5.6241665311993492e-003
      -7.5449631102813015e-003 -1.6934278595318205e-003
      -6.2934203123544419e-003 -1.4974142889652717e-003
      -1.1104975240641107e-003 -6.4609848687196159e-004
      2.8852760294720337e-003 1.2442474341688693e-004
      -5.0530740335234664e-003 2.9152833563338069e-003
      -2.2987325991146752e-004 1.1105095090944673e-002
      1.2082219827317650e-002 5.3703068398070486e-003
      4.1694954560816642e-003 2.5644192104768140e-003
      -2.6966040290409519e-003 -1.0494268345513796e-003
      -6.8705727178064602e-003 3.1958867724822260e-003
      5.1467924277306119e-004 -2.7056442826504110e-004
      1.8913210267036710e-003 7.5504369680835957e-003
      3.4121837365164008e-004 -5.7997896399349927e-003
      5.0408973370538396e-003 3.2881692349408182e-003
      1.0459322644197395e-002 -4.9305043483751573e-003
      -5.2712811463938546e-003 -3.4598812013284194e-003
      -6.8509484658630599e-003 -5.9449889395053431e-004
      3.0873912980597489e-003 -1.5483931310720340e-003
      -2.2546598592083373e-003 9.9266448049004519e-004
      1.0076109919551846e-003 2.4377740040136056e-003
      9.5956470610514494e-004 -3.2336467413688580e-003
      -3.0919837504155183e-003 -3.3638020346098310e-003
      -1.2982779331272443e-003 -1.8010201316739367e-003
      3.5035622596169239e-003 -1.5089385749125098e-003
      2.6795506697686647e-003 -1.7631106348528997e-003
      -1.0270777655104150e-003 4.1329917952666144e-004
      -8.1819575763080656e-005 -3.9413610157098900e-003
      3.2214840855373394e-004 3.1605090221427882e-003
      -1.7852957473027278e-003 -1.2344546394916073e-003
      -1.9850679395362644e-003 1.4547554998055752e-003
      1.8574987922419549e-003 1.7953440388089121e-004
      3.5192538351126691e-003 2.0573272843105384e-004
      -5.9697343829250016e-004 -9.9341603520362734e-004
      -8.1131496698448461e-004 1.8043107546651673e-003
      -7.2023261942822617e-004 1.2991156039287677e-003
      -7.1924795651871136e-004 -2.5411262657900027e-003
      -1.6842621609550878e-003 -1.8915863917475960e-003
      -3.7560315350581644e-003 7.5584082150769957e-004
      -2.6803846859450484e-004 -9.8470434675243697e-004
      3.8287904752026193e-003 -2.8655535775140625e-003
      -1.2957217184547385e-003 -1.6518344205775006e-004
      4.1307145989699564e-004 -3.5591428911613057e-003
      2.2683237021899907e-003 -1.2987209291719380e-004
      -3.2047821179538578e-003 -1.3589800255461475e-003
      -2.2842927888334824e-004 2.2673963561344436e-003
      8.2116020472110805e-004 9.2467850037645561e-004
      1.3785526041382894e-004 2.0371683914540226e-003
      -2.4296116559792422e-003 -1.2325553712793039e-003
      -3.0108962852864077e-003 1.9041170084955568e-003
      3.9306325331091609e-003 -2.3234684550389518e-003
      6.7897630698258527e-004 -5.8433205931163372e-003
      -4.7649535851397367e-003 -4.0524137382646482e-004
      -1.0864690948766990e-003 -1.3789019021045385e-003
      4.0497907228427348e-004 3.2359365507039707e-003
      3.2820599130763766e-003 -1.3951176476036898e-003
      8.5743423917176544e-005 2.1360036268722605e-004
      -1.8844032911332349e-003 -3.0161496111934904e-003
      2.1791064997324539e-003 1.9961234522286081e-003
      -3.2314652711204713e-003 1.4922570592974676e-003
      -1.4490737048851918e-003 2.0481976314902358e-003
      1.0414650626398713e-003 1.9494007736190410e-004
      3.2539733502477443e-003 -3.2406671014933492e-004
      4.4440592041215788e-004 1.7573609602062916e-003
      -2.3289874965000128e-003 -3.9969306548559672e-004
      2.0632923602179093e-003 -2.0082323811310863e-003
      9.7119610450214654e-004 -2.9891439359549642e-003
      -2.3379293007021835e-003 -1.3812049741956192e-003
      -2.8816289001143904e-003 -8.6001178724270217e-004
      2.5463699683621320e-003 3.9393824862224235e-004
      4.2377631449753289e-003 -1.2244648056709637e-003
      -1.1463882327262852e-003 -1.3652443329473995e-003
      -1.5405643144140208e-003 -4.1555110631731045e-003
      1.5279874805319131e-003 1.1614249621326722e-003
      -2.6441630376881752e-003 -8.8162582411323764e-004
      -3.3314584286655378e-003 3.0171923958463879e-004
      6.2744433717207445e-004 2.5165214924317558e-003
      2.2107897707827795e-003 1.8837934153633168e-003
      -1.5669024719092391e-003 2.1575138985784796e-003
      -8.5179721135532468e-004 -1.3050125392334612e-003
      4.1954688250387959e-003 -1.4812474304979272e-003
      -2.4960269779081504e-003 -2.9361105984707218e-003
      -2.4864800554404536e-003 -2.5240612858589374e-003
      -1.4956675566181533e-003 -1.3240878895189679e-003
      -9.0202773357503699e-004 -9.4579148878797946e-004
      2.4653373769066714e-003 -5.1428884773217125e-004
      7.0668375880188639e-004 1.4982615241431582e-003
      8.1650166997358168e-004 -3.6824973988771183e-003
      -1.4835812308551608e-003 2.4832612825169235e-003
      -3.5746441855376921e-003 6.1054251121231353e-004
      -3.9319080085111202e-003 9.2172205451854260e-004
      7.4907436610942421e-004 1.7192026628861363e-004
      -2.2153384363207031e-004 -1.7918585338998611e-003
      -9.8249086912186934e-005 -1.9904253291929040e-004
      -3.6431579452133429e-004 1.2020433986822663e-003
      -4.1820562983751867e-004 5.8579315859345784e-004
      -7.3746930426412131e-004 9.6309690679893800e-004
      -4.4770721582057169e-004 -9.1928532048022574e-004
      2.0177428201740405e-003 2.4479423743336711e-003
      8.6365405888959572e-004 9.9371353204801952e-006
      2.3026429573757795e-003 -2.3723799075090332e-003
      -7.9320537872393216e-004 2.1277045778131838e-003
      -6.7164894167136236e-004 1.2112847757470618e-003
      1.0697681365863152e-003 1.2519878669047270e-003
      7.4411004405806566e-004 6.9745160802361483e-004
      3.0245472207243262e-004 2.6949666803096780e-003
      2.0022485681035441e-003 3.2748418057708156e-003
      8.8615238769644924e-004 1.3045068580527545e-003
      -1.5190555438336524e-003 1.6318225820801105e-003
      3.0977712197564309e-004 -2.0434554835631028e-003
      -1.8828903005385159e-003 -1.9809150445901868e-003
      8.4670279946908659e-004 7.9597397794989452e-004
      9.8790392557482061e-004 2.8881695978055468e-004
      -5.6267675657303872e-004 -1.1710621267060468e-003
      -1.5646727016562740e-004 1.1554795972632391e-003
      -2.5662895535228051e-003 1.4342928613597116e-004
      2.8801151508161708e-004 -3.1998178641871622e-004
      8.7194293689984135e-004 -3.3810404943549903e-004
      1.3129715770590323e-003 -4.7103542458584307e-004
      2.2687983357757751e-003 -1.0261650036509451e-003
      9.7458028114630118e-005 1.5526880346302941e-003
      -2.6708949993192515e-003 -6.3078587484158158e-004
      -1.5412725996934932e-003 -4.9778380397236005e-004
      -1.8378813575148515e-003 1.3518048504845130e-003
      1.8338410897112995e-003 1.6899575731082856e-003
      -3.7394662757423112e-003 -1.1150819560684184e-003
      1.2868721293409957e-003 5.6885815171864749e-003
      2.8690194458902431e-003 2.9915680736794037e-003
      -5.4381947554977444e-004 -4.4251822801997495e-004
      -2.8546926171000657e-003 -2.0969324628797212e-003
      -2.5632938199726331e-003 5.6244128518918802e-004
      -4.0345118658678176e-004 -1.4309277944120841e-003
      -1.0661107209245517e-003 3.9841909340034782e-003
      2.5684492891598050e-003 -2.4709829948282901e-003
      7.9368546710452295e-004 2.5742545183735332e-004
