solver_type L2R_L2LOSS_SVC_DUAL
nr_class 8
label 1 6 7 2 3 4 5 8
nr_feature 26
bias -1
w
-0.01046293839427828 -0.002494578584478701 -0.008066346676285635 0.006007918017461022 0.002265576075429742 0.007971829779119541 1.891108826329031e-005 -0.0006508728691868694 
-0.0230243744184058 -0.001307437590223853 0.00300751127401516 0.0230490745010135 -0.002193527475180924 0.02690607232774387 -0.008616300347586795 -0.01969682577521798 
0.008814275215642039 0.00890924492383156 -0.03076224400790172 -0.006500452119778586 0.01497609507202554 -0.0158358638479215 -0.0001874430191806881 0.01253227616315965 
-0.02120139686726827 -0.002926833851281317 0.007001226731996762 0.008668010448748128 -0.009352881402797724 0.03149526027133458 -0.003362563113997018 -0.01501141739919619 
0.009654211053300827 -0.003443374950159936 0.008675544872339411 -0.0008285686056733552 -0.002728916603585015 -0.01310956845096255 0.02295329279003764 -0.01131430765581728 
0.01160671602600508 0.01423643979051249 -0.05725609774099034 0.01693906243478881 0.01881758737423881 -0.007971836107060724 0.0188231078016624 0.0006756516225566491 
-0.02130851311254667 -0.0163039928640011 0.00498623611763593 -0.004112387210865766 -0.00774128415160126 0.009685421829828466 0.01476793249606034 -0.01099120132205998 
0.02261493920010942 0.0117050075689182 -0.01097146953322256 0.009665583282209872 0.02353747592469611 -0.01755314324166864 0.008149971289785299 -0.01213693716530775 
0.01146857213927934 -0.007064006134499561 -0.02231863485409547 -0.003454208624376046 -0.01114698081287952 0.0107492426507017 0.0018664143336355 -0.004231516933333466 
0.01432742407160543 0.009366113894326272 -0.01969392830596006 0.006406494556343547 0.007132056938882441 -0.007587103869026452 -0.0004633490488764514 -0.009258840329631425 
0.01423761981985646 -0.006890073037842239 0.01109965808877795 -0.01167604949808693 -0.005737791839576148 0.0002951316938943573 0.01490322457523354 -0.007190020403163017 
-0.0004234384188596994 -0.0001375833721887547 -0.04228395470604254 0.01566084501237917 0.002971057915323544 0.003114327860461166 0.001898595880849588 0.0003568432597665835 
0.002084970346594523 0.002118904007939839 0.001611306820520767 -0.01347530773568414 0.004159117785775727 -0.007843685295097316 -0.006194014867624684 -0.006720464248145744 
0.0008289775406530819 -0.007328821868133805 0.001897527471296096 -0.008474626110065544 0.007372164165774421 0.002405430998661699 0.007601742838990533 0.004775477006192939 
0.01571599084568498 -0.04055183992040609 -0.03145975913144737 -0.05398851907978704 0.01802725012669622 -0.002397022057764072 0.008498935954137372 0.01020983966872937 
0.01508518996081601 0.03220194838673872 0.03797952390902313 0.0162483086241849 0.009058128124674179 -0.007671237023907859 0.09426792804582712 -0.05549508717326454 
-0.004815926029123403 -0.001027665303250654 -0.05238320794093486 -0.04484790697450738 -0.02243818001840662 -0.004881726017163609 -0.009162102796376073 0.04319206948114294 
0.07797497568146022 0.005274625487141313 -0.002758123081982627 0.01275225734120009 0.03386090102669 0.01696621256673669 -0.02083498709750489 -0.03659417256405965 
0.04195198239589939 -0.05959000583777116 0.05582868639880656 -0.03876779232241614 -0.004486549262864538 -0.007774199976169273 -0.08740512432230295 0.02518252254123609 
-0.05124416759691438 -0.05426025797326239 0.02354947406197585 -0.02235180309268366 0.003725371875658556 -0.02938704311840929 -0.0899947296675639 0.1299350916329648 
-0.08894206690499769 -0.02685854811783763 -0.04880179516442678 -9.92067540574512e-005 0.0420036925450591 0.03631102944037637 0.1712425308994244 0.00123512865796878 
-0.05283775116887157 0.001268622419552948 0.05405018411779113 -0.01205803661229314 -0.007656119705154539 -0.01064363158886304 -0.06000014464622465 0.06189157206366375 
-0.03522779272869941 -0.02212408560474102 0.05157414903241535 -0.006443349401670063 0.04485147928082848 0.0226816891985583 0.03725803190819774 0.01152474640752428 
-0.1936415720913295 0.04445508394302377 0.04129557778437433 -0.01033173838737388 0.02946641751468932 0.0391993745574433 0.1592771442751016 0.01761291500130413 
-0.04501847877864204 0.005799046596008311 0.06802238967049094 0.02184404387953567 -0.01204761147043266 -0.01131851094404308 0.004503771390800541 0.0034712290039553 
-0.05793337826780148 -0.006349607955439784 -0.08928046686278947 -0.01956036724928063 0.003605357804794492 0.03976487030318326 0.1068715533515433 -0.00116242650874441 
