solver_type L2R_L2LOSS_SVC_DUAL
nr_class 8
label 1 6 7 2 3 4 5 8
nr_feature 26
bias -1
w
-0.4391168069193021 1.076461240100251 0.01795199540061189 2.473681577725396 1.710873124431335 2.993712465072935 0.9528653860149424 -1.156250612792031 
-1.456607967153075 0.0008944527517177533 0.8179640001065003 1.065303132773297 -0.1971594969740511 1.447269038435174 -0.6717923305848152 -1.324194282463306 
1.455011494089417 1.233081638894536 -0.1455951232644789 0.5370840609158488 1.334796243607661 0.2440709218957691 0.7627772169663853 0.8860431211601658 
-0.9990578060727906 -0.4020185850546855 -0.1546524157693782 -0.2999599626988535 -0.5522974797881041 1.015242590452166 -0.4571307103495164 -0.6865607804453303 
0.5048831343210433 0.1796916070865802 0.4165361337655998 0.05555613913788286 0.1430511321375947 -0.1066498300978086 0.672227496071109 -0.1370433253476765 
0.9247125059430336 0.8596513219830224 -0.7587012060688876 1.020057677461418 0.9608760232252672 -0.0004651478083692787 0.8090833668434351 0.3125524009741436 
-0.1865571342912842 -0.2220814716801711 -0.222611141384088 -0.2512998232202314 -0.1123601450848948 0.3325926035977771 0.3247442026823474 -0.02047690816808271 
0.9064158503385121 0.4936765361604141 0.4195982342278854 0.4006719474052509 0.6928663561937419 -0.2871651802490995 0.3973625314003915 -0.1191535596410014 
0.7538889061426796 0.4558824180488317 0.01929744475704666 0.1906646784105525 0.3447315911236668 0.6388482815982459 0.43906330769375 0.2707828885429059 
0.6739643853080624 0.481825820471642 -0.01691953619678232 0.4408384587399027 0.4649778646948476 0.02576798219391764 0.2266568184612068 -0.06341640821928711 
0.1660550001224337 -0.3328489472581507 -0.1316266568209444 -0.5591802525716534 -0.2447332763419935 -0.06385310113250114 0.1055796140180655 -0.2013042262542081 
0.7861467023336556 0.7940663191124951 0.3345513017185861 0.9745215881299441 0.7574000209317039 0.5765238818895661 0.6180670709617177 0.3469518698572238 
0.01686313253605389 -0.08617157306792846 -0.1204955489904839 -0.4361264324258364 0.01487264605087724 -0.1355638923758188 -0.1124022649808311 -0.07233257565782418 
-1.427759532948431 -2.55302143188114 0.8063388651188916 -3.017222624816258 -0.06897864383604861 -0.9566342189140356 1.965446825927713 1.406405843287658 
-2.54591859896071 -4.344074360927591 -5.926874530793279 -4.976184024451198 -1.633576055054075 -0.9003387720827267 -0.5592612645895447 0.4354851697006532 
1.479187561103411 1.870303933448487 3.916315646600792 1.36236194607461 0.9520692627781007 -0.03584868330777109 2.80497639931087 -1.390676168089321 
-1.583262233077201 -1.128085923828162 -4.540926940490507 -2.597081617904941 -0.9189812941934116 -0.4043303336850441 -1.239246022720496 1.116059870590933 
0.6854944428439801 -0.01075829355888213 0.5162591649295344 0.2903856087936473 -0.228631136396548 -0.1881405639616931 -0.9176658084950593 -1.393165434248799 
0.4409383593355397 -1.452992340326253 2.049758277785447 -0.8761935037590853 -0.503443789999471 -0.5019390851619807 -2.022883510194518 1.015533616440334 
-1.160958385525548 -1.585816090581294 -1.152016848601764 -1.163998715917608 -0.06962491052578818 -0.679483609951708 -2.009493213422629 2.361256511399604 
-2.113982119087226 -0.6076053425076688 -0.2916217831508441 0.1699754400417997 -0.3353636666256203 0.1835839416097345 2.630151318960833 -0.2953223975974559 
-0.5903094449305173 0.05553094045005106 0.4982693387783724 -0.2632975547428613 0.5390588151791348 0.1126899887532163 -0.9334479838900445 1.447927361858511 
-0.8145238181074367 -0.3662843361215438 1.488593196271282 -0.02447558056815021 0.5467463794930118 0.3914150045359872 0.5643354790512776 0.1533956032713635 
-3.405272915317822 0.3088208829161767 0.1740754929973583 -0.289837903295852 -0.0622641504978444 0.3613698783585402 1.841808525145818 -0.005728188755452925 
-0.5391533367561383 0.08518789068667383 1.038264964456592 0.3332551685227818 -0.1931693945002095 -0.1793672690944648 0.3063410268517424 0.3655166451193488 
-1.456444131007147 -0.3658369355115395 -1.436643268318077 -0.4453634446764574 -0.2215313845602213 0.3838774721489708 1.102733118370312 -0.3861024755404379 
