solver_type L2R_L2LOSS_SVC_DUAL
nr_class 8
label 1 6 7 2 3 4 5 8
nr_feature 26
bias -1
w
-0.01052353460491569 -0.0007103110270407291 -0.007004766699235054 0.005571650870754145 -0.0001405381479439878 0.001689559919552968 0.001107322755812494 -0.006971575985022698 
-0.0231565973288488 -0.0003921664839188871 0.00369459630933203 0.01948261803449988 0.0005109946452436514 0.02958192051801699 -0.009216363340446388 -0.01597755415044144 
0.01054243955643623 0.008982199083881946 -0.02973032591861264 -0.00789121447732976 0.0140354653526236 -0.01317616659715662 -0.002377279218328759 0.009829032088566624 
-0.02494801077793604 -0.004403924632797934 0.003680662948827248 0.008262783731548061 -0.009668885079151814 0.03029371778296347 -0.006338789776316794 -0.01962257577013984 
0.01158892138359056 -0.0005066690495392978 0.009516116119992348 -0.0028063142142281 -0.001189238927868014 -0.00915382085046022 0.02130606896906703 -0.01206428051352303 
0.01163014914345819 0.01444305087604477 -0.06048250682676178 0.01686749755674892 0.01602068187660774 -0.01093934589526898 0.01914818186835558 0.001227309129329514 
-0.01430933808824373 -0.01565095555078645 0.003575199902745616 -0.004587684181331838 -0.006273758000093355 0.01039012348674295 0.01724339937131 -0.00991247753929366 
0.02097695868564366 0.011137591187333 -0.009648469476574098 0.01101549797699117 0.02315473262166372 -0.0154062277025035 0.008866088181462508 -0.009957251365193008 
0.007673374688510575 -0.008534265151055914 -0.01972310530744837 -0.002472807166291541 -0.01201540027672063 0.01305683343229656 0.004596321542099827 -0.0009490742766226403 
0.01553334698941471 0.009053719640139589 -0.02150520839214553 0.004969873359094722 0.00792242219102178 -0.004573781941040875 -0.0008277519953394232 -0.008580053360366324 
0.0138871147300139 -0.004458554760297105 0.01025673625812106 -0.01169354799070335 -0.007646071943910949 0.0004634396422461931 0.01073300089574789 -0.010945291505202 
-0.0006350158604944107 0.002026411246490199 -0.04027585232161729 0.01424788687638363 0.0008834611416831276 0.002471890197311035 0.00709732045572418 -0.004008223920389256 
0.004974426659330346 0.001757912303275023 0.004169340574188981 -0.01392312720949639 0.004604117122098079 -0.004288228618326566 -0.005338061381985323 -0.001209465309881692 
0.0008271955831929178 -0.007255190492258929 0.002887305172748642 -0.008525212527411816 0.002645438591226237 0.001786599960219818 0.008909724058165026 0.006829622286139987 
0.01672082576391921 -0.03939327062932759 -0.03320267366823469 -0.05301720598643235 0.01791379894704125 -0.004405327881331738 0.01074932546523363 0.008483776459277921 
0.01738726203255768 0.02991173615967858 0.03903536450274782 0.01910807682327567 0.01252680868876065 -0.007962656234241359 0.09197792836577948 -0.05524339667557681 
-0.007565483357638647 -0.002403190527438787 -0.05318417434944193 -0.04608710218514218 -0.02129996174764272 -0.005420838795137902 -0.008522545109380069 0.0392945025556157 
0.07812236606213394 0.006370917537578065 -0.001787501952381971 0.01299676840281231 0.03526378259971738 0.01216556436091841 -0.01854713935944809 -0.03865643179768279 
0.03940581019659942 -0.0578494471518988 0.0565908318646307 -0.040876942244609 -0.003321871982520194 -0.008845349394438502 -0.08544567383934895 0.0231699814726152 
-0.05000662009092093 -0.0537294680787456 0.02257790795881362 -0.02429555142656906 0.005673093733064478 -0.03041156105211856 -0.09007985439078863 0.1274463820659561 
-0.08589806227020991 -0.02592109275061582 -0.05142277839203591 -0.000728369071696468 0.04180253024640811 0.03607586857250734 0.1720217045172621 -0.003011976224593712 
-0.05292759147107121 -2.088313118676752e-005 0.05368473991534056 -0.01150702030981996 -0.007461729300276977 -0.01132494447842929 -0.05850972330475316 0.05884958877785845 
-0.03516942369648102 -0.02222222867481651 0.05056227649437707 -0.006021437589231541 0.04232340461342438 0.02240931883686493 0.03919416999593945 0.01142415295327003 
-0.1971591741298363 0.04283145682942858 0.03941868924902416 -0.01236905362801365 0.03040847199899445 0.03898198641688567 0.1612173295190869 0.01671448187415736 
-0.04666935952129748 0.005289723915264852 0.06811579899519761 0.02003274849753492 -0.01255790620560345 -0.009178521674557658 0.003998948061885608 0.002052626812879544 
-0.05683967058043857 -0.004472072096025052 -0.08770459540421595 -0.01893224824113979 0.002660828103043471 0.04120972624790031 0.1054835967726482 -0.0002588793581824183 
