solver_type L2R_LR
nr_class 8
label 1 6 7 2 3 4 5 8
nr_feature 26
bias -1
w
-0.0278579146625772 -0.01470743144578075 -0.02920061784247249 0.01859397460536932 0.00905176151575139 0.02037318800492073 -0.003872122871154685 -0.0198273689111379 
-0.06806442783184223 -0.005759724012039704 0.005384761118648752 0.06288411525157647 -0.01621316182775327 0.101416898877205 -0.028211562918786 -0.05389710352416593 
0.008966828600239903 0.02090056866486468 -0.0714669575303702 -0.00896767418983996 0.06332946244477467 -0.0458930962937348 -0.007678185515717946 0.03065229828580602 
-0.03470909152273696 0.01855315244895152 -0.06356933328885819 0.04655461086626934 -0.03415252125078343 0.1070942907152061 -0.01735256934402601 -0.04094016283866975 
0.01992725499837578 -0.008087698239980517 0.03726865428149354 0.007417690458018016 -0.012583400114482 -0.03771751590497614 0.06066094970177386 -0.02395372697741588 
0.007814834814238095 0.03297480514035042 -0.2268995640718636 0.04622887112523226 0.06034115881354119 -0.02673888121826148 0.03593491292069836 0.01380619603797885 
-0.005018225360209227 -0.009781534129774047 -0.02197940323886327 -0.006481438465196826 -0.02216803465002775 0.0365695865973391 0.03991559038150377 -0.02305790603953188 
0.02109977319050506 -0.008921532806629261 -0.028378753837682 0.008758097267703956 0.07163386993600569 -0.05655689625843804 0.01684916186288382 -0.01969521053517704 
0.03787540533245735 -0.009096104828611866 -0.09381393725618345 -0.01479252252609201 -0.05124373927903706 0.03453085789229765 0.01315324330850077 -0.004993752113347516 
0.01664239578171749 0.02958769768526878 -0.07520760202873064 -0.0007097929086382916 0.02669263802632186 -0.02055874030846281 -0.0206059481709722 -0.01744854538272418 
0.04164689600529098 -0.02249894534659949 0.02501866187070881 -0.02141104068623556 -0.04935787692473426 0.0002199375407735686 0.02882192967253918 -0.00788730958133335 
0.007356018458590624 -0.009055768358757911 -0.1441877571768446 0.008041770041588951 0.01707497649488926 0.009998209986660555 0.01722246172856692 -0.01675051213950689 
-0.002322022047883664 0.02092139616214589 -0.05287888215534939 -0.03161830782244426 0.008282247926622103 -0.0209389783981746 -0.02145945733763752 0.003390909063058974 
0.02344881456564553 -0.03459811344607778 0.006057972071647813 -0.0372895020789579 0.02588777955505846 0.003052799909032899 0.0361913092919144 0.02251521738693827 
0.1224144716530044 -0.2050093823817648 -0.1181042981400726 -0.2121968482548851 0.07566008134204738 -0.0286820469819895 0.05501974442833622 0.04882907348431399 
0.01962220970143112 0.1815006399717943 0.06237483271049205 0.05944446169238403 0.07020266531906563 0.002910654788204616 0.290832866370576 -0.1423248493482839 
0.1192614000847055 0.003669624369830894 -0.1593128233858216 -0.1006713715297479 -0.1249756038908393 -0.02337283185448641 -0.04210619881291568 0.06532055899005411 
0.2919875372031749 0.0458934041715675 0.05005421619056706 0.07218126831196549 0.1879967146310033 0.04472241902873478 -0.09594953723173436 -0.09381757687692295 
0.1082350196130871 -0.2478415966219803 0.2136332177856025 -0.1720389794929642 -0.05683545697910606 -0.06665679342593456 -0.235980766779733 0.1388783734223557 
-0.1215867333321009 -0.2402726674468716 0.04966995726565713 -0.02895561100024238 0.041010140934233 -0.06450928824339818 -0.2374523456848015 0.321855338206416 
-0.1475168818318455 -0.1345346599141617 -0.1550523482114899 -0.02803162159941037 0.1764884340733092 0.08913003511338094 0.4897060536555237 0.0866118637157519 
-0.0730351509404224 0.04189760106841532 0.1743590400975376 0.01187352000359028 -0.02373129226098909 -0.02397484362492724 -0.1463639778286277 0.1303809591772283 
-0.04736496300536976 -0.117462764149106 0.1852623492418299 -0.02192366072122363 0.2583038481976697 0.08269314825027883 0.1475364967823642 0.04057365273506822 
-0.2566205482594143 0.1911476634210867 0.3289954781217003 0.05773112336643143 0.1202379573477754 0.1405349348173612 0.467084248235482 0.03664104314290896 
-0.1429216028581669 0.07924983081267585 0.0948088977167808 0.02249006246161415 -0.05176971081609866 0.004032535554216118 0.09087187591639673 0.02372283722880695 
-0.09962347745491804 -0.03096551578316193 -0.220160478950505 0.02156480827587404 -0.03213543450340424 0.1265998869377805 0.2741138274960251 0.006752171582740648 
