solver_type L2R_LR
nr_class 8
label 1 6 7 2 3 4 5 8
nr_feature 26
bias -1
w
-0.02910856480449097 -0.01725031362662157 -0.03195185203908887 0.01343039609503147 0.01700785324800065 0.02261995302749733 -2.283198261144503e-005 -0.02106287933613032 
-0.1073811533442122 -0.005887074277065896 0.00733346401963229 0.04438814044420267 0.08055860528123524 0.09458910606238276 -0.01688177725218155 -0.05005369255038896 
0.0529629202475702 0.02520486988313131 -0.1026613884482528 -0.02303728905499303 -0.1046822058293576 -0.04531364644546843 0.002934228075151214 0.04236221930085936 
-0.07660708986255166 -0.01492048019986639 -0.04142263082682293 0.03206885375029527 0.06144227804345472 0.1034069214327873 -0.04258255265251886 -0.03181405315996549 
0.05752926525332137 0.007083419796744174 0.03485667719793399 -0.01032814065028138 -0.04865435537774453 -0.04342311426816017 0.06356424908467791 -0.009497225910056625 
0.01260787625208064 0.04091007415749694 -0.2352966064505101 0.04643205922390767 0.06411123967721712 -0.0275810206628829 0.06133863848299134 0.00596571877362821 
-0.0259058996373108 -0.05233694982629081 -0.02384103748158703 -0.01950186519302973 0.02691235820916679 0.03410244908864862 0.004151612602056824 0.001369587295920315 
0.04861494102251995 0.01794312631549685 -0.02058828454880256 0.006757247200224251 0.03965820051608354 -0.05687870238367716 0.04545930332401128 -0.02036363800902907 
0.0429518983107318 -0.02929884212920198 -0.09932374677556388 -0.01944971387072126 -0.04198133506253351 0.04186017785053081 -0.01562981961967629 0.001731467634940284 
0.002145195804066173 0.04260001981231961 -0.09281153914231592 -0.003898043974493969 0.008386516938199527 -0.008342000014270622 0.008842879095449773 -0.01439212762832092 
0.06927863082234695 -0.01963879718009358 0.04576551170197624 -0.01769886960768052 -0.01242067530571481 0.007646516267210851 -0.00241284507775826 -0.003064439031771547 
0.001438483659436178 -0.02992304388179386 -0.1608459610046774 0.008179534641510586 0.001083474815331499 0.004970439558478073 0.05694079617432083 -0.01355212448399806 
0.03444175315448278 0.02061041106883661 -0.042235925490693 -0.0247979368316122 -0.02014050503408168 -0.01031515247717695 -0.04310548697604018 0.01092899175202548 
-0.004961016255284547 -0.03665621967273387 0.01345683892513431 -0.04014648755999521 0.0195344983463589 0.01393788518831851 0.03751846706425212 0.01473853617337837 
0.0756007967151737 -0.15909689710019 -0.1136690918861665 -0.2160264862809856 0.06571915189412762 0.007789107923617066 0.0579394681708246 -0.006124383275331694 
0.02159514051558086 0.06889876324782077 0.1077542467224848 0.09903306769306094 0.1717134192718119 -0.01374922148098083 0.2898163026276248 -0.1312474256180723 
0.03938024601921106 0.2222606776991167 -0.1890446774053217 -0.1045564518978905 -0.08141894288467569 0.01848544151634001 0.03303768673649262 0.00753708410887305 
0.2945501583837076 0.07480345997326235 0.0669783787178287 0.110588340748938 0.2769766543635591 0.03599142294374438 -0.2361350310611356 -0.1051409568493068 
0.04531862462289164 -0.4222448167078241 0.2603239578757686 -0.1720935493156384 -0.1868674008978382 -0.01648665160008379 -0.3028468104386001 0.1251650356032908 
-0.128273192510473 -0.1349312147010885 0.07677103916148678 0.01634804324421205 0.1529465772065495 -0.02196723080932659 -0.06649506607263453 0.147553531692714 
-0.3703518002105085 -0.1864811107585751 -0.2507072318799175 -0.05352882051624747 0.03329195563361697 0.0689362156645368 0.358171360083216 0.1348701416935286 
-0.0773599351668916 0.1963314917619728 0.1364104261772301 0.007270369880863714 0.1894848816782262 0.07386606926173758 -0.01091573232747892 -0.01631362339393411 
-0.1284260162949479 -0.228231402390022 0.2576773829531235 -0.0007557352233807079 0.337379001596005 0.08233577258606577 0.1603409537160014 0.03725822609981658 
-0.5273734967604521 0.2967037646887733 0.368934876082946 0.0555632601795075 0.049706772590294 0.1940856563651159 0.4235865077613246 0.003059298873194759 
-0.1791943440688409 0.07611074168155714 0.2511219640284763 0.02419262536008592 0.1041166088603724 0.03253319639676415 0.1251572516458797 -0.02289039569609655 
-0.09279509716436915 0.139891314753139 -0.306238512576166 0.04066810929009154 0.1592848028130013 0.0715800993738298 -0.008300895577640792 -0.01651486058804289 
