<?xml version="1.0"?>
<opencv_storage>
<my_svm type_id="opencv-ml-svm">
  <svm_type>C_SVC</svm_type>
  <kernel><type>LINEAR</type></kernel>
  <C>10.</C>
  <term_criteria><epsilon>1.1920928955078125e-007</epsilon>
    <iterations>2147483647</iterations></term_criteria>
  <var_all>8664</var_all>
  <var_count>8664</var_count>
  <class_count>2</class_count>
  <class_labels type_id="opencv-matrix">
    <rows>1</rows>
    <cols>2</cols>
    <dt>i</dt>
    <data>
      0 1</data></class_labels>
  <sv_total>1</sv_total>
  <support_vectors>
    <_>
      -2.16995552e-003 1.06134685e-002 5.78993233e-003 -1.87784096e-003
      9.57729388e-003 7.29366264e-004 -1.48499920e-003 1.64967608e-002
      1.05110416e-002 -3.64884199e-003 -6.31941366e-005 1.81270740e-003
      -8.92490963e-004 9.07119643e-003 1.00977579e-002 1.44857876e-002
      3.07212006e-002 2.53802515e-003 3.88161954e-003 1.22604650e-002
      1.07768010e-002 4.73808497e-003 8.37819837e-003 3.40118259e-003
      -2.51369202e-003 8.79683066e-003 8.73176381e-003 -4.41653235e-003
      -3.53542971e-003 -8.69771559e-003 4.90489067e-004 7.71125732e-003
      1.32056037e-002 -2.61633517e-003 -1.20929535e-003 -4.50485433e-003
      -1.37071300e-003 3.43628018e-003 8.06507561e-003 5.74323256e-003
      -5.22941444e-003 -2.91084201e-004 4.17639595e-003 1.35986060e-002
      8.98265187e-003 9.52965405e-004 -2.42165360e-003 -5.29232842e-004
      -4.99396818e-003 1.32803491e-003 1.63492449e-002 5.98693779e-003
      1.53280480e-003 -3.43101448e-003 -1.49103627e-002 -1.27694022e-003
      -3.09691718e-003 -3.34848743e-003 -9.69387218e-003
      -7.14462437e-003 2.05362053e-003 1.94051582e-002 1.61193237e-002
      4.19978955e-004 6.64974563e-003 2.51446641e-003 3.64684733e-003
      9.00775008e-003 -2.56775267e-004 -8.22105794e-004 -1.00945377e-004
      8.40535015e-003 -1.06138727e-002 6.57174678e-004 1.25074927e-002
      -1.14501943e-003 6.74762530e-004 5.15309046e-004 -1.21293413e-002
      4.13190247e-003 9.86495242e-003 -8.73710867e-003 -3.64714907e-003
      -7.97590800e-003 -1.20669149e-003 8.78195465e-003 4.38583922e-003
      -2.33006454e-003 4.74022888e-003 1.25964815e-002 -2.07923143e-003
      -2.75889412e-003 -3.37775727e-003 -1.12219788e-002
      -3.44870682e-003 1.04249073e-002 -5.67093864e-003 1.16694588e-002
      1.16275065e-002 -2.25890125e-003 1.41871371e-003 -1.21987343e-003
      -6.29342208e-003 6.47065975e-003 8.70232994e-004 -7.81808142e-003
      4.65244637e-004 -1.33033190e-003 1.60832249e-003 1.06639857e-003
      -2.15136237e-003 1.04277255e-003 6.21400261e-003 1.86362192e-002
      7.16942176e-003 8.22132686e-004 -1.24432789e-002 -1.78838447e-002
      -4.42090910e-004 8.90623126e-003 -2.77872174e-003 7.22080562e-003
      4.80103353e-003 -1.65476301e-003 5.21420129e-003 -1.24600413e-003
      -8.04463588e-003 1.62578914e-002 2.20464566e-003 -1.07463135e-003
      -1.15823224e-002 -1.25143845e-002 9.40912496e-003 1.08485101e-002
      8.20172863e-005 -2.99386261e-003 2.70157447e-003 1.05182931e-003
      -3.29131284e-003 1.47452916e-003 -1.76542427e-003 4.78442962e-004
      -4.25117090e-003 -9.57390852e-003 3.06830188e-004 1.88018233e-002
      1.51778702e-002 9.74833747e-005 1.25851063e-003 -7.11852964e-003
      -3.10080126e-003 1.56411175e-002 9.33653489e-003 -7.69513752e-003
      -1.34690700e-003 -4.81404737e-003 -1.20000383e-002 9.00325086e-003
      6.41538948e-003 3.93923791e-003 6.36031013e-003 -1.09236659e-002
      -1.24596646e-002 3.84644791e-003 1.51733332e-003 2.42509833e-003
      -1.40114594e-003 -9.36476234e-003 2.43490632e-003 1.29546216e-002
      6.27059909e-003 -1.64823746e-003 5.46300877e-003 -3.20533407e-003
      7.92823080e-003 1.49617279e-002 6.42846292e-003 5.62227285e-003
      -1.95743889e-003 -6.62089745e-003 -6.92803133e-003 4.47792327e-003
      8.60180520e-003 8.72536004e-003 3.42107262e-003 -1.87303033e-002
      -1.11846644e-002 5.17047988e-003 -1.50967258e-004 3.59092955e-003
      5.92931872e-003 -2.58914717e-002 1.89260009e-003 3.19966883e-003
      7.61825731e-003 2.12434586e-003 5.04536042e-003 -4.19464614e-003
      3.02857882e-003 3.84067674e-003 9.45563894e-003 4.12425585e-003
      4.15385701e-003 -1.34018424e-003 -1.06261652e-002 7.17580412e-003
      -2.94152531e-004 4.27357759e-003 -2.20879936e-003 -1.96762439e-002
      -7.39037665e-003 3.47132399e-003 4.46881913e-003 7.81130278e-003
      -1.38649985e-003 -2.07134001e-002 -3.43471672e-003 1.01073151e-002
      7.84193724e-003 5.68862073e-003 -5.48923854e-004 -2.74870708e-003
      -5.03322249e-003 1.49187194e-002 9.88040864e-003 6.74290257e-003
      -2.93494156e-003 -1.32294418e-003 -7.52601027e-003 4.13116813e-003
      2.27468018e-003 2.05573952e-003 -6.74196798e-003 -2.11934708e-002
      -2.63767294e-003 7.83778820e-003 1.00730630e-002 5.52276755e-003
      -1.37166893e-002 -1.47816399e-002 -1.17399916e-002 1.13166161e-002
      1.20451469e-002 6.11976953e-003 3.66740744e-003 -1.49106316e-003
      -1.04557090e-002 3.08579858e-003 3.56730050e-003 -4.12373524e-003
      1.51444236e-002 4.90368437e-003 -1.32977292e-002 1.14734527e-002
      1.13637000e-002 5.21281268e-004 -8.32846202e-003 -1.21231331e-002
      -2.96283513e-003 6.73080375e-003 -3.31981457e-003 -1.52366806e-003
      8.73981602e-003 -7.47710292e-004 -7.31471786e-003 1.27589470e-003
      2.44522421e-003 -9.92001779e-003 8.78205150e-003 -3.92544962e-006
      2.40055757e-004 -1.59784313e-003 7.67578511e-003 -2.22939881e-003
      3.41624767e-003 -5.85753797e-003 -4.89155296e-003 4.86886827e-003
      4.80567600e-004 -1.18491966e-002 9.82842315e-003 -4.14095121e-003
      -4.71107289e-003 7.38228345e-003 6.40121335e-003 -8.48076120e-003
      1.65412272e-003 5.07486891e-003 -1.14953853e-002 -1.52012904e-003
      8.84105917e-003 1.97948259e-003 -1.82057638e-003 -1.60814524e-002
      -1.05289719e-003 1.24196084e-002 1.30233346e-002 6.07869076e-003
      -4.29583993e-003 -8.61441996e-003 -9.10883769e-003 4.36592102e-003
      7.44380290e-003 -2.67212489e-003 -3.19990213e-003 -5.66929672e-003
      7.85523502e-004 9.39452648e-003 1.08336378e-003 -2.47227796e-003
      3.42531246e-003 -4.39185183e-003 -4.43971483e-004 9.10482649e-003
      8.48673843e-003 -3.95835005e-003 -1.33712601e-003 -2.77914735e-003
      -8.88828537e-004 -2.11823918e-003 -1.31235574e-003
      -1.75127550e-003 2.29334971e-003 -1.72784331e-003 -7.15223199e-004
      5.37549099e-003 1.16659365e-004 -3.44598829e-003 -3.86240426e-004
      -5.51920291e-003 -2.82775494e-003 -2.15143687e-003
      -2.87772017e-003 4.39079537e-004 1.04636210e-003 -9.47260484e-003
      -8.52384698e-003 -3.25829205e-005 6.74989074e-003 -3.46990791e-003
      8.00032634e-003 -7.13887042e-004 -1.86655670e-003 1.48748653e-002
      8.03462416e-003 -2.69493507e-003 3.46779544e-003 -1.55415991e-003
      -8.22438672e-003 3.30802519e-003 9.17468406e-003 -1.21963618e-004
      3.51200602e-003 -6.94318116e-003 -7.73944054e-003 1.22199208e-002
      2.85829999e-003 -2.95579387e-003 -2.02101609e-003 -1.04549183e-002
      -1.89601071e-003 1.24463197e-002 1.47484187e-002 2.35848798e-004
      -6.35383278e-003 -1.86415145e-003 -3.21542961e-003 3.80568788e-003
      1.33483065e-002 3.49717424e-003 -1.52359167e-002 -6.10974850e-003
      -4.58470313e-003 5.22676157e-003 2.60284613e-003 2.71370867e-003
      2.83554359e-003 5.17997774e-004 -3.83084221e-003 -9.82557982e-003
      -5.38781332e-003 1.49017910e-003 -2.28809193e-003 1.02997129e-003
      1.98945357e-003 5.65387961e-003 1.76244471e-002 3.49031319e-003
      -5.62089868e-003 -2.58859224e-003 -1.85997458e-003 6.62479433e-004
      6.98710745e-003 -3.30694322e-003 -8.16187263e-003 -2.99249077e-003
      6.58293907e-003 -3.52828018e-003 1.18477913e-002 4.46605118e-004
      1.75663899e-003 7.47155258e-003 7.22438330e-003 4.56923299e-005
      6.05074340e-004 -1.20996442e-002 -9.77094099e-003 3.13510397e-003
      -8.13158508e-003 1.48119550e-004 1.36639019e-002 -2.11028638e-003
      -4.67884494e-003 -5.49319386e-003 -1.10351872e-002 3.41955852e-003
      1.41099384e-002 5.25883806e-004 -3.52708274e-003 -6.64433604e-003
      3.54168494e-003 1.38720835e-003 7.81117566e-003 -1.01962909e-002
      -1.13860974e-002 1.12756563e-003 4.16220259e-003 4.69918270e-003
      8.09512008e-003 -1.10556902e-002 -1.16530154e-002 -2.49918271e-003
      -1.19216219e-002 -5.69422438e-004 3.98974167e-003 -2.74225860e-003
      3.10632167e-003 -9.86513868e-003 -5.40335383e-003 -2.47459742e-003
      1.22332536e-002 6.82342192e-003 3.12995515e-003 -2.72854953e-003
      -1.68649934e-003 1.98326237e-003 -6.11590571e-004 -1.34748537e-002
      -9.31853987e-003 -9.63419955e-003 -7.86927715e-003
      -1.53231225e-003 5.17647900e-003 -2.29554274e-003 -5.79526706e-004
      -9.01157130e-003 -5.24851028e-003 7.78990192e-003 8.16963892e-003
      9.13492031e-003 1.53604634e-002 6.30154915e-004 2.50722957e-003
      1.64966974e-002 1.25084491e-002 4.97662928e-003 9.34881996e-003
      3.31762107e-003 -5.68135548e-003 1.45167410e-002 6.99764211e-003
      5.15005551e-003 -4.74727771e-004 -5.17540378e-003 2.22097267e-003
      1.77002382e-002 2.93708756e-003 2.47847079e-003 3.60794459e-003
      3.90496547e-003 -2.87298509e-003 6.58476376e-004 5.12673799e-003
      1.96229690e-003 -2.32797931e-003 3.02574917e-004 -1.69959699e-003
      9.35478602e-003 1.18990382e-003 -2.77270563e-003 -9.54609271e-003
      -2.57165404e-003 1.61182869e-003 1.06234122e-002 6.34515705e-003
      1.49895460e-003 -2.76531000e-003 -1.34802598e-003 4.89868177e-003
      1.22514404e-002 1.29743954e-002 8.92240088e-004 -7.24719279e-003
      2.24235308e-004 1.51058543e-004 1.47157051e-002 1.21485163e-002
      -5.41069917e-003 4.53488156e-003 5.29119186e-003 3.01653869e-003
      3.64482310e-003 -7.10825482e-003 -1.35402074e-002 -4.10552020e-004
      7.88227189e-003 4.36095661e-003 1.47955073e-002 1.12956529e-002
      -4.97641694e-003 -3.45525728e-003 -3.23793944e-003 1.81295502e-003
      -6.80389814e-004 -2.94990675e-003 -1.37969470e-002
      -1.19904066e-002 -3.36892233e-004 8.34959559e-003 7.05154426e-003
      6.72697905e-004 -1.61872264e-002 1.01537975e-002 1.75637770e-002
      7.24368636e-003 3.88658285e-004 -1.14265932e-002 -2.24586874e-002
      -1.37167592e-002 1.42472032e-002 9.87580046e-003 5.88859385e-003
      1.69437344e-003 -1.06808590e-002 -2.56118202e-003 1.50212552e-002
      2.82103731e-003 2.41643167e-003 -1.39121292e-002 -2.36979444e-002
      -9.11313295e-003 8.75784736e-003 1.04240207e-002 2.15218263e-003
      -8.34672712e-003 -1.53090805e-002 5.41594345e-003 1.68496612e-002
      5.73719619e-003 1.93043030e-003 -1.68325529e-002 -2.64589395e-002
      3.61436047e-003 6.98911631e-003 1.46151129e-002 7.92768039e-003
      -7.56095722e-003 -1.45584112e-002 9.57675651e-003 9.61588137e-003
      -3.01296799e-003 -8.95117503e-003 -1.76689494e-002
      -2.81010214e-002 1.26015011e-003 5.56047680e-003 7.82165304e-003
      1.08330920e-002 1.97220594e-003 -8.25385749e-003 3.62191955e-003
      1.21269794e-002 2.85656401e-003 -4.66232048e-003 -5.75944502e-003
      -4.65888996e-003 -1.06551675e-002 -4.17086668e-003
      -9.95430280e-004 2.06131415e-004 5.73428697e-004 -6.29940629e-003
      7.74296978e-003 8.47682916e-003 -1.36197032e-003 -5.03220642e-003
      -1.05397031e-002 -1.00129917e-002 -1.18336594e-002
      -5.89144882e-003 4.87343175e-004 9.12699034e-005 5.35201887e-003
      7.35697988e-003 3.76953604e-003 -3.75772198e-003 -2.56786682e-003
      -4.91068186e-003 -2.09139311e-003 2.21709348e-003 -6.95801852e-003
      -9.05501377e-003 5.51598659e-003 8.26742500e-003 6.16101723e-004
      7.22298108e-004 -1.30363915e-003 -1.06503507e-002 1.29572744e-003
      1.39851391e-003 -4.69847070e-003 -5.24551515e-003 -1.58744846e-002
      -1.67857669e-002 3.93664138e-003 3.33572109e-003 3.70782730e-003
      -8.59318592e-004 -1.48508488e-003 -1.46687571e-002
      -2.04509893e-003 5.72888041e-003 5.56616206e-003 8.34880571e-004
      4.37691342e-003 -1.80297047e-002 -1.21811056e-003 8.96893349e-003
      6.20810455e-003 -4.82821092e-003 -1.20810606e-002 -2.04750411e-002
      -6.11055130e-003 9.52921249e-003 1.18104853e-002 -5.82830398e-004
      -1.51642878e-002 -1.66097805e-002 4.41362150e-003 5.27393632e-003
      5.30727906e-003 1.94004364e-003 3.22826300e-003 -1.63707305e-002
      2.91505433e-003 5.23409015e-003 4.39981371e-003 6.91443030e-003
      1.15684688e-003 -1.28808869e-002 -6.66840584e-004 9.07335430e-003
      6.83700154e-003 8.30530596e-004 -1.32748308e-002 -1.29167186e-002
      2.99475691e-003 1.11631732e-002 -1.98993599e-003 2.75715417e-003
      -1.79050360e-002 -2.27412814e-003 1.88215898e-004 7.50072766e-003
      4.60877456e-003 6.57078112e-003 3.19639128e-003 -1.11155612e-002
      8.41949973e-003 1.44726234e-002 1.01393135e-002 2.22820789e-003
      -1.24806473e-002 9.15359764e-004 2.88884318e-003 8.18121340e-003
      4.49045235e-003 -3.34033649e-003 -1.81494374e-002 -1.49157317e-002
      7.44846929e-003 1.26740383e-002 8.22056644e-003 -7.32811447e-003
      -1.86819304e-002 -1.27062043e-002 -1.16684858e-003 1.05760396e-002
      9.10039339e-003 -6.22379314e-003 -9.73328482e-003 -3.50130931e-003
      -3.84168001e-003 9.10924468e-003 2.19551497e-003 -3.66156222e-004
      9.46830958e-003 1.77325483e-003 1.38606876e-003 1.87721997e-002
      8.25895288e-004 -1.37522146e-002 -1.75621174e-002 -1.31260045e-002
      1.23682246e-003 1.56666543e-002 4.35551163e-003 -1.60915009e-003
      2.08423124e-003 -6.05751178e-004 -6.97916886e-003 4.84810630e-003
      3.24492226e-003 -8.47152248e-003 1.41793555e-002 2.27534957e-003
      -6.06774632e-003 1.55277625e-002 5.16564492e-003 -1.21414289e-002
      2.75179860e-003 2.00210698e-003 2.63619027e-003 5.39197074e-003
      3.52982245e-003 -9.44023268e-005 5.15303668e-003 -8.50517536e-004
      6.37332350e-003 1.37453349e-002 1.11837350e-002 6.76748576e-004
      4.09368984e-003 -5.95895806e-003 -1.80751015e-003 1.46684200e-002
      2.88180634e-003 -5.64547721e-003 4.87490324e-003 -5.25617180e-003
      -3.04232963e-004 1.40930861e-002 3.94716999e-003 -5.57048852e-003
      9.34353191e-003 -6.23948348e-004 -1.29447319e-003 6.43790979e-003
      5.67484368e-003 -2.52063083e-003 7.62487622e-003 -2.52205809e-003
      -9.96502815e-004 1.36336014e-002 1.08371116e-002 1.04394055e-003
      1.12068160e-002 -2.72434531e-003 -5.29825082e-003 8.90555046e-003
      7.66109442e-003 -1.45413680e-004 6.82261214e-003 -1.02550928e-002
      -2.45912990e-004 1.11657102e-002 5.44273527e-003 1.93725759e-003
      -3.19197006e-003 -7.40597583e-003 -5.09181060e-003 1.78755764e-002
      1.28308088e-002 5.97731723e-003 6.46107970e-003 -7.74310529e-003
      -2.48316443e-004 2.24992782e-002 1.06101539e-002 1.16129685e-003
      -5.36099868e-003 -1.53893866e-002 -2.23312105e-004 1.05761839e-002
      4.62855957e-003 -6.99781999e-003 2.87689385e-003 -6.59418432e-003
      -1.73204776e-003 1.21988077e-002 3.15657258e-003 -7.04884529e-003
      -2.71982211e-003 -8.08910874e-004 5.45405666e-004 1.79545581e-002
      1.54563654e-002 -4.12463071e-003 9.02754441e-003 -1.39337499e-002
      -4.10763640e-003 1.38021875e-002 7.39706680e-003 -2.62669451e-003
      1.10347979e-002 -1.31707173e-002 8.80550186e-004 6.22654101e-003
      -1.56213262e-003 -4.54472005e-003 1.02563389e-002 2.76240101e-003
      -8.06081458e-004 -3.96093167e-003 -1.44902859e-002
      -8.89169052e-003 -1.17389066e-003 3.70740588e-003 4.17335564e-003
      9.56412591e-003 4.87604458e-003 -3.08487070e-004 3.36657604e-003
      -4.87473654e-003 3.23793781e-003 3.03033995e-003 -6.79012737e-004
      -1.73676969e-003 -6.11644518e-003 4.77665709e-003 9.26824228e-004
      -5.55955246e-003 -3.49200750e-003 -5.44169266e-003
      -3.28414445e-003 6.18911861e-003 -1.70516537e-003 -1.19356532e-003
      -9.23674263e-004 -1.24151148e-002 -6.35060947e-003
      -7.69009464e-004 6.74491143e-003 3.40952713e-004 7.87126180e-003
      3.68598703e-004 -6.29648287e-003 1.02485763e-002 -4.87774285e-003
      1.88761536e-004 7.84750096e-003 -4.55103256e-003 -9.29068495e-003
      -9.55873076e-003 -1.02189428e-003 4.52701142e-003 8.99708830e-003
      -9.81498696e-003 -1.00471275e-002 -1.66227482e-003
      -8.02947907e-004 2.67146295e-003 7.16467854e-003 -6.53933454e-003
      -1.07473629e-002 -6.14216458e-003 -3.08307994e-004 5.85783133e-003
      9.14006773e-003 -8.43017071e-004 -1.77681763e-002 -7.68318446e-003
      3.81758856e-003 2.74894573e-003 1.07273869e-002 4.34533413e-003
      -1.25525743e-002 -1.65283261e-003 -4.99275373e-003
      -2.73824763e-003 7.62169436e-003 -7.84991402e-003 -5.60005521e-003
      -1.98733131e-003 -4.73837648e-003 -5.95912989e-003 1.57286953e-002
      5.49306720e-003 -1.66528102e-003 -1.41039281e-003 1.35370914e-003
      -1.03272833e-002 1.24059999e-002 2.07588120e-004 -1.07034137e-002
      1.26233755e-003 -1.11146020e-002 -8.95598810e-003 1.21816853e-002
      2.50928011e-003 -2.85450858e-003 -9.04552732e-003 7.51245674e-003
      8.39759968e-003 8.56165367e-004 -2.09787767e-003 3.40554863e-003
      3.03601101e-003 7.85006862e-003 1.20444736e-002 4.05370397e-003
      -2.57986132e-003 1.27924851e-003 1.01298979e-002 1.19032599e-002
      2.73797964e-003 1.08897302e-003 -9.93773155e-003 -1.31241977e-002
      2.33513676e-003 5.14224730e-003 3.73314181e-003 3.99867859e-004
      -4.35011974e-003 -1.34488354e-002 2.29646126e-003 8.07021186e-003
      8.69150925e-003 8.26953631e-003 -3.35775292e-003 3.08612711e-003
      1.60899982e-002 6.58706715e-003 1.37678096e-002 1.27664674e-002
      -5.15490165e-003 -2.61387136e-003 8.28212406e-003 4.11300221e-003
      5.98698156e-004 6.64006593e-003 -8.05641059e-003 -9.33226384e-003
      5.85429231e-003 4.98750899e-003 -9.27898160e-004 -4.11124754e-004
      -7.06081325e-003 -1.07081383e-002 -4.34505614e-003 3.89806880e-003
      1.47206085e-002 1.09929480e-002 3.80178564e-003 8.70291796e-003
      3.98642337e-003 -2.04276666e-003 1.98102253e-003 -3.53692507e-004
      -3.30356788e-003 -3.10283038e-003 2.75012595e-003 1.17447157e-003
      4.88864398e-003 7.38662761e-003 4.83899843e-003 -6.50356337e-003
      -9.78046749e-003 -1.58206224e-002 -1.56880505e-002
      -7.96930492e-003 -5.23059582e-003 -7.88326189e-003
      -1.40414108e-002 4.60026972e-003 1.11726243e-002 1.23263495e-002
      2.34447932e-003 7.61723844e-003 1.00917453e-002 7.29587511e-004
      6.84007257e-003 -6.69581117e-004 -9.34278127e-003 3.26414965e-003
      9.54204611e-003 -1.50189819e-002 -3.28585389e-003 6.08651014e-003
      5.50576113e-003 6.04538899e-003 -1.03377039e-003 -1.99008696e-002
      4.11148532e-004 -6.59755757e-003 -1.05142163e-003 -1.14989476e-002
      -6.83703925e-003 5.65294037e-003 4.98883007e-003 -4.74028615e-003
      -1.18412506e-002 1.83028281e-002 1.31300129e-002 9.98199102e-004
      -2.61692586e-003 -4.69170744e-003 -9.28615499e-003 3.98295978e-003
      5.79153979e-003 -5.62251965e-003 1.80580784e-002 9.05033294e-003
      4.05844679e-004 -9.34997297e-006 -7.67974462e-003 -1.10017147e-003
      1.85560789e-002 -2.71908590e-003 -4.09271615e-003 -8.40704516e-003
      -1.47114014e-002 7.43358760e-005 6.96178665e-003 1.39898143e-003
      -2.85177818e-003 9.91055183e-003 2.06876826e-003 1.09846366e-003
      1.00593362e-002 -6.75824936e-003 -1.08414311e-002 -1.62531994e-003
      -9.91600659e-003 -2.60852207e-003 1.50373317e-002 -1.33975537e-003
      5.93799818e-003 -3.58660892e-003 -1.44218178e-002 -4.41970956e-003
      4.15572105e-003 -4.36052820e-003 -6.77723554e-004 -1.36907073e-002
      -8.22713599e-003 6.27296232e-003 1.60627849e-002 -1.42691482e-003
      -4.25504846e-003 6.00304315e-003 -5.45046898e-003 6.96632778e-003
      7.82237574e-003 -9.76285059e-003 -7.17331748e-003 -1.22260163e-002
      -1.37675386e-002 1.02525484e-003 1.20627964e-002 8.00817739e-003
      1.28551014e-003 -2.92629632e-003 -2.07019388e-003 4.22733184e-003
      1.01015214e-002 -4.96560009e-003 -7.95793161e-003 -1.09595908e-002
      -1.51913734e-002 2.95746047e-003 1.10763833e-002 3.66769289e-003
      4.60534124e-003 -1.06750028e-002 -1.85799189e-002 -1.27763243e-003
      1.06499093e-002 6.48894580e-003 3.05838091e-003 -1.40470229e-002
      -1.38611412e-002 7.64804939e-003 1.20945256e-002 -2.59185210e-004
      2.63785338e-003 -1.14207976e-002 -1.04677072e-002 9.21063498e-003
      1.08839786e-002 4.38696751e-003 3.56991496e-003 -1.20181097e-002
      -1.25048356e-002 6.19382644e-003 1.11234663e-002 5.76493237e-003
      -7.22022145e-004 -9.74428747e-003 -4.04102169e-003 9.04135313e-003
      8.81424453e-003 2.48829339e-004 -5.48735959e-004 -2.46385764e-002
      -1.02169672e-003 1.48393167e-002 6.62526768e-003 7.25671090e-003
      8.61773826e-003 -1.52992615e-002 -3.77806975e-003 6.53319433e-003
      1.34482775e-002 7.07436213e-003 3.56628629e-003 -2.42596101e-002
      -4.00861446e-003 6.14271732e-003 4.60325321e-003 7.49298790e-003
      -2.58863438e-003 -1.60600543e-002 -1.58182008e-003 4.21023415e-003
      1.31018199e-002 1.07394792e-002 -9.54210409e-004 -1.78966150e-002
      3.46482219e-003 1.11033702e-002 7.50983460e-003 1.36498641e-002
      3.71379661e-003 -1.42943803e-002 -7.83507712e-003 1.40328966e-002
      9.36601218e-003 1.02909464e-004 -1.72675808e-003 -2.12149732e-002
      5.31617133e-003 3.59828630e-003 1.33382548e-002 1.77968713e-003
      -9.52757336e-003 -1.75995473e-002 5.17449528e-003 1.25229619e-002
      9.16012563e-003 1.09874615e-002 4.47302172e-003 1.34988630e-003
      9.62418597e-003 8.77808314e-003 5.45969419e-003 -6.12399261e-003
      -1.23917004e-002 -2.82358490e-002 -2.73071113e-003 1.41038224e-002
      9.08580981e-003 9.56593733e-003 6.93395268e-004 -1.77436247e-002
      3.13894590e-003 9.47860768e-004 -5.89613104e-003 1.41364103e-003
      3.63635435e-003 5.49196079e-003 6.01910520e-004 1.66920817e-003
      2.65623350e-003 2.76637892e-003 5.86121529e-003 4.30075265e-003
      -3.18009895e-003 2.09761225e-003 2.88595445e-003 2.60059652e-003
      -2.74603558e-003 -9.60110128e-003 -2.78574065e-003
      -3.01173818e-003 9.15008038e-003 6.68224413e-003 -1.31198019e-003
      1.01416744e-003 5.67683019e-003 -2.05538888e-003 -1.30887551e-003
      6.34924392e-004 -4.50791745e-003 1.17397895e-002 -5.53083699e-003
      -3.67131061e-003 7.21279671e-003 4.67300555e-003 4.46271989e-003
      7.03693042e-003 -4.69714636e-003 -5.09013329e-003 1.24033513e-002
      8.95166211e-003 -2.14921031e-003 7.25380564e-003 -3.71125876e-003
      -5.64354751e-003 1.05796969e-002 8.27319082e-003 1.42932485e-003
      1.35562187e-002 -4.86664474e-003 5.36634703e-004 1.35846501e-002
      9.57172178e-003 1.45285472e-003 2.96859327e-003 -7.81000266e-003
      -8.10680166e-003 1.60219222e-002 8.35686922e-003 -2.72440072e-003
      -6.84801070e-003 -1.04582999e-002 -4.18312196e-003 4.19310946e-003
      5.35330130e-003 1.33771193e-003 2.17532483e-003 -8.92708916e-003
      -9.10205673e-003 5.54984203e-003 1.11927548e-002 7.56639056e-003
      -2.11765943e-003 -1.63092110e-002 -8.07118043e-003 1.23655936e-002
      9.32089426e-003 -8.90477735e-004 5.45778638e-003 -1.22805154e-002
      -6.45984523e-003 3.82289826e-003 6.65450795e-003 -2.26599374e-003
      -2.28085759e-004 -8.87984224e-003 -4.97346791e-003 1.16307698e-002
      1.06251277e-002 5.78516116e-003 5.84743125e-003 -1.44903855e-002
      -2.27559893e-003 1.22975577e-002 9.67824459e-003 5.31491870e-003
      -8.00275616e-003 -1.24747176e-002 -4.76944871e-004 1.04357547e-003
      9.42779705e-004 -5.11080353e-003 -3.72471567e-003 -7.20351096e-003
      6.06120564e-003 6.23034430e-004 5.28879603e-003 -3.20431637e-003
      -1.41239418e-002 -1.22103246e-003 9.24998429e-003 9.58813727e-003
      1.27781101e-003 3.67517909e-003 -7.79687427e-003 -3.68608302e-003
      4.61175619e-003 4.44103125e-003 1.69329625e-003 8.40636622e-003
      -7.70516647e-003 -1.15677575e-002 5.09653427e-003 -3.45452991e-003
      4.45565581e-003 -1.72512792e-003 -6.12941990e-003 -8.61637527e-004
      -2.91921804e-003 -4.85990022e-004 -3.01771855e-004
      -4.47990466e-003 -1.53844841e-002 -4.39631008e-003
      -3.81577830e-003 1.31440584e-005 4.05845325e-003 9.61303338e-003
      2.69039860e-003 -9.48196184e-003 -3.92772490e-003 5.82254957e-004
      -5.61643252e-003 3.45271197e-004 -4.10820404e-003 -5.62602561e-003
      5.01384633e-003 4.93714865e-003 3.45215178e-003 -2.89971498e-003
      -1.53851090e-002 2.25797319e-003 7.34039582e-003 -3.91911995e-003
      4.63973545e-003 -5.30190440e-003 -1.95784103e-002 1.79383915e-003
      3.17993318e-003 -2.36473876e-004 4.40288847e-003 3.03941988e-003
      -1.32067986e-002 2.49807001e-003 -1.53827691e-003 -2.73264875e-003
      1.65089928e-002 2.82449578e-003 -2.36673821e-002 -9.73657705e-003
      2.77248234e-003 -4.05087508e-003 1.16719333e-002 -2.37224507e-003
      -1.66917369e-002 5.96786104e-003 5.52993268e-003 2.52851096e-005
      1.04452940e-002 -4.80819913e-003 -1.01983575e-002 3.86077235e-003
      -3.46261775e-003 3.07251909e-003 2.19610333e-002 1.00475620e-003
      -1.90986022e-002 -7.51196919e-003 1.65755034e-003 -1.85496558e-003
      7.31388666e-003 8.33996106e-004 -1.38836019e-002 -3.16664414e-003
      1.20931743e-002 7.33288238e-003 7.28099560e-003 -6.17394038e-003
      -8.91430862e-003 7.88846612e-003 1.08057093e-002 1.39961522e-002
      2.95493403e-003 -2.30846950e-003 -9.53855831e-003 2.95012468e-003
      1.68726838e-003 9.30728763e-003 7.95653742e-003 1.77251780e-003
      -1.54422509e-004 -1.60534016e-003 3.43721174e-003 7.68507039e-003
      3.48940887e-003 -7.13654561e-003 -1.66787989e-002 -2.54522660e-003
      6.89181173e-003 1.34533914e-002 1.53437797e-002 -3.62417963e-003
      -2.72519654e-003 1.13552175e-002 -7.55034562e-004 3.93645791e-003
      9.70873050e-003 8.96865749e-005 -5.19844191e-003 2.08925735e-003
      -5.41735021e-003 1.63780048e-003 1.02312313e-002 -1.25425949e-003
      -1.66969188e-002 -4.05128021e-003 -1.00150071e-002 2.52639083e-003
      3.41921463e-003 -1.58178897e-004 -1.06245894e-002 -1.01134004e-002
      8.69154930e-004 1.44704906e-002 1.81212593e-002 1.25289988e-002
      7.37283658e-003 8.28996326e-006 -7.58981798e-003 3.17305559e-003
      1.08794949e-004 6.36249594e-003 8.71665998e-006 -6.73700264e-003
      -4.97193728e-003 1.18711600e-002 9.99908894e-003 6.21540984e-003
      1.08576955e-006 -6.98372768e-003 -1.20823551e-002 8.99119861e-003
      -1.15987367e-003 1.08115363e-003 -4.71169082e-003 -1.26699880e-002
      -3.88467684e-003 1.03718676e-002 1.24093452e-002 1.48113044e-002
      1.54205933e-002 5.14275627e-003 -6.21278817e-003 1.20051624e-002
      1.19168246e-002 9.01409332e-003 -8.07450444e-004 -6.22192537e-003
      -7.68181868e-003 1.19239194e-002 6.77321851e-003 1.02107376e-002
      1.86561700e-003 -1.39625976e-002 -2.01211404e-002 2.81490455e-003
      2.73119821e-003 8.41543265e-003 -9.29836649e-003 -2.11982373e-002
      3.18574440e-003 2.27336306e-002 1.79586541e-002 8.36212561e-003
      6.06089458e-003 -9.48423240e-003 4.74683335e-003 2.11504418e-002
      1.03229387e-002 1.78742222e-003 -1.07023977e-002 -8.76306184e-003
      -1.06816133e-002 1.56391039e-002 1.29907141e-002 4.58749197e-003
      -3.94697906e-003 -1.41800195e-002 8.60864762e-004 1.69121046e-002
      8.64920206e-003 -1.72889605e-003 -1.42471781e-002 -1.70186125e-002
      3.99502693e-003 1.85671058e-002 1.27535034e-002 5.83210355e-003
      1.78736562e-004 -8.88801366e-003 3.57961492e-003 1.15889153e-002
      8.78329203e-003 8.26096907e-003 1.17845507e-003 -3.21026659e-003
      2.99223070e-003 1.34989321e-002 6.91942032e-003 8.14668648e-003
      -1.13239270e-002 -9.88711696e-003 -7.02949334e-003 1.02523668e-002
      5.80065325e-003 4.93369764e-003 -1.17937839e-002 -1.03593236e-002
      2.99463281e-003 1.32250292e-002 1.16669899e-002 3.30679421e-003
      -1.45751389e-003 -4.70466912e-005 1.71280222e-003 1.15869865e-002
      4.66345390e-003 -5.84702659e-003 -1.65335666e-002 -1.18538225e-002
      -3.90660297e-003 1.44111570e-002 1.23723214e-002 2.29749805e-003
      -2.67770258e-003 -7.34920427e-003 -6.97941659e-003 1.29944040e-002
      1.48972478e-002 -1.54401595e-003 -9.65134241e-003 -1.57583375e-002
      1.05572799e-002 9.17565543e-003 5.59502095e-003 -2.57844571e-004
      -1.47644794e-002 -1.22889616e-002 1.79512985e-002 9.36654955e-003
      7.97085371e-003 4.81733354e-004 -9.10346303e-003 -1.54505726e-002
      -7.09512155e-004 1.22030983e-002 1.19421687e-002 1.47125614e-003
      -1.35528389e-002 -1.46287838e-002 6.21570274e-003 1.37124183e-002
      5.73238777e-003 4.06869641e-003 -1.76524222e-002 -1.63119715e-002
      1.37222791e-002 2.89620319e-003 7.62400357e-003 2.31656712e-003
      -1.31405219e-002 -1.07106036e-002 4.51361341e-003 8.03927053e-003
      4.75038169e-003 -3.51767219e-003 -2.36177538e-002 -5.83624095e-003
      1.33206630e-002 8.99491459e-003 8.34659301e-003 7.47631723e-003
      -1.85987465e-002 -1.22946454e-002 6.85869530e-003 1.61439329e-002
      1.44624496e-002 -5.56203187e-004 -1.41112618e-002 -1.43698575e-002
      9.13645979e-003 1.45238498e-002 9.81731992e-003 -1.14983949e-003
      -1.36790657e-002 -4.01618006e-003 1.28234997e-002 7.85858650e-003
      4.94266255e-003 -5.14852302e-003 -1.82813313e-002 3.36786010e-003
      3.86109087e-003 1.84948016e-002 1.45689659e-002 6.73159841e-004
      -1.67383626e-002 -1.22355483e-002 1.19647356e-002 8.19122512e-003
      8.49376898e-003 -1.83838932e-003 -2.48815604e-002 -4.10976214e-003
      1.48263415e-002 -1.08215911e-003 -6.00328762e-003 -9.57355928e-003
      -2.02702992e-002 6.18839543e-003 1.31863626e-002 2.51119863e-003
      -3.96670046e-004 -1.18944224e-003 -8.26614536e-003 5.29148243e-003
      1.83700472e-002 -6.72866357e-004 -2.43373914e-003 -5.12435613e-003
      -1.89911034e-002 6.83655357e-003 2.21345983e-002 -5.06407407e-004
      -4.61962074e-003 1.03415409e-003 -1.26153920e-002 9.18405131e-003
      5.91772422e-003 -2.53972458e-003 -1.99196720e-003 -5.60318073e-003
      -1.04463939e-002 3.50841018e-003 1.11002121e-002 3.48097133e-003
      9.50806402e-003 1.26470132e-002 1.15319649e-002 1.34652210e-002
      8.20251368e-003 -4.28438978e-003 -5.23719937e-003 -2.65977718e-003
      -1.55318333e-002 1.38293137e-003 7.39182113e-003 -1.90561032e-003
      7.29087461e-003 7.31449388e-003 -1.03283487e-003 9.13113914e-003
      2.64702807e-003 4.86485660e-003 6.06585108e-003 3.40017537e-003
      7.06885289e-003 -1.39079790e-003 4.96103521e-003 6.04878413e-003
      5.33111580e-003 3.18246265e-003 4.58468404e-003 5.00013260e-003
      -2.29126541e-003 -3.28422734e-003 -3.60324048e-003 2.52415123e-003
      7.25357095e-004 -3.49164591e-003 6.50117127e-003 -2.78813578e-003
      -1.77864113e-003 4.03830223e-003 7.13127258e-004 -5.03915874e-003
      -9.76748182e-004 4.45485488e-003 4.28217137e-003 3.43064102e-003
      1.65532890e-003 -6.37206156e-003 -5.39408345e-003 9.21112206e-003
      1.63687058e-002 7.64843449e-003 -7.25621881e-004 -1.02264509e-002
      9.88316839e-004 2.73986021e-003 -3.98247736e-003 8.73644091e-003
      4.40758769e-004 -1.43163735e-002 2.22245348e-004 1.32643469e-002
      4.40060254e-003 5.08592930e-003 3.77350429e-004 -2.26824842e-002
      -1.31027168e-003 7.18957512e-003 9.31892730e-003 5.53779444e-003
      -4.10679728e-003 -1.46659268e-002 3.83664999e-004 1.81556325e-002
      1.52838323e-002 3.35168373e-003 -1.02538709e-002 -9.49430186e-003
      3.72715225e-003 1.20245246e-002 3.07458732e-003 8.27515498e-003
      7.88262021e-003 -1.62491463e-002 2.50095036e-003 2.22440436e-002
      1.41547443e-002 1.44348256e-002 -3.46193952e-003 -1.22275669e-002
      3.39389284e-004 1.23884669e-002 5.97212976e-003 -2.65917392e-003
      -1.18802655e-002 -1.34623526e-002 -1.02204345e-002 9.07197595e-003
      1.29601853e-002 1.95574225e-003 -6.02070382e-003 -2.07730960e-002
      4.65992698e-003 1.77534129e-002 1.26051949e-002 1.66971255e-002
      -5.05037000e-003 -1.25626298e-002 1.50984735e-003 1.97194163e-002
      2.29876433e-002 5.22430940e-003 -5.20545524e-003 -1.29400054e-002
      -7.79830385e-003 5.50449081e-003 1.04646264e-002 7.92381726e-003
      7.89179641e-004 -1.12545509e-002 -6.33649668e-003 5.55449212e-003
      3.77614331e-003 -4.27978486e-003 -2.05851835e-003 -9.66840889e-003
      1.29392440e-003 1.84378810e-002 2.46616006e-002 2.68718461e-003
      -5.65849058e-003 -7.26415822e-003 1.40028610e-003 1.45083135e-002
      1.13232750e-002 -1.56239688e-003 -6.86606206e-003 -8.06256942e-003
      -1.81554432e-003 7.94977299e-004 3.65101895e-003 -3.56472516e-003
      -4.27253218e-003 -9.06324200e-003 -1.47237713e-002
      -6.25477685e-003 1.27506079e-002 1.21888891e-003 -1.40450383e-002
      -1.65684987e-002 4.83329734e-003 1.29469819e-002 1.15331588e-002
      3.39072291e-003 -7.06133572e-003 -2.06573866e-003 -3.80459544e-003
      2.89724628e-003 1.10074086e-002 -1.38406770e-003 -1.01501225e-002
      -7.94431381e-003 -7.18025211e-003 2.91931140e-003 2.28538103e-002
      -2.91353348e-003 -1.29138855e-002 -6.41587703e-003
      -7.30579579e-003 2.84191949e-004 9.07280855e-003 3.81667353e-003
      -1.00307092e-002 6.00800011e-003 -1.62609830e-003 5.56365540e-003
      1.39406323e-002 -1.29427365e-003 -1.29100765e-004 3.99817945e-003
      5.32745663e-003 -2.95798108e-003 5.77033777e-003 -6.14491233e-004
      3.61327222e-003 1.05884317e-002 3.75617528e-003 3.46096698e-003
      1.01574454e-002 3.46816494e-004 -3.02745216e-003 -3.62580846e-004
      6.98678137e-004 8.56578443e-003 7.86844268e-003 -7.89491285e-004
      -2.16666497e-002 -4.91832616e-003 -5.99256367e-004 6.87749765e-004
      9.01397318e-003 5.72602032e-003 -6.55457703e-003 1.56203401e-003
      1.06473279e-003 1.47779407e-002 3.78148863e-003 -5.46073494e-003
      -2.08419710e-002 -1.55467056e-002 5.60116582e-003 8.27789586e-003
      1.68640167e-002 9.68719460e-003 -8.17452651e-003 -1.49803713e-003
      -7.54790846e-003 5.43146580e-003 8.57720338e-003 -2.13383767e-003
      -1.11602852e-002 -6.48452202e-003 4.15120623e-004 1.43987564e-002
      1.06407749e-002 7.02497549e-003 -9.81302932e-003 -1.59020014e-002
      -1.01823744e-003 6.69475086e-003 8.89122766e-003 -4.02603950e-003
      -1.24116316e-002 -1.06782587e-002 3.85564822e-003 1.73565149e-002
      1.20634139e-002 6.86162105e-003 8.29310273e-004 -8.32058140e-004
      -3.22888372e-004 1.95392761e-002 -1.33790041e-003 -1.29921064e-002
      -1.54846208e-002 -8.19591247e-003 9.10123345e-003 1.67072285e-002
      1.44388881e-002 6.12810627e-003 1.17475190e-003 2.56963517e-003
      -2.39495668e-004 1.33953141e-002 2.40903581e-003 -1.22609045e-002
      -2.01583356e-002 -5.75249223e-003 8.53389595e-003 1.85419358e-002
      1.07451603e-002 2.58567859e-003 5.51585294e-003 -8.44664779e-003
      -1.12481997e-003 5.52245276e-003 2.48041633e-003 3.61131388e-003
      -4.35739802e-003 -7.48447329e-003 5.84285287e-003 2.58858949e-002
      1.75514258e-002 2.47262564e-004 -5.49908075e-003 -1.00916403e-003
      2.45456281e-003 9.71306860e-003 8.55243858e-003 1.53769075e-003
      -1.52100930e-002 -1.14573073e-002 4.89912787e-003 1.56533588e-002
      1.05038155e-002 5.06525394e-003 1.00015886e-002 3.67475732e-004
      5.18686138e-003 1.76704153e-002 1.03371423e-002 2.01944658e-003
      -6.71875721e-004 -5.55615779e-003 -1.11118157e-003 9.76144802e-003
      1.18237212e-002 2.22597457e-003 -9.20742098e-003 -5.87136624e-003
      -6.61754608e-003 1.19905695e-002 1.40431738e-002 7.93996733e-003
      -4.03708499e-003 -1.04965409e-002 4.13915748e-003 1.13987541e-002
      7.77113810e-003 6.13161689e-003 5.91576518e-003 -6.61793957e-003
      7.91200157e-003 1.61814988e-002 8.53026658e-003 4.92544007e-003
      3.33735859e-003 -7.95281213e-003 -6.70999940e-003 1.73842646e-002
      1.81055386e-002 8.06660764e-003 2.72049638e-003 -2.03792267e-002
      -1.91453868e-003 2.09356602e-002 9.31789167e-003 6.22901833e-003
      1.55160110e-003 -1.39768878e-002 9.38450359e-003 2.32735556e-002
      1.01745669e-002 5.07552270e-003 2.66569550e-003 -5.68107096e-003
      5.57098817e-003 2.08529029e-002 1.38145853e-002 5.58144471e-004
      -6.61909860e-003 -9.57562122e-003 5.56307612e-003 1.58783216e-002
      1.98850525e-003 7.96603225e-003 1.81695388e-003 -9.40126088e-003
      3.81833920e-003 2.00008806e-002 1.16076740e-002 6.47929404e-003
      -1.99070033e-002 -1.88479014e-002 7.96596613e-003 1.14934007e-002
      1.59816183e-002 6.37823017e-003 -1.20474882e-002 -1.87290013e-002
      7.33745983e-003 6.04678458e-003 1.24531332e-002 7.22929696e-003
      -6.91742823e-003 -1.82318129e-002 3.17642232e-003 1.12297842e-002
      1.83178559e-002 9.62958299e-003 -2.20340528e-002 -2.32878588e-002
      -2.83255242e-004 1.06908046e-002 1.70167424e-002 2.27084346e-002
      -1.37627665e-002 -1.65761467e-002 5.58522763e-003 3.68964113e-003
      6.43579895e-003 6.28834916e-003 -1.42649449e-002 -1.65153146e-002
      6.07591262e-003 1.65912844e-002 1.43710552e-002 6.65310211e-003
      -1.61442384e-002 -2.33661383e-002 -9.49932204e-004 5.80512825e-003
      6.47723861e-003 1.16765443e-002 -1.10409427e-002 -1.83364414e-002
      -2.20341864e-003 2.33463515e-002 9.03111137e-003 6.10838039e-003
      -1.88809521e-002 -2.34585572e-002 -8.59483902e-004 1.48968631e-002
      1.18856989e-002 2.41122697e-003 -1.76312756e-002 -1.65640879e-002
      2.81034014e-003 -8.45617556e-004 5.98953292e-003 -1.95508148e-003
      -1.84628963e-002 -9.73503105e-003 1.21814397e-003 8.61658342e-003
      -2.02635274e-004 5.99692576e-003 -1.71794891e-002 -1.61187723e-002
      1.00688180e-002 -7.14883581e-003 3.71379498e-003 -4.67730965e-003
      -1.84205472e-002 -3.06777284e-003 5.29154669e-003 -1.50546739e-002
      -8.89113080e-003 -9.44950618e-003 -1.35689834e-002
      -2.59376457e-003 8.56957026e-003 -1.63170658e-002 -6.98040426e-003
      7.08235602e-004 -1.00009488e-002 3.77593259e-003 8.94257054e-003
      -7.96553865e-003 -3.32862861e-003 -6.78339507e-003
      -1.67499818e-002 4.30106913e-004 1.61670670e-002 -7.88629800e-003
      -7.26469094e-003 -1.04478863e-003 -6.53253868e-003 9.39730089e-003
      -1.07507536e-003 -1.21135861e-002 3.70580540e-003 3.88886780e-003
      -1.48458444e-002 -5.66595350e-004 -3.37096979e-003
      -6.76216045e-003 6.86446205e-003 6.16711192e-003 -7.68789742e-003
      2.81628780e-003 1.16615770e-002 -9.10328142e-003 -5.20464219e-003
      -6.43323082e-003 -1.02840345e-002 1.16965314e-002 7.35853706e-003
      8.69059120e-004 -9.64769337e-004 5.94291021e-004 -8.30063969e-003
      4.55783959e-003 7.06494262e-004 -6.00384036e-003 -1.22616300e-003
      3.98637308e-003 -1.33496884e-003 -1.16775092e-003 4.89629060e-003
      -7.58724241e-003 -1.50074402e-006 1.24300597e-002 8.87044589e-004
      5.23567141e-004 3.66292894e-003 -2.84778955e-003 -4.08101641e-003
      -4.62547923e-003 -1.18304556e-002 -8.45176820e-003 3.95678729e-003
      -1.24706549e-003 1.12863968e-003 6.01238664e-003 -3.09983897e-003
      -7.02786678e-003 -1.76760822e-003 -1.02661615e-002
      -3.31281545e-003 8.04160163e-003 7.80523929e-004 -1.13416547e-002
      -2.75442639e-004 6.28029555e-003 -3.55045369e-004 9.40302946e-003
      -3.85094574e-003 -1.38096651e-002 9.42403858e-004 -1.39827083e-003
      -6.70238910e-003 -3.47099616e-003 -1.05014872e-002
      -1.17901890e-002 1.49378171e-002 5.97449020e-003 -5.39711490e-003
      8.04763054e-004 -6.72476180e-003 -1.04711233e-002 -3.69422929e-003
      5.97304525e-003 -2.16744049e-003 5.20650716e-003 -3.31387389e-003
      -2.06611510e-002 -2.63256114e-003 7.01739173e-003 6.49114605e-003
      4.58646100e-003 -5.28124487e-003 -1.11208735e-002 6.58390671e-003
      4.16020257e-003 -2.00415170e-003 7.01849675e-003 -1.36415390e-002
      -1.41850589e-002 -8.85859889e-004 4.01617866e-003 9.43384785e-003
      1.12598594e-002 -9.22492985e-003 -1.27405887e-002 -1.42490026e-003
      5.05429273e-003 8.12563114e-003 7.45929964e-003 -8.35677795e-003
      -1.56824570e-002 -3.98346875e-003 1.07353954e-002 1.41678695e-002
      -2.35232664e-003 -2.11530048e-002 -7.54797366e-003 1.93395745e-003
      3.37260496e-003 7.81901064e-004 5.54646039e-003 1.75763364e-003
      -4.64674755e-004 -9.31530539e-003 4.86341567e-004 6.45609852e-003
      8.45943810e-004 -1.07948622e-002 -1.37863318e-002 1.46066351e-003
      1.06009701e-002 1.41033810e-002 -6.50647050e-003 -9.10993852e-003
      -4.60636662e-003 -4.83290199e-003 1.22875655e-002 8.12219083e-003
      -6.63361931e-003 -9.85330623e-003 -8.54369067e-003
      -5.02760289e-003 -5.40863490e-003 9.13350377e-003 5.43911150e-003
      -1.12798368e-003 -4.02345229e-003 -5.12087159e-003 1.33057206e-003
      1.15337055e-002 3.75001365e-003 -7.30500789e-003 -1.44123882e-002
      -1.52552628e-003 8.62683356e-003 9.78614204e-003 -2.30103382e-003
      -1.47268130e-002 -2.10752431e-003 -1.28225051e-002
      -1.94503437e-003 6.78492570e-003 -5.18118776e-003 -2.06364691e-002
      -8.01153854e-003 -2.18311138e-003 4.53107664e-003 1.37732914e-002
      7.54003925e-003 -4.19788156e-003 -5.90444636e-003 -1.18364245e-002
      -3.09536280e-003 9.73602850e-003 3.40379728e-003 -2.33099214e-003
      -1.08486069e-002 -9.25734919e-003 -1.95679720e-003 4.84611560e-003
      -9.78280511e-003 -4.18130122e-003 6.79547607e-004 1.69137714e-003
      -4.97915782e-003 -4.08226904e-003 -1.51622081e-002
      -7.59681407e-003 1.40146669e-002 -5.95188094e-003 4.80223540e-003
      2.35763402e-003 3.18771647e-003 7.87534285e-003 4.32705414e-003
      8.72724596e-003 1.99469761e-003 -3.96280782e-003 -6.21639332e-003
      1.07262433e-002 1.55231645e-002 1.14964452e-002 9.36183147e-003
      5.60439751e-003 1.13531621e-002 4.69741877e-003 7.35208206e-003
      1.07068000e-002 1.58996060e-002 3.96245765e-003 -5.73911658e-003
      -6.14480441e-003 -6.47726178e-004 8.40232149e-003 3.64922755e-003
      -2.74769799e-003 -4.65509918e-004 -1.15711773e-002
      -9.36679356e-003 -1.02214329e-002 -7.27285922e-004
      -1.67499147e-002 -2.35567186e-002 -1.49762733e-002
      -2.10359432e-002 8.74904729e-003 1.60773210e-002 1.44096166e-002
      6.79421239e-003 7.28175044e-003 4.63309744e-003 1.73453684e-003
      1.05261244e-002 1.39453309e-002 1.49639798e-002 -5.91206946e-004
      -4.86714765e-003 -1.39103197e-002 7.72999600e-003 3.25837312e-003
      4.65716980e-003 4.36223019e-003 -1.00899208e-002 -2.65845414e-002
      2.96859583e-003 7.44360965e-003 5.41035272e-003 -4.01866389e-004
      -3.31842303e-002 6.69414550e-003 1.67058147e-002 1.40388617e-002
      1.11317830e-002 1.18366182e-002 -1.35702465e-003 -6.79780278e-005
      2.00287662e-002 1.29981916e-002 -3.19763925e-003 4.15112497e-003
      -3.65215307e-003 -1.79456528e-002 1.84678044e-002 1.41819511e-002
      1.64834857e-002 8.20082799e-003 -2.55777817e-002 -9.09782201e-003
      1.64797679e-002 9.59858578e-003 1.00584533e-002 -3.01013980e-003
      -2.07612067e-002 2.35606590e-003 1.79003850e-002 1.65950824e-002
      6.37810444e-004 9.12890211e-003 -4.77340212e-003 -1.07953055e-002
      7.71880196e-003 1.26596298e-002 -9.20877210e-005 -2.42149970e-003
      -1.22958925e-002 -6.99930964e-003 8.09729937e-003 1.69287231e-002
      1.06789479e-002 1.23572359e-002 -1.10476082e-002 -1.22513324e-002
      -1.30808633e-003 1.29253268e-002 4.56829788e-003 5.72739821e-003
      -1.07067926e-002 6.00276631e-004 9.27476026e-003 9.71460994e-003
      2.56750686e-003 7.52465392e-004 -3.12255142e-004 -2.43247370e-003
      1.02388598e-002 8.54241475e-003 2.64649629e-003 -3.13312258e-003
      -4.20648325e-003 -5.24588209e-003 9.57595930e-003 8.62841588e-003
      6.21802919e-003 1.32577401e-002 1.66930631e-003 -4.62472113e-003
      1.92873664e-002 7.96725601e-003 1.05666334e-003 7.38278555e-004
      -1.11325327e-002 -3.05578625e-003 1.45300534e-002 1.53605491e-002
      3.82272992e-003 4.51146113e-003 -1.59411095e-002 4.17272840e-003
      2.02719793e-002 1.46999890e-002 6.88670622e-003 5.07829897e-003
      -1.65287312e-002 -3.05675581e-004 1.86245814e-002 1.23024601e-002
      1.23157946e-003 -1.29061996e-003 -1.62349641e-002 -4.69754543e-003
      1.86912920e-002 2.26353407e-002 1.69333555e-002 -4.71169036e-003
      -1.61660891e-002 9.57278814e-003 1.10362992e-002 5.06158173e-003
      1.06978025e-002 7.34254811e-003 -1.32084237e-002 9.54071153e-003
      1.69195421e-002 1.14901233e-002 9.65111423e-003 -6.63024466e-003
      -1.98089965e-002 2.47843534e-004 1.48521224e-002 1.44953430e-002
      2.00515687e-002 -3.72404722e-003 -2.60514375e-002 -2.92901550e-005
      1.95534173e-002 1.26356333e-002 1.98301580e-002 -1.41600817e-002
      -2.30875723e-002 1.11102685e-002 1.57757346e-002 1.23475902e-002
      1.23008331e-002 -6.55581709e-003 -1.98513661e-002 1.43380426e-002
      2.14905608e-002 1.60226654e-002 9.37095843e-003 -4.43284074e-003
      -1.68460589e-002 -9.18006626e-005 1.76606011e-002 6.83117565e-003
      1.33382427e-002 -1.32181300e-002 -1.94520596e-002 -1.21988787e-003
      1.60997789e-002 1.26123661e-002 1.20197097e-003 -1.00996513e-002
      -2.01813225e-002 6.41121995e-003 1.22319032e-002 8.87498166e-003
      3.64420633e-003 -7.07764365e-003 -2.69881524e-002 7.62936240e-003
      2.20005084e-002 6.96689822e-003 3.93718015e-003 -5.76283177e-003
      -1.67858675e-002 1.12444293e-002 1.53326979e-002 1.51013825e-002
      -4.61825170e-003 -1.70396846e-002 -1.79774445e-002 1.06990021e-002
      1.78692825e-002 1.69122741e-002 9.39067919e-003 -1.26324594e-002
      -1.84330512e-002 5.38154133e-003 4.29657940e-003 -7.24423211e-003
      -2.54531880e-003 -1.45245213e-002 -1.42203197e-002 1.35365911e-002
      3.57829500e-004 -5.79445204e-003 -8.16609710e-003 -1.67749804e-002
      -1.53066462e-003 4.26814519e-003 -1.60046766e-004 -1.53851660e-003
      6.25619944e-003 -7.26257311e-003 -7.53511395e-003 1.84654202e-002
      6.65803626e-003 -2.02600216e-003 -7.38037145e-003 -8.62110127e-003
      -2.61018495e-003 8.02579429e-003 -9.76384897e-003 -1.17189577e-002
      -1.82571746e-002 -2.06468850e-002 2.22844817e-003 1.07162856e-002
      -9.01703071e-003 -1.44787449e-002 -8.65850877e-003
      -6.59045577e-003 1.62042994e-002 1.73954517e-002 1.44804863e-003
      -8.25314969e-003 -1.86064988e-002 -1.53716458e-002 2.10024673e-003
      1.63402744e-002 1.10483693e-003 -1.50317522e-002 -3.56120779e-003
      -1.28091080e-003 1.14165107e-002 1.00220004e-002 -9.38691944e-003
      -1.79607738e-002 -1.20212967e-002 -8.85983836e-003 1.15893204e-002
      1.29368193e-002 1.41420739e-003 -1.21857282e-002 -1.41239818e-002
      -1.01829255e-002 3.05213674e-004 1.83613393e-002 5.46922965e-004
      -2.20983103e-002 -1.11608980e-002 5.31141600e-003 1.45546319e-002
      1.87772475e-002 8.46954715e-003 -1.76118650e-002 -1.43772960e-002
      -6.28102850e-003 4.60325647e-003 1.12246107e-002 -7.09453924e-003
      -1.50266699e-002 -1.08720446e-002 -8.07083119e-003
      -5.09154517e-003 3.48804658e-003 -7.01449998e-003 -2.88511650e-003
      -2.85793957e-003 -7.23840483e-003 -7.39521394e-003 1.23309409e-002
      2.40183808e-003 -1.33067276e-002 -9.16295871e-003 -1.07328966e-002
      4.84263711e-003 1.07090957e-002 4.29832796e-003 1.25983788e-003
      -1.38194801e-003 -1.38191599e-002 -6.54824078e-003 6.76206686e-003
      2.78596440e-003 -1.98648614e-003 -3.61752720e-003 -1.44621450e-002
      -1.21987890e-002 9.12297610e-003 4.43575950e-003 -2.43701786e-003
      -1.39218522e-003 -1.28309177e-002 -8.61984305e-003 5.73715614e-003
      7.08514918e-003 1.43362151e-003 6.34727185e-004 -1.04842419e-002
      -1.30338119e-002 2.26874999e-003 -1.21837540e-003 2.26958515e-003
      1.36772264e-002 -4.05442156e-003 -1.12798708e-002 2.65789311e-003
      2.78920401e-003 -1.63668999e-003 4.91962675e-003 -7.87276868e-003
      -8.93317815e-003 4.66259988e-003 4.48263157e-003 4.86483471e-003
      1.10303424e-002 -1.19169019e-002 -6.75811432e-003 -6.05881959e-003
      -3.17301322e-003 1.02073047e-002 1.20525369e-002 2.93624564e-003
      -7.40508270e-003 -9.75585170e-003 2.60833069e-003 2.75496882e-003
      1.32728051e-002 -6.73372240e-004 -8.93176440e-003 8.05045292e-003
      4.97511541e-003 4.82664816e-003 8.46747216e-003 -1.56651018e-003
      -2.34890124e-003 5.46621101e-004 -5.08618634e-003 3.70939542e-003
      -1.07560342e-003 -8.03735666e-003 -7.34068162e-004
      -1.62364775e-003 1.63663307e-003 7.20736943e-003 1.11651039e-002
      -1.13983010e-003 1.68470980e-003 -4.25543496e-003 -1.27356183e-002
      5.88094071e-003 5.41601237e-003 -3.58550414e-003 -3.82666988e-003
      -2.76989490e-003 -6.29753014e-003 7.09804473e-003 8.07187147e-003
      -1.03832048e-003 3.01014259e-003 -9.68231075e-003 4.64708777e-003
      1.37141058e-002 9.33356676e-003 -2.39018723e-003 -2.09869863e-003
      -8.12056754e-003 -8.81266408e-003 6.04315940e-003 1.07090957e-002
      2.06679851e-003 2.37919530e-003 -7.15341559e-003 4.39687120e-003
      1.11341048e-002 4.50552162e-003 3.35810403e-003 -2.26725708e-003
      -5.75870974e-003 3.33522190e-003 1.43104196e-002 4.53224126e-003
      1.36917399e-003 -2.42125988e-003 -3.46239470e-003 -1.05417683e-003
      3.18717095e-003 -8.03813338e-003 -2.76699848e-003 -5.01614111e-003
      -5.44968806e-003 5.61222108e-003 1.13089290e-002 9.85875609e-004
      4.41585109e-003 -7.33405259e-003 2.70669651e-003 7.55578326e-003
      4.43267263e-003 -1.69673725e-003 -3.97841679e-003 -9.88615584e-003
      -5.83164115e-003 4.98724310e-003 -9.31589585e-003 -1.00002959e-002
      -4.63491597e-004 -5.55881823e-004 -4.91546700e-003 1.22761140e-002
      -7.51303276e-003 -1.11968108e-002 7.96053838e-003 2.20488594e-003
      5.26102399e-003 5.46920113e-003 -3.62742227e-003 -4.11314424e-003
      3.02994740e-003 7.62602640e-003 8.27160664e-003 7.47019472e-003
      -5.76838246e-003 2.12526764e-004 9.74788517e-003 1.33822523e-002
      1.90187786e-002 1.26439221e-002 2.49602436e-003 -4.44191787e-003
      -7.64220813e-003 2.11199257e-003 7.54505256e-003 4.10721730e-003
      -1.30610131e-002 -1.62604582e-002 -1.03887068e-002
      -7.20133679e-003 5.97050367e-003 1.24250189e-003 -8.11240543e-003
      -9.93516762e-003 -8.97893962e-003 1.90117292e-003 7.75742624e-003
      -5.71378134e-003 -1.99044608e-002 -1.56527273e-002
      -1.32185156e-002 -1.46589754e-002 5.87030640e-003 1.04579460e-002
      1.84861710e-003 2.04699417e-003 6.17317529e-003 -4.00085421e-003
      -3.71516286e-003 1.00937504e-002 6.21081656e-003 6.44501345e-003
      -1.73126266e-003 -1.08855125e-002 -2.59250868e-004 9.99119319e-003
      -4.08660574e-003 1.91491051e-003 4.35650209e-003 -6.94419816e-003
      -7.41055794e-003 2.00301483e-002 2.41724332e-003 4.09856113e-003
      -5.55664534e-003 -1.87061820e-002 5.34927752e-003 2.37231143e-002
      2.22043488e-002 1.76161062e-002 3.00247339e-003 -9.12067108e-003
      2.36034696e-003 1.35996444e-002 1.46236820e-002 1.53702544e-002
      -2.40555429e-003 -9.01906006e-003 1.23369985e-003 2.20016371e-002
      1.35347247e-002 1.57951359e-002 -1.83955039e-004 -1.23189976e-002
      -9.91551299e-003 6.88868063e-003 6.37586648e-003 1.46540618e-002
      -3.73280910e-003 -2.23529413e-002 1.59622505e-004 1.36627881e-002
      1.68789905e-002 1.47883622e-002 1.08410120e-002 -7.65583292e-003
      -1.11044722e-003 9.25439689e-003 1.55954724e-002 1.29093137e-002
      1.19127091e-002 1.14627404e-003 -6.36210339e-003 9.92069859e-003
      1.80021003e-002 2.03550477e-002 3.74963135e-003 -2.20920593e-002
      -1.13542611e-002 7.95831531e-003 1.58392768e-002 1.55900186e-002
      2.62443931e-003 -2.92360391e-002 4.43317974e-003 1.40642636e-002
      1.02221500e-002 1.30563574e-002 1.96880326e-002 2.06793286e-003
      2.51959497e-003 2.46462952e-002 1.14531070e-002 6.05901005e-003
      3.90856247e-003 -7.96948373e-003 -6.91474183e-003 1.58488955e-002
      9.93601885e-003 1.39972996e-002 1.20313447e-002 -2.52680685e-002
      -1.61699746e-002 2.40959935e-002 1.03324410e-002 1.75592359e-002
      5.89101226e-004 -2.56561432e-002 -1.17514853e-003 2.37487629e-002
      1.93899889e-002 1.11782616e-002 5.91995940e-003 -1.89353134e-002
      -2.86723184e-003 2.47176699e-002 3.01437061e-002 2.37841848e-002
      -6.04480854e-004 -1.63422935e-002 -1.83114987e-002 2.88585033e-002
      2.02747378e-002 2.11618077e-002 4.26991610e-003 -2.32635029e-002
      -1.24619445e-002 2.58444976e-002 3.44182365e-002 3.24356407e-002
      -5.35080163e-003 -3.21919955e-002 4.12585260e-003 1.87293123e-002
      1.72127187e-002 2.58344710e-002 3.96527816e-003 -2.32628416e-002
      6.29750639e-003 1.85410529e-002 1.06719872e-002 2.46245228e-002
      -5.70847187e-003 -2.28904225e-002 -4.15195944e-003 1.83572918e-002
      2.00730544e-002 2.76370384e-002 -2.43309792e-003 -2.91086640e-002
      -1.03476262e-002 1.94419641e-002 1.06893163e-002 2.16528289e-002
      1.88822334e-003 -2.63956375e-002 5.23486594e-003 1.35952123e-002
      9.19500552e-003 1.37092555e-002 -8.10861646e-004 -1.89051647e-002
      2.86253216e-003 1.61233488e-002 1.86232943e-002 1.07350014e-002
      -3.84647376e-003 -1.07671777e-002 -6.54709991e-003 1.38814794e-002
      1.26056820e-002 1.80605091e-002 -1.79093960e-003 -2.02302076e-002
      -7.07671372e-003 2.06215326e-002 2.05413587e-002 1.15430327e-002
      -1.25623522e-002 -2.29853839e-002 6.75128493e-003 1.06472401e-002
      6.20155316e-003 4.52813256e-004 -9.52870864e-003 -1.49450852e-002
      1.69547480e-002 9.39964689e-003 1.35518955e-002 1.03816874e-002
      -4.81498195e-003 6.18215010e-004 1.78899488e-003 1.12132225e-002
      3.84961045e-003 -1.14611583e-003 -2.28002444e-002 -2.29820106e-002
      6.31196378e-003 2.30877870e-003 1.00473966e-003 4.44822572e-003
      -1.72970537e-002 1.30912894e-003 6.50588796e-003 -8.03724118e-003
      -8.05545133e-003 9.53983166e-004 -1.24801062e-002 -8.53231549e-003
      1.07962415e-002 4.45676269e-003 -4.03736020e-003 -8.73974408e-004
      -3.16935475e-003 -1.72331487e-003 2.64874310e-003 -1.06245559e-002
      -1.55398408e-002 -1.10525051e-002 -1.44640328e-002 4.08268461e-005
      1.76230147e-002 2.16444954e-003 -6.98703527e-003 -7.66948040e-004
      -6.70459121e-004 5.90901356e-003 4.34376672e-003 -5.00991475e-003
      -1.40344622e-002 -1.09860990e-002 -2.10123770e-002
      -4.26047714e-003 8.71707592e-003 -1.06093418e-002 -1.09931929e-002
      -1.60264829e-003 -1.27703017e-002 6.23715157e-003 1.02497330e-002
      -1.31015657e-002 -1.31012211e-002 -5.78847202e-003
      -6.39215205e-003 8.04951228e-003 1.36434780e-002 -1.07088340e-002
      -6.58893865e-003 -8.33574857e-004 4.37191082e-003 9.35908128e-003
      1.27949137e-002 -6.95527950e-003 -2.15964895e-002 -9.96161904e-003
      2.20172224e-003 1.03108343e-002 1.00607323e-002 1.10103443e-004
      -1.34899905e-002 -1.77366249e-002 -9.73316841e-003 9.08665918e-003
      1.79924816e-002 -9.00442153e-003 -1.62668768e-002 -2.28397409e-003
      6.15627388e-004 1.24035897e-002 1.81944557e-002 -2.40712357e-003
      -1.53379356e-002 -6.72705099e-003 -3.55632650e-003 8.99917819e-003
      -1.85419252e-004 -4.78256523e-004 -1.07009942e-002
      -9.97374114e-003 -1.34782838e-002 2.04357156e-003 3.97640886e-003
      -1.92307180e-003 -6.19875174e-003 -2.11365102e-003
      -1.01956939e-002 -1.03974820e-003 1.32405963e-002 -2.33725877e-003
      -1.11156832e-002 -5.49658900e-003 1.05047773e-003 1.25881145e-002
      1.22347428e-002 -1.04855811e-002 -7.94225372e-003 -3.38229304e-003
      1.72831130e-003 4.94505279e-003 -1.81052065e-003 -9.36927623e-004
      -5.02236187e-003 -5.49441343e-003 -1.17707253e-002
      -1.67215371e-003 -2.72064330e-003 -1.20114377e-002
      -7.77309877e-004 7.04840897e-003 -6.65310444e-003 -6.26946974e-004
      7.77320517e-003 -9.10210051e-003 -7.68172322e-003 -2.56219809e-003
      -9.22589004e-003 1.15246908e-003 7.21269846e-003 -7.22425384e-003
      2.61439034e-003 -3.62271420e-003 -2.41863006e-003 2.95528327e-003
      -1.12855481e-002 -1.01751518e-002 6.98796520e-003 2.18639360e-003
      3.85790830e-004 -5.65744238e-003 -1.20106023e-002 -4.03400883e-003
      4.08355007e-003 4.57834452e-003 -1.03555713e-003 -2.41742190e-003
      5.94862271e-003 -7.18837138e-003 4.26757673e-004 -1.95879536e-003
      2.60495045e-003 7.00871320e-003 -1.11165992e-003 -7.70382117e-003
      -3.26694804e-003 2.24979594e-005 -2.11716606e-003 6.00438938e-003
      -7.58331316e-003 2.89671851e-004 7.95743056e-003 6.88562356e-003
      -1.15880370e-003 -1.82455371e-003 -8.68181977e-003
      -8.61137267e-003 5.79673285e-003 -4.28378303e-003 -9.11731273e-003
      9.82769649e-004 -2.82858033e-003 -9.53615550e-003 1.04045449e-002
      6.49832189e-003 6.61147758e-003 1.06474757e-002 -5.10241371e-003
      -1.00210775e-002 6.08418323e-003 3.84704303e-003 3.98485875e-003
      1.01296641e-002 -1.41619705e-002 -4.20702947e-003 7.26154866e-003
      3.80105968e-003 5.67342940e-005 4.04880615e-003 -2.23356555e-003
      1.47595175e-003 8.30351189e-003 -1.71931926e-003 -4.68969950e-003
      4.26065689e-003 -2.61005852e-003 -5.28667308e-003 4.79097420e-004
      8.78502789e-004 1.05333037e-003 1.26589052e-002 8.00649356e-003
      -1.19550954e-004 5.18256752e-003 -7.39740906e-004 -1.13103054e-002
      9.63070802e-003 -6.97662542e-003 -3.27192224e-003 -6.10094925e-004
      -4.25780518e-003 -9.05801833e-004 -1.45255460e-003
      -8.35276488e-003 -2.37611844e-003 -3.42822284e-003 1.02352130e-003
      -1.56366022e-003 5.14182448e-003 8.72969569e-004 -6.34037284e-003
      -3.93711217e-003 8.03955307e-004 -1.17839838e-003 3.12420493e-003
      -2.17032339e-003 -1.11923385e-002 1.73188106e-003 2.12348066e-003
      7.15168566e-003 6.47660112e-003 -3.19122686e-004 -2.39747344e-003
      -5.27971843e-003 -7.17119453e-003 8.78093997e-004 1.20246634e-002
      6.78856857e-003 -2.22192635e-003 -7.26178056e-003 -2.89820018e-003
      7.90005364e-003 1.57599989e-002 -2.43385672e-003 -5.51852398e-003
      -2.05853651e-003 3.61370761e-003 9.68583766e-003 1.48211960e-002
      8.34582199e-004 2.05450784e-003 4.31674207e-003 8.05345550e-003
      -2.77781597e-004 7.56721152e-003 2.09872089e-002 9.02592763e-003
      -2.79886764e-003 -7.88607728e-003 -8.62188265e-003 8.79374798e-003
      8.61011539e-003 5.27249230e-003 -6.15636632e-003 -6.34394493e-003
      -8.23584478e-003 -5.09034703e-003 8.03610496e-003 -2.51725898e-003
      -2.66399980e-003 -1.38082700e-002 -1.71072986e-002 5.31666493e-003
      -1.04390336e-002 -1.46804852e-002 -1.55406883e-002
      -1.41897863e-002 -1.78967994e-002 -4.07445105e-003 1.31758694e-002
      1.09869791e-002 7.12655904e-003 1.51636588e-004 -8.07641947e-004
      -1.15076522e-003 -1.76872802e-003 1.93166081e-002 8.98105651e-003
      2.83943699e-003 -4.98341117e-003 -6.51955884e-003 -9.61380638e-003
      -9.64903459e-003 4.52612154e-003 5.07312454e-003 -4.39980393e-003
      -3.22887814e-003 -1.53632797e-002 -5.18172188e-003 5.30994451e-003
      3.87947867e-003 -7.00769247e-003 -9.77196451e-003 -6.22176158e-004
      2.08951440e-002 1.15972459e-002 1.12507986e-002 1.04741834e-003
      -8.25241767e-003 -8.10118113e-003 1.35475136e-002 6.55593164e-003
      1.01716062e-002 -3.45676020e-003 -1.47958286e-002 -1.16310129e-002
      1.35776000e-002 1.16090681e-002 1.14013879e-002 7.61568872e-003
      -6.99474243e-003 -1.41860293e-002 1.65073443e-002 8.95894412e-003
      1.42199071e-002 2.16500903e-003 -2.48938501e-002 -5.24532143e-003
      1.98786687e-002 1.59497447e-002 2.31566504e-002 4.01885575e-003
      -1.99318640e-002 -4.63443110e-003 1.87245198e-002 1.98045969e-002
      1.65672284e-002 1.68545672e-003 -2.48646177e-002 -8.62554833e-003
      1.97958983e-002 1.71251800e-002 2.30335500e-002 1.29437000e-002
      -1.57147013e-002 -1.69113055e-002 1.75123569e-002 1.39055038e-002
      1.86982602e-002 -5.39219996e-004 -2.47973464e-002 -1.24803546e-003
      1.69016887e-002 1.32005811e-002 1.64917652e-002 1.47938961e-002
      -2.51045357e-002 -7.68083660e-003 2.61669364e-002 1.55842192e-002
      2.03154776e-002 1.00738453e-002 -2.77592819e-002 -1.15076033e-002
      2.92238221e-002 2.12390870e-002 1.77715980e-002 1.57103688e-003
      -1.95133574e-002 -1.19050918e-002 3.54124382e-002 2.62113716e-002
      2.55331397e-002 -4.51654801e-003 -2.79439483e-002 -8.79516639e-003
      2.40611713e-002 1.74208544e-002 1.59259737e-002 9.37779434e-003
      -3.77434194e-002 -6.45055715e-003 2.32196935e-002 2.98237391e-002
      2.92465352e-002 9.96132148e-004 -3.47781442e-002 -2.44371919e-003
      3.20745930e-002 2.35829093e-002 2.53931973e-002 -6.68219337e-003
      -2.68361792e-002 3.13964137e-003 3.15254144e-002 3.20493504e-002
      3.24516855e-002 -1.46760212e-004 -1.98548120e-002 -1.63750863e-003
      1.42160095e-002 2.36318428e-002 2.31821332e-002 -5.72450750e-004
      -3.33226211e-002 -5.13169076e-003 1.66814160e-002 1.87950712e-002
      2.56240480e-002 2.31919484e-003 -2.73940153e-002 -9.37455843e-005
      2.58101318e-002 2.82064937e-002 2.77977474e-002 -7.95461296e-004
      -1.93801969e-002 -6.28698338e-003 2.34103408e-002 1.93417780e-002
      1.96288452e-002 -1.04864817e-002 -2.11226959e-002 -9.87375039e-004
      7.94332847e-003 1.57580357e-002 2.24115141e-002 3.44410772e-003
      -2.30201669e-002 -8.50281154e-004 1.28435204e-002 1.40125984e-002
      1.35374339e-002 4.23156982e-003 -2.28534397e-002 2.02990440e-003
      1.99450422e-002 1.20374858e-002 1.58066582e-002 -6.27668714e-003
      -2.29543541e-002 -1.59997866e-003 1.18123302e-002 1.17853936e-002
      1.76045801e-002 -3.08499206e-003 -2.21358147e-002 2.24106526e-003
      1.16250059e-003 -1.61748973e-003 -3.56205110e-003 -8.23682453e-003
      -1.94379464e-002 1.67856757e-002 2.63927714e-003 -6.27864199e-003
      -1.48894836e-003 -1.07862344e-002 7.73036992e-003 3.55214346e-003
      -4.55704983e-003 4.22869285e-004 -1.74488954e-003 -1.55691570e-002
      -1.50300870e-002 1.72640663e-002 -1.16321479e-003 -3.81978578e-003
      -6.50619622e-003 -7.84869120e-003 7.88733922e-003 9.86727607e-003
      -5.57181472e-003 -1.84329506e-002 -1.39821386e-002
      -1.87068135e-002 1.90911186e-003 2.38063745e-002 5.20579377e-003
      -6.38653804e-003 -8.02251231e-003 9.23719909e-003 1.79420300e-002
      7.70656625e-003 -6.93675689e-003 -1.69603098e-002 -1.80394221e-002
      -1.94432754e-002 3.54345865e-003 1.53214196e-002 8.05818103e-003
      2.74492241e-003 -1.18773840e-002 -9.71506815e-003 1.39346970e-002
      7.18112104e-003 -1.72641426e-002 -1.72783472e-002 -8.03981069e-003
      -3.49027175e-003 8.89394432e-003 1.24815423e-002 -1.94126535e-002
      -1.03698950e-002 -7.41413096e-003 2.03383691e-003 1.42930131e-002
      -1.77902548e-004 -1.77226327e-002 -1.82799045e-002
      -1.54581526e-002 -9.15182941e-003 5.98823233e-003 4.83391079e-004
      -2.28654966e-002 -1.57950018e-002 -1.23311700e-002
      -3.76608502e-003 1.26601784e-002 1.00591425e-002 -1.55799547e-002
      -2.11962480e-002 -1.22501971e-002 -5.66793699e-003 1.62353572e-002
      1.53219998e-002 -1.30521301e-002 -1.87609494e-002 -7.65085453e-003
      -1.00324638e-002 1.77937578e-002 6.47949800e-003 -2.09750552e-002
      -2.82094460e-002 -1.52294766e-002 -1.91204262e-003 1.80908237e-002
      6.88298652e-003 -1.56899951e-002 -1.99034419e-002 -9.33307409e-003
      -3.04555334e-003 1.48127358e-002 5.82147250e-003 -1.99280586e-002
      -2.72485260e-002 -1.07007148e-002 -8.82097054e-003 1.32059660e-002
      1.91657979e-003 -2.84137521e-002 -2.22153533e-002 -1.04339700e-002
      -6.95856242e-003 1.28991911e-002 5.37586166e-003 -2.79563535e-002
      -1.79575849e-002 -3.97330336e-003 1.45034760e-003 1.94548760e-002
      -3.03487148e-004 -1.91039424e-002 -5.55442739e-003
      -6.60877151e-004 3.49342753e-003 1.44581432e-002 -1.86450710e-003
      -1.83987319e-002 -6.91115437e-003 -7.96488777e-004
      -1.15689524e-002 -1.41483836e-003 -1.00650883e-004
      -1.26235411e-002 -1.64221192e-003 -9.28655546e-003
      -2.22249683e-002 -3.49300914e-003 7.72442017e-003 -9.48993023e-003
      1.69816846e-003 2.69172131e-003 -2.31883884e-003 4.32692049e-003
      1.00799352e-002 -5.10434387e-003 -2.88673502e-004 -2.04676879e-003
      -2.49830317e-002 -3.29028862e-003 4.84746229e-003 -1.02599226e-002
      -2.15682876e-003 -5.65404957e-003 -1.06338216e-002 3.34333978e-003
      1.22593134e-003 -1.64650735e-002 -7.40875583e-003 -3.28189624e-003
      -4.06659488e-003 1.02800666e-003 1.12984274e-002 -4.92065260e-003
      -1.44184928e-003 -1.66775915e-003 -1.47837158e-002 5.01329685e-003
      5.88529510e-003 -9.84445214e-003 -3.55638354e-003 -4.14879946e-003
      -1.00137610e-002 3.97828931e-004 -4.12407704e-003 -1.24815553e-002
      1.92811561e-003 3.29230120e-003 4.48695337e-003 4.54647094e-003
      -8.03698786e-003 -5.02053509e-003 -4.56549460e-003
      -3.86681320e-004 5.26250014e-003 7.88922794e-003 -2.42520589e-003
      -1.60183161e-002 -2.14020605e-003 5.86816948e-003 1.68982090e-003
      6.08798582e-003 -5.13077760e-003 -1.48495780e-002 -1.17118089e-002
      2.83288793e-003 4.90538427e-004 1.65436114e-003 1.11116527e-003
      8.07726057e-004 -2.41691410e-003 1.09760952e-003 4.34831576e-003
      3.87036009e-003 3.95594304e-003 -2.71911500e-003 -6.48782065e-004
      9.64791689e-004 -3.66384233e-003 6.10617036e-003 1.14546437e-003
      -8.78966413e-003 -7.52154412e-003 8.21960438e-003 3.95911559e-003
      3.32436431e-003 1.30100350e-003 -9.26379208e-003 -5.82529698e-004
      1.14967311e-002 -1.55192299e-003 7.46426126e-003 1.09895039e-003
      -6.76886318e-003 8.10497208e-004 -3.12200142e-003 3.66665307e-003
      3.12131690e-003 1.03284419e-003 -7.79396528e-003 -8.69038340e-004
      -7.65249785e-003 6.77431980e-003 9.49740224e-003 1.50086137e-003
      -6.24518050e-003 -7.43472995e-003 2.25475873e-003 5.20790135e-003
      1.17688393e-002 5.18865092e-003 1.47861242e-003 -6.34416286e-003
      -2.99610710e-003 2.25022831e-003 1.02340030e-002 2.83978856e-003
      -5.00462018e-003 -2.76546809e-003 -7.27170426e-003 8.59475788e-003
      9.42434929e-003 1.60995673e-003 2.21798290e-003 9.58775752e-004
      -9.32173338e-003 -4.00222139e-003 2.46030628e-003 1.24543067e-002
      5.95846679e-003 -1.00839660e-002 -1.14478841e-002 8.61986447e-003
      7.32162548e-003 1.09006278e-002 1.09741185e-002 -6.05987199e-003
      -9.82745830e-003 -6.33180665e-004 7.37150759e-003 1.45365465e-002
      7.37948343e-003 2.93983845e-003 -5.37598971e-003 -1.17305377e-002
      1.01769837e-002 2.65309378e-003 -9.66128148e-003 -5.59949782e-003
      -9.51938611e-003 -1.47154275e-003 6.93758763e-003 1.32441928e-003
      -3.02218576e-003 -3.22980527e-003 -6.75212219e-003
      -1.20008113e-002 -4.54234687e-004 -1.13506522e-002
      -1.69082247e-002 -1.21813063e-002 -4.28555021e-003
      -1.33813741e-002 -3.48361093e-003 1.01418619e-003 -7.86907785e-003
      2.74163508e-003 6.83954786e-005 5.60816843e-003 5.88178076e-003
      -9.44187678e-003 -1.95859396e-003 1.04662087e-002 1.19067938e-003
      2.10626959e-003 -4.62887157e-003 -1.19980928e-002 -1.71143282e-002
      3.29713477e-003 4.15025232e-003 -2.94589950e-003 -2.61702552e-003
      -2.59309616e-002 -1.08345626e-002 7.24304374e-003 5.20018814e-003
      -2.06797640e-003 -1.80714317e-002 -5.45970770e-003 1.89247485e-002
      1.34479562e-002 1.08773727e-002 6.14227587e-003 -1.00272773e-002
      -5.84035739e-003 2.37005465e-002 6.87348470e-003 7.87951611e-003
      2.07580486e-003 -2.14490127e-002 -1.93889719e-002 1.03827920e-002
      1.14816381e-002 1.25146415e-002 1.03858430e-002 -1.86772197e-002
      -1.76697094e-002 1.91065501e-002 8.99683684e-003 1.11974794e-002
      -2.97875679e-003 -3.56722623e-002 -1.09161156e-004 1.76882725e-002
      8.17006733e-003 1.45308068e-002 1.56871248e-002 -7.89925922e-003
      -1.21170059e-002 1.12031614e-002 7.66941207e-003 1.32402061e-002
      5.74883074e-003 -1.92416459e-002 -1.50016723e-002 2.31528562e-002
      1.19942315e-002 2.11786330e-002 1.13021089e-002 -2.59764045e-002
      -2.43857447e-002 1.42159043e-002 1.10683050e-002 1.88200977e-002
      4.81018145e-003 -2.42649913e-002 -1.53108255e-003 2.55392436e-002
      1.69522632e-002 1.26131652e-002 3.80444177e-003 -2.27198973e-002
      -3.80317005e-003 3.39574181e-002 2.63326131e-002 2.61119660e-002
      -7.86186138e-004 -2.16248818e-002 -1.54061196e-002 2.18978096e-002
      1.71538461e-002 2.25230232e-002 1.61564667e-002 -2.55558081e-002
      -1.55990953e-002 3.28592695e-002 2.29804236e-002 2.53417380e-002
      6.04741229e-003 -2.87313610e-002 -2.54269945e-003 2.89710965e-002
      1.61158610e-002 1.76733378e-002 7.55602203e-004 -2.20745374e-002
      4.77924757e-003 2.78600920e-002 2.27958187e-002 2.59369854e-002
      -5.17454289e-004 -1.57304592e-002 -1.35119688e-002 3.45526375e-002
      1.75990295e-002 1.44081777e-002 2.79362290e-003 -2.63085254e-002
      -1.46178333e-002 2.99976412e-002 2.36065593e-002 2.31981482e-002
      9.76926181e-003 -2.81676892e-002 1.77899993e-003 2.28955634e-002
      2.11718250e-002 2.56211888e-002 8.85344669e-003 -1.50782531e-002
      1.67696981e-003 2.15975102e-002 1.10975448e-002 1.54485907e-002
      -2.18337378e-003 -1.60143282e-002 -1.30657768e-002 2.17744652e-002
      2.33643539e-002 2.85601206e-002 1.29228793e-002 -2.11988986e-002
      -1.33119347e-002 2.67704111e-002 1.97199546e-002 1.69471595e-002
      -4.30426374e-003 -2.66852807e-002 -1.83826091e-003 1.35757141e-002
      6.35627890e-003 7.43308617e-003 -3.20991781e-003 -2.38593463e-002
      -1.12131541e-003 1.23517020e-002 2.00219378e-002 1.88783314e-002
      5.27586928e-003 -1.47480676e-002 -7.66705535e-003 2.57316455e-002
      1.00584552e-002 6.83748769e-003 -5.56821353e-004 -2.47111376e-002
      3.92971467e-003 2.70101391e-002 2.61621643e-002 1.40040256e-002
      -2.14595022e-003 -1.12581598e-002 -1.26549217e-003
      -4.45888517e-003 2.48548621e-003 7.46687991e-004 -1.63700525e-002
      -2.14757640e-002 1.21503975e-002 -2.72871391e-003 -8.77361963e-005
      -4.23929887e-003 -7.73813156e-003 3.16619105e-003 3.53369932e-003
      9.67240240e-003 4.42712801e-003 -1.30888645e-003 -7.21022580e-003
      -1.70156416e-002 1.17435707e-002 9.35325772e-003 6.86742691e-003
      -7.16088864e-004 -4.41969838e-003 6.76666480e-003 6.37970585e-003
      -1.04101077e-002 -1.50345759e-002 -2.32586525e-002
      -1.72056537e-002 -1.63945172e-003 2.29238346e-002 7.98401795e-003
      -5.07665332e-003 -7.88921304e-003 -8.34434852e-003 1.08797373e-002
      4.72371094e-003 -8.47531832e-004 -5.68101835e-003 -1.25991497e-002
      -1.46830883e-002 -1.46446589e-004 1.71143841e-002 1.29194697e-002
      -5.03600901e-003 -6.99513918e-003 5.95174590e-003 1.57587621e-002
      1.35515099e-002 -6.13228092e-003 -1.77327897e-002 -1.54887727e-002
      -1.47991152e-002 3.46767041e-003 7.39211030e-003 -1.17886513e-002
      -1.51315285e-002 -1.11646652e-002 -9.96184815e-003 1.58107691e-002
      1.07899681e-003 -8.93525593e-003 -1.67311709e-002 -1.23997349e-002
      -7.77318049e-003 7.42488122e-003 2.04132707e-003 -1.05811721e-002
      -1.16317105e-002 -9.32079088e-003 -1.16665056e-002 1.44183226e-002
      4.14111977e-003 -1.31871738e-002 -1.79999936e-002 -1.41444718e-002
      -3.31842294e-003 1.44954482e-002 7.80189061e-004 -1.62506010e-002
      -1.56002948e-002 -5.12157986e-003 -3.48723913e-003 1.50223272e-002
      8.97460524e-003 -1.66551080e-002 -1.97131019e-002 -1.30323088e-002
      -8.00383464e-003 1.18644405e-002 -2.81978585e-003 -2.29901541e-002
      -1.51174478e-002 -6.75370125e-003 -8.84228479e-003 1.04194460e-002
      1.10304996e-003 -2.22041588e-002 -9.43037495e-003 -4.11153393e-004
      -1.24409413e-002 5.78663452e-003 5.15569793e-003 -1.35507351e-002
      -2.51498981e-003 2.77034938e-003 -8.30543600e-003 5.66987973e-003
      -9.34618618e-003 -2.32932940e-002 -1.34834219e-002
      -7.28319027e-003 -2.04136018e-002 -2.58090138e-003
      -1.16141990e-003 -5.32088801e-003 -1.10209603e-002
      -6.14289707e-003 -1.54749583e-002 6.78613875e-003 1.19520221e-002
      -8.65218509e-003 3.43196304e-003 1.12233765e-003 -7.96195120e-003
      -1.67652301e-003 8.07357859e-003 -7.79440207e-003 -2.09189183e-003
      -2.99318810e-003 -2.58810017e-002 -5.82852354e-003
      -4.36129840e-003 -9.47225839e-003 1.54137946e-004 3.49112949e-003
      -9.45994910e-003 -7.98530993e-004 -1.09875204e-004
      -8.59050546e-003 -3.17139621e-003 1.15777028e-003 -1.82516668e-002
      -5.71196759e-003 1.37102949e-002 -4.62080911e-003 7.51276594e-003
      6.73307106e-004 -2.59552561e-002 3.94598721e-003 4.62477421e-003
      -9.13096592e-003 -4.40720556e-004 -5.45104034e-003
      -1.58903226e-002 3.38579295e-003 9.57059953e-003 -4.03708545e-003
      -7.90627731e-004 8.20456631e-003 -1.18428664e-002 3.88112175e-003
      1.98142789e-003 -8.02219193e-003 -2.00441154e-003 -1.66753039e-003
      -1.95023566e-002 -1.02966828e-002 9.59738530e-003 -1.37838162e-002
      1.55094976e-003 3.84683954e-003 -1.92984333e-003 1.31239677e-002
      5.37710777e-003 -1.69615783e-002 -6.98203454e-003 5.49030537e-003
      -2.58712709e-004 4.65001119e-003 6.79516327e-003 -9.87744238e-003
      2.24951864e-003 6.92161592e-003 -8.03835224e-003 4.64450894e-003
      1.25806394e-003 -4.86775488e-003 5.95805747e-003 9.44815297e-003
      -6.88910019e-003 5.02020307e-003 3.87180364e-003 -1.52191101e-002
      -9.67648719e-003 1.12647386e-002 -6.28261827e-004 2.88139418e-004
      -7.99852773e-004 -1.01927808e-002 5.98256593e-004 1.08475257e-002
      4.53272223e-004 9.70345084e-003 -6.16857375e-004 -4.07765806e-003
      -1.09961508e-002 6.98494632e-003 2.20939139e-004 9.49690584e-003
      6.40626159e-003 -4.16650390e-003 3.26476153e-003 4.27471678e-004
      -1.15274474e-004 1.37361176e-002 3.46569199e-004 -1.05293645e-002
      -1.50317699e-003 7.83634558e-003 6.86726242e-004 4.80440306e-003
      2.37826118e-003 -7.31429725e-004 -1.00259082e-002 -5.80893736e-003
      2.49578734e-003 1.90919614e-003 8.79294891e-003 -1.79973710e-003
      5.88221126e-004 1.75490801e-003 -4.21167398e-003 9.64844506e-003
      1.10580064e-002 6.94479095e-003 -1.80219021e-003 -5.07921074e-003
      -2.32857885e-003 -3.98660498e-003 9.68638435e-003 -8.45590839e-004
      -1.23756304e-002 -9.66158602e-003 1.15481177e-002 5.20420121e-003
      1.25910109e-002 5.11377631e-003 -1.28530320e-002 -1.24687394e-002
      8.43148772e-003 4.73405374e-003 8.14961083e-003 8.34279135e-003
      -5.99455414e-003 -1.03416936e-002 2.73734890e-003 -2.14140024e-003
      1.08767925e-002 1.75188016e-002 -6.34787185e-003 -7.84753263e-003
      1.96444016e-004 -9.24933702e-004 4.93288413e-003 -1.33143261e-003
      -1.05983648e-003 -1.31562855e-002 -1.43777281e-002 3.24516790e-003
      -3.98144033e-003 -3.57392407e-003 -3.73438769e-003
      -5.41622564e-003 -8.05510487e-003 7.72323750e-004 1.51814548e-002
      1.05452146e-002 -2.08888412e-003 -1.67037062e-002 -1.35077331e-002
      4.37098928e-003 -1.61277957e-003 -1.91949948e-003 8.94863275e-004
      -9.84532572e-003 -1.07282717e-002 -1.37308234e-006
      -4.71050991e-003 -4.98641224e-004 9.54469107e-003 5.19493129e-003
      1.91634789e-003 -5.07590710e-004 -1.61039308e-002 -2.67885579e-003
      6.61005685e-003 4.48314194e-003 -5.75458631e-003 -1.35647617e-002
      -2.17479677e-003 -2.57113157e-003 3.43376771e-003 9.67351079e-004
      -1.31399569e-003 5.76008018e-003 3.47633217e-003 4.07785596e-003
      5.76301105e-003 -1.34361780e-003 -2.17506895e-003 -4.79123415e-003
      -9.38530359e-003 8.60909931e-003 1.15143070e-002 7.73831224e-003
      9.69947875e-003 -1.89498439e-002 -2.34273542e-002 1.33469906e-002
      1.31513430e-002 1.66265946e-002 1.28021399e-002 -1.99064463e-002
      -3.90345836e-003 4.56683664e-003 1.47779305e-002 1.47517594e-002
      -3.44175147e-003 -8.88941623e-003 -1.15929749e-002 4.34519537e-003
      1.72556359e-002 2.47944538e-002 -3.11362860e-003 -1.77308302e-002
      -2.30161753e-002 1.43870115e-002 1.45394728e-002 1.58869158e-002
      1.52710993e-002 -1.72686595e-002 -2.82563940e-002 1.62205212e-002
      1.27978148e-002 1.26486663e-002 7.90520757e-003 -2.19034944e-002
      -5.11751324e-003 1.08789336e-002 1.45677505e-002 1.79965030e-002
      4.32669697e-003 -8.06350168e-003 -1.61397699e-002 1.64009351e-002
      1.35686100e-002 1.38695985e-002 8.42888560e-003 -8.76076333e-003
      -2.53148936e-002 1.20027270e-002 1.19696474e-002 1.75116789e-002
      1.76023077e-002 -2.66627409e-002 -2.34275796e-002 1.69625189e-002
      1.60321221e-002 2.07767244e-002 1.28193060e-002 -2.60720588e-002
      -1.39205959e-002 2.21671592e-002 1.52882952e-002 2.36997604e-002
      1.63705498e-002 -9.93585121e-003 -1.72947757e-002 1.54418619e-002
      1.74994469e-002 2.21145842e-002 1.91656072e-002 -1.25720548e-002
      -1.99165549e-002 1.82498880e-002 1.12210782e-002 1.20238625e-002
      1.52868349e-002 -2.77145747e-002 -2.46522315e-002 2.55315080e-002
      1.72537137e-002 1.88633371e-002 1.52700497e-002 -2.65966542e-002
      -2.36908868e-002 9.04728752e-003 1.32207014e-002 1.71811432e-002
      2.59642880e-002 -8.65516253e-003 -1.89006887e-002 1.92160383e-002
      2.42686495e-002 2.63384506e-002 2.05780268e-002 -1.40988948e-002
      -1.97751895e-002 1.97992399e-002 1.68197490e-002 2.10894682e-002
      1.34835066e-002 -2.78289299e-002 -1.47966351e-002 2.00589243e-002
      1.88851729e-002 1.00179482e-002 -2.63291481e-003 -3.66921313e-002
      -1.46525977e-002 1.58438496e-002 1.92689355e-002 2.03924812e-002
      1.14265988e-002 -1.32461786e-002 -8.10349267e-003 1.34660974e-002
      1.90797914e-002 9.57013480e-003 4.08626627e-003 -1.53383436e-002
      -1.11000461e-003 1.45714171e-002 8.78187828e-003 2.23677699e-003
      -5.40260272e-003 -3.51405777e-002 8.85278452e-003 1.41143994e-002
      1.73722785e-002 1.08062970e-002 2.42753280e-003 -1.49280084e-002
      -8.13164469e-003 1.51560493e-002 1.38626518e-002 8.14034697e-003
      4.11205785e-003 -1.29840309e-002 2.74758996e-003 1.18206516e-002
      1.44188944e-002 1.07206004e-002 2.47449195e-003 -1.37414457e-002
      -3.98018863e-004 3.80794657e-003 -3.18982149e-003 -6.45970320e-003
      -8.06188397e-003 -1.89597923e-002 1.65907852e-003 6.62372122e-003
      8.31707846e-003 4.50534932e-003 6.10436453e-003 1.49900503e-002
      -1.21828541e-003 5.56986406e-003 6.54932344e-003 -1.49053740e-005
      -6.45011291e-003 -1.18483109e-002 2.59547814e-004 8.90830823e-004
      7.89505336e-003 8.61979276e-003 2.72708084e-003 1.20563956e-003
      -2.02547453e-004 -4.80383914e-003 -8.77901725e-003
      -4.77420259e-003 -3.53878923e-003 9.64087434e-003 1.15167713e-002
      1.57126598e-003 -3.20475502e-003 2.96979933e-003 5.29597234e-003
      1.38735939e-002 -8.37166887e-003 -2.21901368e-002 -8.79917666e-003
      -2.61555915e-003 -6.34137960e-003 2.10910593e-003 3.64269363e-004
      -9.15862806e-003 -4.28435113e-003 -1.85875339e-003 3.66766611e-003
      1.09438989e-002 -2.39349483e-003 -1.05870282e-002 -1.17260814e-002
      -9.26777534e-003 -1.15026945e-004 7.99635332e-003 1.88007706e-003
      -1.56613793e-002 -1.15298778e-002 -8.76363646e-003
      -1.19954243e-003 1.58554576e-002 -7.08524045e-003 -1.82513893e-002
      -9.79462732e-003 -7.77269853e-003 -2.69017997e-003 9.92394052e-003
      -9.07904832e-005 -1.88599136e-002 -5.41798631e-003
      -5.13592828e-003 3.83578986e-003 1.41940368e-002 4.77544824e-003
      -1.67842507e-002 -1.72756687e-002 -6.06850488e-003
      -1.28902320e-003 1.10001098e-002 2.08273344e-003 -2.54932474e-002
      -1.25001669e-002 1.41773780e-003 9.39443067e-004 1.35989580e-002
      -1.90701685e-003 -2.31554620e-002 -1.53207462e-002
      -2.97587435e-003 2.72446172e-003 1.64525006e-002 1.38940383e-003
      -2.16110777e-002 -1.39729744e-002 3.69130797e-003 4.39445814e-003
      1.27687510e-002 -7.45485816e-003 -2.36380678e-002 -7.51839671e-003
      -1.69122242e-003 -7.68559426e-003 1.29736331e-003 -6.18226128e-003
      -8.72758031e-003 -5.43622999e-003 -9.82744619e-004
      -7.31376233e-003 1.39633780e-002 -7.89829809e-003 -2.38795802e-002
      -1.17098279e-002 -8.84883665e-003 -8.40911828e-003 5.72281005e-003
      3.62610142e-003 -6.97596883e-003 -5.94868604e-003 -4.95330803e-003
      7.24772108e-004 8.57064780e-003 -5.12486789e-003 -6.83071930e-003
      -4.72796243e-003 1.08591584e-003 -3.13180429e-003 1.21355918e-003
      3.87434359e-003 -2.79711816e-003 -2.80875247e-004 -1.02417893e-003
      -6.71877619e-003 -6.97367918e-003 2.23302376e-003 -1.40060904e-002
      -1.65430587e-002 -3.14762094e-003 4.02980763e-003 9.64116398e-003
      5.22758486e-003 -1.05540557e-002 -7.06852274e-003 -8.14631674e-003
      -1.83340581e-003 5.27328998e-003 1.33922081e-002 -9.28447756e-004
      4.51056892e-003 2.96595809e-003 -1.46471076e-002 -3.65223549e-003
      1.11626217e-003 -6.24837400e-003 5.49466303e-003 4.16383194e-003
      -1.29651679e-002 -6.31542271e-003 1.59856007e-002 -1.12507092e-002
      7.30188331e-003 -1.49710989e-003 -4.02349373e-003 1.34864552e-002
      8.09029676e-003 -7.55756116e-003 8.80519301e-003 1.70912547e-003
      -1.11369640e-002 -3.39696533e-004 -3.74484877e-003
      -6.89490791e-003 2.73542781e-003 1.23537043e-002 -1.33658303e-002
      -5.96914906e-003 -9.19162855e-003 -2.13841931e-003 4.00724355e-003
      1.87733304e-003 -8.19837209e-003 -6.52157422e-003 7.71893235e-003
      -2.93259532e-003 6.05988549e-003 1.74999163e-002 -6.97754696e-003
      -3.10264155e-003 3.10808216e-004 -5.74853271e-003 7.00245844e-003
      6.01028372e-003 -3.31267412e-003 2.30370648e-003 -5.00467513e-003
      -2.24117306e-003 -1.10109169e-002 1.51466043e-003 -2.25790474e-003
      6.26161182e-003 3.71097750e-003 -8.12537782e-003 -9.72287264e-003
      5.93098113e-003 5.61809028e-003 7.23956432e-003 -3.42518964e-004
      -4.61765518e-003 -1.28209582e-002 -8.74592588e-005 1.83739013e-003
      3.00604571e-003 2.55677640e-003 1.80861185e-004 -9.84464493e-003
      8.57646856e-003 6.09337864e-003 1.02743190e-002 4.54789214e-003
      1.09779369e-003 -2.45953299e-004 7.82293675e-004 4.26756917e-004
      -2.38867709e-003 6.20604167e-003 9.62024368e-003 4.45195846e-003
      -6.71869563e-003 -3.94677883e-003 -7.83397071e-003
      -1.56910205e-003 -6.41516596e-003 -5.65409986e-003 1.11625064e-003
      1.28373057e-002 8.16759095e-003 -3.98990349e-004 3.71858780e-003
      2.43373704e-003 -9.83922277e-003 -1.60143559e-003 -4.67007607e-003
      4.49234247e-003 1.83913149e-002 5.01732249e-003 -3.88851296e-003
      -3.21220933e-003 -1.37503864e-002 4.11093701e-003 2.31363289e-002
      9.40131675e-003 -4.62780055e-003 2.07720650e-003 -8.45280383e-003
      3.50951334e-003 1.43679250e-002 6.74462924e-003 -2.93988991e-003
      -5.41324262e-003 -3.88642051e-003 1.00526111e-002 2.72819959e-002
      1.26184681e-002 1.46902783e-003 -4.89604753e-003 -8.07281211e-003
      1.93560123e-002 1.37873208e-002 -1.46665692e-003 -2.07590330e-002
      -1.83157120e-002 -1.79894222e-003 4.13541310e-003 -6.68231724e-003
      -1.26501778e-002 -2.46701483e-002 -2.36317441e-002
      -4.59761079e-003 2.81426944e-002 8.51516612e-003 -2.90264143e-004
      -1.73315778e-002 -1.75313428e-002 1.66890733e-002 1.77155938e-002
      4.95367078e-003 -1.46226836e-002 -2.31940635e-002 -2.59719416e-002
      1.04027893e-003 1.44477934e-002 5.47418091e-003 -2.06326041e-003
      -7.25136232e-003 -1.86941940e-002 6.00571418e-003 8.81426875e-003
      -1.94646849e-003 -1.48874894e-003 -7.13661220e-003
      -1.90195814e-002 -8.67218943e-004 2.23508645e-002 8.36360548e-003
      -1.14293420e-003 -1.31651880e-002 -2.29842998e-002 3.69610195e-003
      6.61042752e-003 -8.87423404e-004 -5.19620767e-003 -3.98369646e-003
      -2.07246169e-002 -4.30620788e-003 -2.99133686e-003 5.71283279e-004
      9.12963878e-003 1.11825680e-002 -8.79494753e-003 -9.91538260e-003
      -1.01767536e-002 4.56992397e-003 1.30728241e-002 2.61201486e-002
      -6.74173003e-003 -1.33282524e-002 -2.19378946e-003 1.91035506e-003
      1.24747362e-002 1.32379830e-002 -6.23513991e-003 -5.78836119e-003
      -1.00768209e-002 2.68501346e-003 1.95227582e-002 2.28821598e-002
      -1.79852883e-003 -1.24601042e-002 -2.40553753e-003 8.38009641e-003
      1.04911076e-002 1.77078824e-002 2.59978441e-003 -1.44171091e-002
      -7.00132176e-003 9.89471469e-003 7.89194740e-003 9.09065921e-003
      -5.28341217e-004 -1.12166638e-002 -9.51458141e-003 8.52412172e-003
      1.68031938e-002 1.70952771e-002 7.39364047e-003 -1.34956427e-002
      -5.68405632e-003 2.05036672e-003 9.06146131e-003 9.14933905e-003
      2.39814888e-003 -1.62010435e-002 -8.96648970e-003 1.35025680e-002
      5.88784600e-003 8.39583762e-003 7.71676796e-003 -1.23528149e-002
      -1.46194147e-002 4.01778985e-003 6.10488281e-003 1.24424351e-002
      1.38133829e-002 -9.54362843e-003 -9.06592980e-003 -6.74693147e-004
      1.27034320e-003 7.87722878e-003 9.27734561e-003 -5.71392244e-003
      -1.55025721e-002 2.82253535e-003 5.95610961e-003 1.00892494e-002
      9.04135220e-003 -6.75640814e-003 -1.96728185e-002 -2.63573020e-003
      6.02325238e-003 1.37156677e-002 2.39344388e-002 -1.32486979e-002
      -2.19222493e-002 1.64858170e-003 1.54014351e-002 1.98990628e-002
      2.02059131e-002 -1.71005893e-002 -1.63571481e-002 5.65286214e-003
      1.19315926e-002 1.31965540e-002 1.27729326e-002 -5.18015958e-003
      -1.56478006e-002 1.06005725e-002 1.21780187e-002 1.37362061e-002
      1.75666958e-002 -1.19465636e-002 -1.77534912e-002 2.43028067e-003
      5.92075149e-003 1.32649066e-002 1.17226867e-002 -1.63557678e-002
      -1.22088483e-002 1.10456417e-003 1.29995029e-002 1.16037726e-002
      8.29673558e-003 -5.67382295e-003 -1.17681930e-002 3.51315783e-003
      6.64678635e-003 1.42499544e-002 1.70836132e-002 -6.27228897e-003
      -1.36586232e-002 3.33804777e-003 1.47728659e-002 2.15608273e-002
      1.63310319e-002 -1.00058671e-002 -1.31195141e-002 2.84599396e-003
      1.05097126e-002 1.07502816e-002 4.19163657e-003 -1.05317757e-002
      -8.92890524e-003 5.72038174e-004 1.04566626e-002 9.08464286e-003
      5.91683481e-003 -4.54547210e-003 -1.28354067e-002 1.09040160e-002
      1.32536059e-002 1.64742302e-002 7.33627891e-003 -9.59982816e-003
      -2.46686041e-002 9.58082546e-003 4.56485292e-003 1.84272521e-003
      2.68671638e-003 -8.29526037e-003 -9.87937907e-004 3.51226330e-003
      2.50464585e-003 -1.00324745e-003 -3.57892434e-003 -7.86070246e-003
      -1.26844633e-003 2.08822731e-003 4.42091096e-003 1.19538782e-002
      1.01684034e-003 8.98468494e-003 -1.53069962e-002 1.35133538e-004
      -4.91122995e-003 -5.14861988e-003 -2.58067681e-004 4.66480106e-003
      -4.70782956e-003 -8.07728575e-005 -1.10498043e-002 7.22082565e-004
      9.04872082e-003 1.23863947e-002 -1.03256192e-004 -1.52668301e-002
      -8.67572334e-003 -4.77223803e-004 2.70213513e-003 3.40782013e-003
      -8.37745087e-004 -1.41130444e-002 -9.08730086e-003 2.22044555e-003
      3.36430548e-003 1.46985734e-002 -1.14490220e-003 -9.45049059e-003
      -1.05665484e-002 2.54291575e-004 4.35739150e-003 8.14633165e-003
      -5.71368029e-003 -1.05863800e-002 -8.57674703e-003 5.71882958e-003
      7.68098631e-004 1.73325278e-002 -8.03641882e-003 -2.45522708e-002
      -1.26752155e-002 2.41541979e-003 2.86708307e-003 1.15924291e-002
      3.86889861e-003 -2.08682641e-002 -4.98712203e-003 6.36033388e-003
      6.75785774e-003 1.47383306e-002 -3.12522892e-003 -2.57999692e-002
      -1.31570473e-002 -1.78561371e-004 -3.82556301e-003 1.38655873e-002
      2.91190972e-003 -1.52037730e-002 -4.66714567e-003 2.98728957e-003
      -1.79556140e-003 1.54556241e-002 -3.42638261e-004 -1.93119626e-002
      -4.56213299e-003 5.03058452e-003 3.54190799e-003 9.99939255e-003
      -8.20914458e-004 -1.14076585e-002 -5.22345072e-003 1.03571909e-002
      5.54916216e-003 1.39278341e-002 -8.75512511e-003 -1.72163472e-002
      -5.46690775e-003 1.79000036e-003 -1.16519006e-002 8.35502613e-003
      -7.19921710e-003 -1.21045681e-002 -4.62698517e-003
      -1.92573189e-003 -1.19028063e-002 8.22875369e-003 -1.08348811e-003
      -1.27235306e-002 -6.19356893e-003 -4.53824364e-003
      -3.39368568e-003 6.23017270e-003 1.04230549e-003 -1.19014708e-002
      -2.82241660e-003 -8.14181054e-004 5.68604050e-003 1.37225874e-002
      -1.21641867e-002 -1.80849917e-002 -1.41663803e-002
      -1.07317176e-002 -1.25478096e-002 2.20909668e-003 -2.09426577e-003
      -2.49048714e-002 -1.19691268e-002 -4.14552260e-003
      -2.57347920e-003 -1.82344206e-003 -4.03531548e-003
      -1.80432890e-002 -1.71197671e-002 -4.88243904e-003 2.17708782e-003
      1.37678320e-002 -6.48184447e-003 -1.95281934e-002 -2.75759725e-003
      -2.50727055e-004 2.07465375e-004 1.67636387e-002 -9.80634708e-003
      -3.09723523e-002 -1.55386291e-002 -6.85991673e-003
      -6.62525138e-003 1.85890053e-003 -1.09020472e-002 -3.12120616e-002
      -2.87012872e-003 3.41191026e-003 -1.38098584e-003 -5.20176254e-004
      -3.71363387e-003 -1.84168071e-002 -1.88712368e-003 8.56656674e-003
      -2.84874416e-003 1.54131614e-002 6.08212501e-003 -1.49346087e-002
      -8.72444361e-003 2.34273169e-003 -3.27930949e-003 6.16246136e-003
      -1.44687407e-002 -3.17767002e-002 -4.08366555e-003 9.74670146e-003
      7.27163302e-003 3.62086017e-003 -6.47417177e-003 -3.06830313e-002
      -7.94877578e-003 -2.72750185e-004 4.42641368e-003 8.72258935e-003
      9.10864118e-003 -2.01968639e-003 -8.43452755e-003 9.72604658e-003
      -7.00026145e-003 3.14574083e-003 -5.44397975e-004 -1.14801889e-002
      -5.44032874e-003 1.37164339e-003 -3.44965956e-003 6.59325626e-003
      5.22649894e-003 -2.22798027e-002 -1.67518221e-002 2.08405568e-003
      6.72719255e-003 1.33960061e-002 6.22226764e-003 -1.37795070e-002
      -1.75180901e-002 -7.41985999e-003 -2.40684580e-003 1.66139845e-002
      6.78012241e-003 -2.94189481e-003 -9.48583148e-003 5.90745010e-004
      -1.22935185e-003 1.21232988e-002 5.36796078e-003 -8.47180188e-003
      -1.03965057e-002 6.22857304e-004 8.18650238e-003 1.58794951e-002
      1.02319447e-002 -1.13175092e-002 -1.51700592e-002 -8.21681134e-003
      9.84961400e-004 1.81251336e-002 8.39451794e-003 -1.28809512e-002
      -1.39551600e-002 -2.76817894e-003 7.14033004e-003 5.95719507e-003
      7.64369732e-003 -9.60304751e-004 -5.07238880e-003 -3.11171426e-003
      2.01488100e-003 1.17434096e-002 5.53703308e-003 -2.88695795e-003
      1.43377553e-003 -1.70872267e-002 1.96460838e-004 1.07978731e-002
      3.94418370e-003 -1.39714805e-002 -5.51997265e-003 -5.96076390e-003
      -9.82678739e-006 5.18519804e-003 1.90544131e-004 -1.23698246e-002
      -6.86492026e-003 -1.25650615e-002 -1.07164698e-004 4.45045391e-003
      7.87380617e-003 9.48875491e-003 2.39287294e-003 -1.43656963e-002
      -8.68255273e-003 6.02548756e-003 1.75775087e-003 1.28535749e-002
      6.47595059e-003 -7.44617265e-003 -5.61363122e-004 2.46340875e-003
      -7.80041097e-004 -1.09710041e-002 -7.46441912e-003
      -1.48253962e-002 5.19654108e-003 8.57986044e-003 -4.09045210e-003
      -7.54830660e-003 2.72294460e-003 -4.98358253e-003 2.15550810e-002
      2.05369433e-003 2.10170280e-002 5.09699853e-003 -2.23520142e-003
      -9.00130626e-003 -2.56207064e-002 9.89055075e-003 1.24450941e-002
      -2.69793533e-003 -1.24649303e-002 -1.60120018e-002
      -3.07697468e-002 -2.92516081e-003 1.79737564e-002 -2.59343477e-004
      -1.34863155e-002 -3.02100787e-003 -1.81175265e-002 1.05548035e-002
      1.10015413e-002 -3.07515427e-003 -1.91852041e-002 -1.32495379e-002
      -3.13919559e-002 -5.10149403e-003 1.85987148e-002 1.06014789e-003
      -4.81421500e-003 -1.07915001e-002 -2.94425916e-002
      -1.44337548e-003 7.33869092e-004 -1.69417495e-003 -2.55220826e-003
      -7.25669088e-003 -2.34440491e-002 -8.97663925e-003 2.30701994e-002
      3.13943229e-003 -6.96493266e-003 -2.72915675e-003 -1.19938171e-002
      1.10422485e-002 1.42770503e-002 2.48635630e-003 2.00594752e-003
      -1.52513594e-003 -9.17166006e-003 -1.18527352e-003
      -7.32420664e-003 -3.73308692e-004 4.46817232e-003 9.77751613e-003
      -8.35040119e-003 -1.92707647e-002 -1.92247350e-002 5.53781213e-003
      8.67003016e-003 7.70787150e-003 -9.74305533e-003 -2.44961604e-002
      2.17930833e-003 9.47969593e-003 9.00399685e-003 1.54404109e-002
      4.21507843e-003 -5.96695254e-003 -1.18549112e-002 9.01374500e-003
      1.05895372e-002 1.96958799e-002 4.31637233e-003 -1.04681039e-002
      -1.29094617e-002 5.32828132e-003 1.11134397e-002 1.09453825e-002
      1.44232949e-003 -2.33197194e-002 -1.41102793e-002 -3.38078709e-003
      2.98139057e-003 6.40369114e-003 -4.58054896e-003 -2.10396480e-002
      -3.40571307e-004 1.13797896e-002 1.19329030e-002 2.05850173e-002
      1.53215835e-002 -9.44317970e-003 -2.99990596e-003 5.58534032e-003
      6.45287894e-003 1.18043674e-002 -4.19950171e-004 -1.43477963e-002
      -1.46351578e-002 -7.01992121e-003 -1.13845698e-003 6.59920089e-003
      -2.84005364e-004 -1.35264015e-002 -1.32830823e-002 3.19136004e-003
      1.98169029e-003 4.13695071e-003 -1.21181030e-004 -8.96085054e-003
      2.78879772e-004 3.66144185e-003 4.98889480e-003 1.19454116e-002
      -9.89603228e-004 -1.65100617e-003 -8.10623821e-003 6.14626100e-003
      6.80639828e-003 1.29943788e-002 1.03726359e-002 4.06945497e-003
      -9.24012344e-003 7.91582093e-003 8.02690908e-003 4.69976058e-003
      1.27307035e-003 -1.76674351e-002 -1.53759839e-002 9.83805675e-003
      1.11648887e-002 1.05344327e-002 3.06036323e-003 -1.86281223e-002
      -1.26777012e-002 7.90715963e-003 9.03585553e-003 1.33284694e-002
      1.66197531e-002 -5.00441995e-003 -2.25978177e-002 5.36442129e-003
      1.72888245e-002 1.76877212e-002 1.79864820e-002 -1.14832995e-002
      -1.59717686e-002 -8.24544055e-004 5.98507840e-003 1.33084273e-002
      9.26938374e-003 -1.59269944e-002 -1.47482548e-002 -6.16854150e-003
      1.27732642e-002 2.41030082e-002 8.77645146e-003 -1.18507612e-002
      -1.73164215e-002 2.35495041e-003 1.71104707e-002 2.04994101e-002
      2.06228271e-002 -1.38854794e-002 -2.15325039e-002 1.08047761e-002
      1.59751624e-002 1.55594302e-002 1.00826835e-002 -1.83882657e-002
      -1.55015588e-002 6.88259723e-004 8.56870692e-003 1.42676644e-002
      5.70301851e-003 -1.80385951e-002 -1.19912075e-002 -4.70068771e-003
      9.21645609e-004 2.04729894e-003 8.19611363e-003 -3.38616851e-003
      -2.23355629e-002 4.58158692e-003 1.13751842e-002 1.08681088e-002
      2.68388726e-003 -1.70457289e-002 -1.75648518e-002 1.82381365e-003
      2.12202547e-003 5.03965828e-004 8.93744174e-003 -5.64606115e-003
      -1.28699262e-002 -1.00926552e-002 -5.27717918e-003
      -3.29182833e-003 3.00077349e-003 5.17980894e-003 5.01428964e-003
      -3.01686279e-003 -1.49285607e-002 -5.11676213e-003 7.74153462e-003
      1.25084016e-002 -1.51047520e-002 -4.39329026e-003 -4.81630489e-003
      -4.67748800e-003 4.63526044e-003 3.21207545e-003 -4.13791463e-003
      -2.67945905e-003 -1.92945614e-003 -6.04235660e-003 1.22013604e-002
      1.01940567e-002 7.60387396e-003 -2.05539097e-003 -5.82358800e-003
      -2.97035417e-003 6.06437866e-003 6.96952222e-003 2.91236280e-003
      -5.58265066e-003 -2.72879424e-003 1.00017787e-004 8.20687693e-003
      1.46095939e-002 6.05623296e-004 -7.04221288e-003 -1.86921051e-003
      -6.38295570e-003 4.97215602e-004 8.69027153e-003 1.26896258e-002
      -1.11789564e-002 -2.24898336e-003 -9.94093437e-003 3.73585057e-003
      6.29636319e-003 7.32912961e-003 -1.23631824e-002 -9.77416057e-003
      -2.62396201e-003 9.81286285e-004 1.73734706e-002 1.34146186e-002
      -8.38112552e-003 -7.15432502e-003 -4.39090545e-005
      -4.68599517e-003 2.04630326e-002 1.98896416e-003 -5.22794761e-003
      -6.30188407e-003 -4.20789514e-003 -7.86068907e-004 4.52122139e-003
      -7.53963483e-004 8.35162180e-004 -1.02387894e-004 -4.83084383e-004
      1.66763843e-003 6.66614110e-003 5.75633207e-003 -9.34630353e-003
      -4.61761327e-003 -6.52586808e-003 -8.92787520e-003 1.28033664e-002
      3.16782342e-003 -6.87788753e-003 -9.76140145e-003 6.09892362e-004
      -4.31847526e-003 1.74985472e-002 -3.87250329e-003 -6.47109281e-003
      9.62894643e-004 -3.55236907e-003 4.78831469e-004 7.68221915e-003
      -5.07903425e-003 -1.03421425e-002 6.68978377e-004 5.13656903e-003
      -2.52075866e-003 9.60764661e-003 -3.80722689e-003 -1.25900246e-002
      -8.82648304e-003 -2.77409842e-003 -1.81625364e-003 1.20695420e-002
      1.11888861e-003 -1.45776877e-002 5.30071557e-004 1.50691398e-004
      4.71560797e-003 9.43047740e-003 -1.27563505e-002 -1.63269136e-002
      -9.45576746e-003 -1.00898300e-003 1.82468371e-004 4.37741168e-003
      -8.70876107e-003 -1.73779596e-002 -3.06859496e-003 1.81623606e-003
      2.25558737e-003 3.15939978e-004 -4.69154771e-003 -1.88247580e-002
      1.08750293e-003 -6.90094952e-004 6.25016540e-003 9.57358070e-003
      -1.26643749e-002 -2.65526790e-002 9.19919927e-003 1.06975390e-002
      9.49049834e-003 9.48559213e-003 -2.48098094e-002 -2.43825950e-002
      2.97296140e-003 4.00369056e-003 4.84935241e-003 -6.26481255e-004
      -2.41973717e-002 -2.29116734e-002 3.68862972e-003 1.27213243e-002
      7.87398219e-003 4.42405028e-004 -1.05583686e-002 -1.72282867e-002
      9.28848702e-003 1.50486976e-002 8.89125280e-003 7.33536994e-003
      -6.79515116e-003 -2.30451524e-002 1.88899081e-004 3.34456516e-003
      1.14809088e-002 1.48657784e-002 -2.08881386e-002 -1.49283446e-002
      5.08249179e-003 1.36430589e-002 5.23787970e-003 -3.67561239e-004
      -1.24270497e-002 -2.48324033e-002 6.62427046e-004 5.78916073e-003
      8.22366867e-003 9.09202918e-003 6.53409073e-003 -6.45368127e-003
      -6.57146843e-003 3.23873275e-004 1.03801321e-002 2.41945200e-002
      7.33589381e-003 -1.05545707e-002 -1.45776626e-002 -7.29772821e-003
      5.68882981e-003 3.22448164e-002 5.99612307e-004 -1.54278111e-002
      -1.57068409e-002 -7.94292707e-003 5.82740782e-003 1.67291332e-002
      -4.85627650e-004 -1.12964790e-002 -1.61699988e-002
      -1.33733964e-002 -8.94571713e-005 2.25662142e-002 1.89442728e-002
      -4.36576409e-003 -9.91921686e-003 -2.83560390e-003 2.79190508e-003
      2.87268478e-002 2.06712857e-002 -1.36015825e-002 -7.17230234e-003
      -3.65696126e-003 1.19767636e-002 1.80208795e-002 8.14288575e-003
      -1.27442703e-002 -1.75935514e-002 -1.07247327e-002 4.19523334e-003
      2.62822285e-002 1.07082520e-002 -1.98867582e-002 -1.90192237e-002
      -1.05602387e-002 -2.66145053e-003 1.40386634e-002 1.80141646e-002
      -8.36468674e-003 -1.11212246e-002 -4.12950339e-003 8.61028023e-003
      1.87206883e-002 9.61737521e-003 -2.28520297e-003 -7.79174687e-003
      -6.22320734e-003 8.26457888e-003 1.47207277e-002 7.45014334e-003
      -1.82509851e-002 -1.57892127e-002 -6.37558848e-003
      -2.34511797e-003 1.49274180e-002 6.83970610e-003 -1.36628384e-002
      -5.05684875e-003 -1.53824575e-002 3.37431603e-003 1.48111647e-002
      5.75040095e-003 -7.48823304e-003 -1.32217444e-002 -4.18912247e-003
      7.28678610e-003 7.12719467e-003 9.82348528e-003 4.51086601e-003
      -1.75100984e-004 -4.05468792e-003 1.74070597e-002 1.31926918e-002
      7.88683631e-003 -3.45350569e-003 -7.78682763e-003 -1.77001264e-002
      -7.35307462e-004 1.21658510e-002 8.22397601e-003 2.36830325e-003
      2.22969349e-004 -1.36296684e-002 -2.99719744e-003 1.10174529e-002
      3.59091978e-003 -1.31641550e-003 -4.89286659e-003 -1.20975338e-002
      -2.12593321e-002 -3.92526155e-003 -5.82084851e-003
      -4.34779609e-003 -1.80384684e-002 -2.16858052e-002
      -2.75708288e-002 -4.78692725e-003 1.16401082e-002 6.13872614e-003
      6.12056581e-003 -3.93290166e-003 -7.83684291e-003 9.64509882e-003
      1.24463374e-002 4.16546594e-003 -6.94990566e-004 -8.53349746e-004
      -1.35993464e-002 1.08975898e-002 3.16409231e-003 -3.94942472e-003
      -1.22387214e-002 -5.82460267e-003 -2.03840788e-002
      -8.32023565e-003 -6.60111336e-003 -4.67179390e-003
      -6.12985855e-003 -6.09199936e-003 -1.51816169e-002
      -7.86114577e-003 2.20681597e-002 6.06849650e-003 -2.24679941e-003
      6.35593431e-003 -5.97045990e-003 1.26265362e-002 9.43051558e-003
      4.75983694e-003 1.35931664e-003 4.17596707e-003 -8.53059255e-003
      4.85659996e-003 -1.44985653e-002 1.47693919e-003 3.10451165e-003
